encog,BasicNetwork,java,3.4.0,1,1497262168924
[BASIC]
[BASIC:PARAMS]
[BASIC:NETWORK]
beginTraining=0
connectionLimit=0
contextTargetOffset=0,0,0
contextTargetSize=0,0,0
endTraining=2
hasContext=f
inputCount=400
layerCounts=26,101,401
layerFeedCounts=26,100,400
layerContextCount=0,0,0
layerIndex=0,26,127
output=0.9999817594,0.0000074631,0.000006915,0.0000071779,0.0000096309,0.0000113883,0.0000043294,0.0000068588,0.0000065486,0.0000168548,0.0000123655,0.0000070599,0.0000097229,0.0000060653,0.0000056318,0.0000092643,0.0000072276,0.0000106589,0.0000082038,0.0000115816,0.0000033573,0.0000062283,0.000005729,0.0000085782,0.0000155259,0.0000160918,0.9510836671,0.9036772495,0.9910986246,0.9977480432,0.9657086656,0.9778053729,0.1793693389,0.3745268306,0.0770985241,0.0230674819,0.9869860549,0.9183950284,0.0467200778,0.9013591149,0.0319009103,0.3515709414,0.0397731129,0.9883426404,0.9798836917,0.1442875918,0.965309532,0.0353144437,0.9391511087,0.0147887223,0.9394109414,0.9864391958,0.9309418293,0.0091088576,0.0528291525,0.0446762123,0.9519764079,0.8772899262,0.0027989582,0.0388142534,0.0042301616,0.0130137517,0.9483450553,0.9455033271,0.8694173905,0.965640871,0.0708765708,0.0059154392,0.9444369254,0.0554551712,0.0219995267,0.9147061004,0.2090891865,0.9639371671,0.993449179,0.1541698992,0.1581558167,0.9045493213,0.4613061864,0.9352826556,0.9871077699,0.113281454,0.0096716122,0.0305239146,0.7723852651,0.9787645843,0.9732012957,0.918481473,0.0227151608,0.9936763643,0.1833356664,0.9861657269,0.898301955,0.962225091,0.9708167286,0.0077995947,0.9430595764,0.9328314335,0.9745190188,0.9267622785,0.0262192343,0.0855887158,0.0585234639,0.9677780924,0.9308652632,0.8929403018,0.9871191788,0.8703214888,0.9830302529,0.1460009889,0.0476535004,0.9828277861,0.0477831719,0.9929030185,0.1383277932,0.0076301047,0.9513345649,0.7692086447,0.1749115457,0.968114039,0.9817353635,0.8923944174,0.0477902943,0.9707073345,0.9861749218,0.2720445002,1,-0.5,-0.5,-0.5,-0.5,-0.5,-0.5,-0.5,-0.5,-0.5,-0.5,-0.5,-0.5,-0.5,-0.5,-0.5,-0.5,-0.5,-0.5,-0.5,-0.5,-0.5,-0.5,-0.5,-0.5,-0.5,-0.5,-0.5,-0.5,-0.5,-0.5,0.5,0.5,-0.5,-0.5,-0.5,-0.5,-0.5,-0.5,-0.5,-0.5,-0.5,-0.5,-0.5,-0.5,-0.5,-0.5,-0.5,-0.5,-0.5,-0.5,0.5,0.5,-0.5,-0.5,-0.5,-0.5,-0.5,-0.5,-0.5,-0.5,-0.5,-0.5,-0.5,-0.5,-0.5,-0.5,-0.5,-0.5,-0.5,0.5,0.5,0.5,0.5,-0.5,-0.5,-0.5,-0.5,-0.5,-0.5,-0.5,-0.5,-0.5,-0.5,-0.5,-0.5,-0.5,-0.5,-0.5,-0.5,0.5,-0.5,-0.5,0.5,-0.5,-0.5,-0.5,-0.5,-0.5,-0.5,-0.5,-0.5,-0.5,-0.5,-0.5,-0.5,-0.5,-0.5,-0.5,0.5,-0.5,-0.5,-0.5,0.5,-0.5,-0.5,-0.5,-0.5,-0.5,-0.5,-0.5,-0.5,-0.5,-0.5,-0.5,-0.5,-0.5,-0.5,-0.5,0.5,-0.5,-0.5,-0.5,0.5,-0.5,-0.5,-0.5,-0.5,-0.5,-0.5,-0.5,-0.5,-0.5,-0.5,-0.5,-0.5,-0.5,-0.5,0.5,-0.5,-0.5,-0.5,-0.5,0.5,-0.5,-0.5,-0.5,-0.5,-0.5,-0.5,-0.5,-0.5,-0.5,-0.5,-0.5,-0.5,-0.5,0.5,0.5,-0.5,-0.5,-0.5,-0.5,-0.5,0.5,-0.5,-0.5,-0.5,-0.5,-0.5,-0.5,-0.5,-0.5,-0.5,-0.5,-0.5,-0.5,0.5,-0.5,-0.5,-0.5,-0.5,-0.5,-0.5,0.5,-0.5,-0.5,-0.5,-0.5,-0.5,-0.5,-0.5,-0.5,-0.5,-0.5,-0.5,0.5,0.5,-0.5,-0.5,-0.5,-0.5,-0.5,-0.5,0.5,-0.5,-0.5,-0.5,-0.5,-0.5,-0.5,-0.5,-0.5,-0.5,-0.5,-0.5,0.5,0.5,-0.5,-0.5,-0.5,-0.5,-0.5,-0.5,-0.5,0.5,-0.5,-0.5,-0.5,-0.5,-0.5,-0.5,-0.5,-0.5,-0.5,0.5,-0.5,-0.5,0.5,0.5,0.5,0.5,0.5,0.5,0.5,0.5,-0.5,-0.5,-0.5,-0.5,-0.5,-0.5,-0.5,-0.5,-0.5,0.5,-0.5,-0.5,-0.5,-0.5,-0.5,-0.5,-0.5,-0.5,-0.5,0.5,-0.5,-0.5,-0.5,-0.5,-0.5,-0.5,-0.5,-0.5,0.5,-0.5,-0.5,-0.5,-0.5,-0.5,-0.5,-0.5,-0.5,-0.5,-0.5,-0.5,0.5,-0.5,-0.5,-0.5,-0.5,-0.5,-0.5,0.5,0.5,-0.5,-0.5,-0.5,-0.5,-0.5,-0.5,-0.5,-0.5,-0.5,-0.5,-0.5,0.5,-0.5,-0.5,-0.5,-0.5,-0.5,-0.5,0.5,-0.5,-0.5,-0.5,-0.5,-0.5,-0.5,-0.5,-0.5,-0.5,-0.5,-0.5,-0.5,0.5,0.5,-0.5,-0.5,-0.5,-0.5,0.5,-0.5,-0.5,-0.5,-0.5,-0.5,-0.5,-0.5,-0.5,-0.5,-0.5,-0.5,-0.5,-0.5,-0.5,0.5,-0.5,-0.5,-0.5,0.5,-0.5,-0.5,-0.5,-0.5,-0.5,-0.5,-0.5,-0.5,-0.5,-0.5,-0.5,-0.5,-0.5,-0.5,-0.5,-0.5,0.5,-0.5,-0.5,0.5,-0.5,-0.5,-0.5,-0.5,-0.5,-0.5,-0.5,-0.5,-0.5,-0.5,-0.5,-0.5,-0.5,-0.5,-0.5,-0.5,-0.5,-0.5,-0.5,1
outputCount=26
weightIndex=0,2626,42726
weights=##0
##double#42726
   3.9043434439,1.0587751853,234.1832123636,64.9504247198,607.9087518794,0.6709658341,0.5065633733,0.1355918048,-18.4535083724,-9164.4374219218,9.072744685,1.0010217359,-3462.0878453341,1.753602826,-1.1618044258,-1.1182176507,-1.050293843,0.2086362439,219.8064313874,-1.243784276,142.4413587746,-0.2523843556,-76.8987434667,-396.7621802511,3753.9640941686,25.5556292776,19.6702354254,-94.2829908645,-0.5038500665,71.7136190584,1.7259587014,0.2123606644,-17581.6420229485,-5690.7023723389,-16.0478420013,0.5122212748,36.6292926512,16.9280449866,2.4343581473,1.6011709326,-0.6734596275,-24.8069014759,-0.3674791094,-45669.6117573385,-1.0507268209,2250.9179970646,-326.4983744037,766.4099504979,0.0114490809,-89.3738556147,0.3262155958,-1.3082781255,269.2424491952,80.4443283969,0.4037005023,-0.2696411451,-2755.01880395,-102.6667710101,-0.2827339708,-123.3537289092,0.6779144999,-0.7389337639,-0.8744962539,9292.956560974,1.2219157037,0.0601374952,0.2460002968,5820.8899744529,12.0351714328,-1.0924953151,-3.6967212736,10.713211199,9.1404374907,603.2540307281,-3849.7873531884,-22347.8479335867,-45643.2183815788,96.3610153871,404.4393425291,6.1586770587,1.9889387331,1296.3315613816,7771.2674666656,-1.0801810048,-273.4504628492,-1.0143724031,-1.1318352028,0.028686056,-1068.9806842028,564.1462194514,9.9069950248,1.7656321149,-3152.8153424894,9.6626400222,-0.6760007493,2.8212537796,-9946.3492048955,936.855299941,3337.6831878983,2.0460337222,0.1792802195,0.7699546739,1673.0778664964,0.0267690833,0.6135538251,-85.6858988913,-0.3446703433,0.0360469946,-0.7785507808,-9.6077209566,1420.806130001,-1.6719771217,1.3206887503,-60.6778595119,-0.2939388081,0.6304956207,0.1809393594,-1.0910976496,-0.9072411169,3.3753101335,45.3803188443,-7946.7463577032,-0.2459164239,-0.9238071918,4.4344570772,-160.3646783222,-33.726384846,1374.7655503767,0.0220335048,-5.5732101988,0.9706714908,3.2794883735,0.4920123517,-18074.4273281476,822.2198719306,-10812.9453775999,0.4130617216,18.1724528193,0.8283246396,70.2853675681,-16502.7822826372,-83.7984035896,5723.8302160314,-0.6827783612,-0.5332656507,-6.4510276522,0.8435801468,0.0239096794,0.3357085436,0.1471782481,17.2719603327,0.9122445666,-1.748749306,-0.6066822897,24.0485886453,-0.0589535113,0.6576582931,120.8153783719,15054.2207207017,-0.9625705641,-906.6558552452,2.2332303323,-0.4621364697,6939.6161216647,-1.8157499627,6.572200981,-0.3358250638,0.3149869192,1.6345019727,0.0112345818,0.1267777966,78.5914128303,9.3103170307,0.6777283486,-0.9232510877,-33.6031528305,3.2217516617,-0.3488049237,0.8281645416,1.8949971286,714.8945672229,3.8778927671,-0.4149633318,-44019.5659022604,0.7684810022,0.0150240512,1.800156099,-0.2115504793,-1.3649079551,4.6266755866,-2237.1273799741,1.9491594283,1.0000467433,1.0032409076,0.6172915732,-0.2900893677,0.9901319519,-12790.2938761807,-2725.3612235756,5.2771579396,205.4499569606,0.4420468434,-0.2461975162,-0.6611315521,-0.6964317879,-24.0137197169,0.1513548945,280.4653988465,203.3576417743,0.0912065028,-4.8842874204,75.9243886068,-0.7416611841,-1344.7143286847,-3.8072119644,-0.1036088349,-0.9607096833,-0.8152568553,-0.527818059,-0.2698624176,-0.1848248912,0.457370784,26.8861486359,-0.881540236,0.999342961,-7.5670943159,-27467.3974942925,-0.3575857295,37.4966153474,-0.3592185037,-4.6877212921,4.1818933194,-0.357497268,-22987.0899450863,2842.1280621401,-8250.0190088178,-3877.5618877905,-62.8879694592,-0.3173821449,-0.5107273847,-18.3005953381,-0.5687505333,0.6371385069,-41.6987096127,-1.5980106784,-0.5662305378,-3.9595084201,0.0096345076,-4.0993396898,0.1018849055,-0.5795914469,-0.4346119848,-13.3817139417,10.5128013182,0.6718626809,-0.4787880094,-0.2815570871,-0.3908590261,-14315.5988304809,-8690.8321053832,0.3715616339,-1212.0605409765,0.0401543132,0.1554452993,-1321.0672798782,0.0422400112,-334.6006470126,-0.4592071312,-0.3250039475,-0.0071778092,-0.8072635488,10717.4435360371,-2.7665746319,-0.4648302503,1.1297389165,-0.2900102886,-0.0686848061,0.3558017632,-412.2180974075,-493.3080563881,0.2931985288,19945.0658028474,-43264.379309692,19435.4723275584,0.1658417877,2.246341464,-0.6525336776,971.703834016,0.2625511345,-2.386799689,-6.3227197221,-6397.321023177,-15963.6056263883,-128.1078597317,-2.5330763406,-0.7000407803,-561.6847754455,-0.7731761971,23.6389645635,-5.8350999075,1.2333036007,-300.3186259727,0.3217551551,-1080.918962476,-11651.2148011858,-0.1903829213,1.4901465096,-4349.182663356,0.8403076105,-0.0574667542,3.0749547819,0.0186314012,0.4854308936,-3.4512460332,-26821.820002894,-1493.2092236819,0.4727084977,-0.1638486179,-0.2337557441,-0.6151561696,-1.0464477818,1016.5939703864,5072.8870243735,-0.0066901184,-0.7038374419,0.1750342454,7068.8881034623,-5868.8290830749,-0.3653436414,2.3222542797,3.0016113682,-12.2009572591,-1.0440567758,-0.4478957502,1.3743262835,-11492.3940048681,211.7646198575,3.8207546596,-2.5873126329,1734.9809690657,4.0313619935,-113.4155437201,5290.5740969321,-1.151937209,90.664111017,-0.389290235,-0.3486864187,-232.1492171642,0.3676911435,41.1794415209,-0.28302774,-0.4999407048,-0.2671541533,0.2365317845,-1.333912463,-0.5982671223,-33455.8290857075,4.4547449522,362.6673225676,-0.3752319422,661.7134564562,-0.2926459372,29.2378523583,-3083.4269984405,0.1893265356,8340.3845090153,0.4335325424,54.0827664237,-0.7733147696,47.1214193123,5.6494984178,-0.0319531356,-4709.8425692873,-0.6180571553,-1.1781446396,7.1435009377,-0.8292704999,107.1324403642,747.0830085252,21.483026046,0.7806091094,0.6041197246,-0.0367948878,-0.7859162214,4.6273478227,48.1462588225,-1.0191483061,-0.3023858088,-0.4553508325,2.4544465868,1792.7890185003,-202.8863583417,-10761.3617702831,33.0886265284,-0.3063415905,404.4753436172,6.1291851609,-0.8447693397,1.2393039748,-1520.3061779394,-0.9827721734,-1.5456779623,15.8969812175,0.7659624304,-510.6540612809,3017.2227527166,-11.9169716255,-18.9907398263,-45.6858559368,-10.7724604959,-6.9467514214,-0.3245427519,-52.3265942282,-12.2217174211,-23092.4109407662,-65.1104636546,-8.7955288671,-93.7283365834,0.5036479402,-0.6920377336,19.8077817244,-5.5911068793,-0.2439214158,-34.2531854631,-1.1527803849,-7.6355652367,-1.6032751699,-110.3503839761,-0.1133200934,-3232.24650811,16027.645349031,25.98525922,-95.7799312662,-4.0896655048,-2.7013256584,-21373.7397614549,3881.5912140982,1.7815713619,-402.3366664375,23.0536452479,-37.0711303712,-5.5526063283,-19.6871068028,-0.5325526387,0.6980320185,4162.7218761368,-43.4260844689,-14.9989575158,-294.4118841453,-10.0371185236,-137.7332287845,-3.1070110308,-7.9482033876,-1564.8730061266,-2.1670857809,-6.8287473619,-6.0331514473,-242.6174424214,-7.5630054745,265.1314835958,-279.0349332185,-1879.2445475437,-1.5851972262,-71.7190178958,0.433627284,-7.2681868153,25.0240586355,-382.0137021943,-130.1818495596,-7.0599181252,-1.5975318576,0.7624359802,-3.9767885603,2.5409046326,-0.9191921098,-641.2689495754,-1.9276749483,-7.5421992954,-6.846968743,-1.888237815,0.6161319458,-25.0958036151,-11.0416581139,-39.9466808123,7.3926512533,187.2728123225,-3.5000651931,-0.6040036693,-7.8471026137,-58.1316211485,5.8179890605,-6.0501748382,45.8782789583,-7463.8312182439,-56.7119477124,0.470715188,107.0552789896,-17.2682873338,-2.4183452318,-1.8860171994,-327.3296043845,-22913.226365143,-17.8295757011,-2.0585408195,-2.577732061,3.6339886632,489.0191704412,0.0082153788,0.8205662465,552.8531215404,2.399448502,-0.8577827248,-176.9439209642,11.0100078869,-10.7156287789,2463.6524577184,0.8773259793,18.9046838248,-2.6869706638,396.8731850476,44.0876200971,-1.1862831706,-0.5369028361,-56.4744033979,-14690.5300646252,-14996.2885596658,-4.4504003904,0.3156723767,-3.2136732624,-285.9803560276,50.9594304137,259.6041814665,-0.0614461521,-0.62714625,0.1636974083,-0.5333270786,-2.0998902898,-1098.0850367587,1149.6614296196,-1646.3780181606,1474.9171820946,-2.7058488317,3.6472985265,43.2918131404,2157.6494698958,-0.1378070771,-40.5306904957,22.2420052613,-36.7515574773,-6.3670092653,-16091.5510613029,98.3728353226,44.6259133127,47.3011529733,-330.7286378795,0.7270440405,6.5691792764,-12583.5633295832,338.1640639962,-1.5247622532,-21.348981904,274.6435480052,-9205.7180711798,15.2337588219,-24.0245138323,2432.8984143363,-47.8425371031,-28.8380079882,1.7549044729,-35741.9242780527,5.1691769784,18.580875099,11.1717440178,-0.1883074664,-6.1109345277,0.9562637485,13.2363636417,7.6605977263,-1.0456201963,144.15820352,-25017.1014962899,395.4064660927,319.7230896159,0.9750655405,0.6504314658,1.4236232702,-6.3285510602,4954.6846420263,5.3736337418,4.0356960741,-0.5666061622,4.331658729,-1.3092563878,5.70500732,-3218.8531616632,1181.3903138537,2.6825846694,35.6093645195,162.0599427524,-2.0961115691,6.6266153771,-41554.8109450795,-15096.4788590029,43.5794958203,14829.3661268176,-0.0060005898,-0.7416399812,0.1422099525,-0.6824215883,-1.4693173424,-3139.3443121485,-0.8934089098,0.3910073336,-45.5320489848,1.314712344,5357.2667554266,-3.3800642241,-15.4086440683,-19.0169448444,-19140.1075751096,3.7569537248,-0.2797664186,0.3721066977,-0.1356655682,-17.0287611474,-0.4540119627,-0.6056327785,-0.2876471054,-0.8139597217,-6.3058224975,24.4608143289,8010.8294130533,-0.1546540127,-0.0198994591,0.6521316096,0.2053599347,-0.5816523536,-0.179539341,3157.6994700989,-129.7763376689,-47.1038120404,-0.8945628418,1.6615952311,-0.0216591047,0.1994093693,-45527.9176518517,-1.6855838068,831.4758651611,0.5118983477,1.3408730254,-0.2188284242,-59.5637493854,-6.369381082,1.3448199705,-0.2708787097,-7.0206087788,0.3870896043,-1.4901034447,0.3290612599,-8581.3583283951,-0.5172088443,0.418739255,-162.8734290932,962.6948075995,0.8517186599,-104.1351898001,350.8949309253,-19281.4029900271,-154.9402341382,-5.6589639921,-42.156221239,0.7167657518,-0.0534962941,-0.6240773285,0.8541692704,6251.1540991994,-39200.4774472048,3561.1345812482,-0.7792933251,0.1824333051,-0.5452818236,-1.2789673643,-6.4201643044,0.6649928511,0.2031400464,-0.6949639392,-0.6795930289,0.0583840674,-1.1277307906,-0.9219837669,0.0006611729,4.5093302487,7.2197324381,-1.9972651664,-0.4248272896,-1.6490407952,-145.6276247332,0.3696816387,-3196.7404008554,-4.2223975511,-0.3703133618,-0.6211675179,12441.9875796741,-0.9028364978,4.6929824431,-5.125399853,1.000044029,4.927367777,1.8999946396,-0.4621642596,-0.418924211,269.4585850644,0.6860447721,133.1810330137,155.7871720273,-1429.6299115276,-1726.44474171,67.1579169471,7.2246373777,-20397.2431101109,-6278.9335673037,14.4571577114,6.6256150301,-0.3017376339,-0.7279729783,13.46005779,-3763.9714630311,-0.1561915847,0.8706004318,125.8170465924,-3.9998872253,-16.7795941484,7.2485693605,-128.0317521611,-0.5015991344,-55.4333974165,2.6356371161,55.5945811624,12.8247576416,135.2312788901,12225.0585940134,-775.1889676415,-170.2776130541,49.7645259696,28.4569986399,732.7951767529,0.6192025749,1032.7997742102,224.0118726731,0.4216428106,-56.1099692844,-2.2087247202,12557.8117040598,-40402.2997865759,184.9084762809,2.0818793871,55.239024264,6.3393658029,-6.6610487038,0.923056366,-30557.6735102311,7.1180357172,62.2060124348,83.6509766224,2879.0420440629,1.0059311961,10.0879429854,3225.1436479625,3.8829109208,-4464.7974510355,-10.1297209809,-3921.4435390611,1.9754385356,-0.7115853707,-4.2814865755,4.0879983111,-277.0225369991,5.899422474,-0.5848750783,0.5896734168,-1.207546697,18907.4194627977,147.788671362,4.3238809253,25.8571651855,-0.681144388,-8.5413061771,3.3519989019,13.2626549558,24.8151176378,-0.3668722578,-0.2950425242,-3967.5584996508,0.6850396301,3.302746986,108.7058451997,-151.4328139035,-90.2491414714,41.460427446,218.9779919334,-0.8462763093,-0.8744518945,2.1719400045,2636.3089409738,-42510.3478949736,-0.7580227738,241.2229142484,1.5687764798,475.9815354461,502.8718576811,12.2363644215,13.1495508625,-0.183535677,2.772057669,0.6216173885,0.0863477623,12278.5345724746,-1.8473415195,49.8484407681,-0.387087993,1587.3036252053,42.540221905,-0.0140700271,-6.4078790345,-0.2443036602,1.5634205558,-0.6201329696,-0.5822032038,4.9921610913,22.0203404527,1.6790748594,-4.6912307264,78.3911152703,38.057303475,-18793.5261081465,-203.2906149467,1567.8593043272,-424.1471202471,60.0082066474,-18630.1287632802,-15640.6560648911,-189.5455614488,-1459.186267179,-0.2866226919,125.0224353909,0.0320520002,46.7327016209,96.4890527046,-3.6892082801,-9492.7397007436,142.3860050327,152.3057303164,-57.109736049,-0.4553379882,485.3552435982,-17307.7417266475,0.4253658562,-33253.8834246003,129.1806338188,1.3993182513,6.4136299976,0.452302909,0.1276962809,3.5352425789,-11603.6373027552,-10760.1747751112,13087.0260585327,98.0605838251,-2.0633169466,31.7902723021,0.6247152099,142.7232485414,-0.470930799,1.4294632005,-0.3478516386,0.0933139716,0.0266146645,-2.574514499,4.5997786443,1.7608336854,1.2360647327,0.3603890494,-588.0231386687,6.312250471,-28065.9974648358,4.8228143432,-31586.0671897197,-13291.644736003,11.7393007217,111.9908463649,115.3164617384,0.1035429296,192.1450157644,-0.4134606663,7.826980117,-0.0408550136,-26260.9780508562,-1980.6505566278,-0.9715238777,3173.6528609389,-0.1526657475,2.3885445054,-0.2120513787,1.6447847989,3146.2444923098,14.3212516465,10544.3520056668,11.5272841224,0.8109535845,-6063.7600935297,2479.0405600183,0.0332310106,14.6004026169,143.0395945492,0.3585548448,54.0457409422,509.9460018618,0.8832363371,8467.2208875677,305.1198991315,-1.9567519456,-1692.348500251,1.0288585318,123.1809612168,0.3626452857,0.7989692319,5.9314942294,217.7130151884,432.7253355342,-0.0255995913,0.6236664206,1.2215647138,-695.3609103408,-887.3466203112,1.8735611074,-22.7832074169,1020.3461625466,3.2166118045,-0.1928962017,-0.2952243032,2.4788232363,-5697.1002874139,-6842.1334735052,-3979.5987603288,-1.6934932195,-0.5567633254,0.033725575,1.0357917096,-0.8901018,0.9229090234,-2869.0706631373,8.2826078658,42.989653913,2956.8922236813,16.4316188728,-10931.9040622567,1245.0273247449,6.2893277266,-6043.8594795115,67.8576755217,-0.3245563142,2.3340493682,1.814127842,-0.4500759847,1021.2630365334,-283.6751831625,68.4774032117,0.7669029236,5.5377435867,-14222.2590095006,0.5840750071,1.9581397172,-0.145050476,-4261.2312732932,1.025292211,0.3927516612,156.7905157079,52.5344373838,-6781.015924485,-1.0782565579,-0.357095114,1.0542292135,-0.1578285295,356.2348650813,-1.3502839672,0.1914368483,-10197.802640916,1.4222547766,21.4808561573,37.6636236178,-0.8147442097,1.3796836989,-0.2748162515,0.1525766974,0.2498650279,-0.7705486128,1.8133233006,-83.8568524467,-954.368659902,0.5392738867,0.471248419,-0.0868250282,-0.7319967265,3.088199205,1.5884430105,0.3900800361,47.8399510429,-0.4726591779,1.5799941134,-0.2786556416,0.5061390574,1073.807552465,-2501.971258286,0.4568311242,0.6905820799,0.2410890786,-1.3210521191,0.1005015459,-0.7888577853,-25985.1353396745,0.0160719874,0.6901306771,1173.3262192548,-0.6692122611,-0.6406219706,-0.2197249231,-0.6362921428,1.1278839804,-13565.5251990209,0.5929154624,-0.4547081621,-0.6577074077,-0.5994927068,-0.2901191784,-36.2483299628,0.1189858201,-9343.1602397806,-1.5531720474,-0.3320389481,0.0755255762,0.05113532,16.6811000343,944.3401916863,6776.6622797226,233.2118591967,0.3883942337,0.1316709542,0.4344963258,0.1973933636,0.6391112227,2917.1278902962,-859.0666030675,-0.5455919248,-0.9414283199,-0.8004791387,0.0808577284,-1.0789935372,-4551.6017541247,-0.6110469516,0.7053462911,-23.9238290024,-0.9279415726,-777.2553769814,-0.1864693785,-0.7859463104,-0.9692378885,1726.1788191804,-10920.1457362461,0.7016261166,0.9163499006,1.1172489079,871.4903834184,2.2441196564,0.445311327,-0.2758207868,0.2050116452,-5.0363676047,-9352.7625875143,0.699598616,-153.1256225425,1.3638785057,-7.606815509,-0.3375757876,0.4633906137,-123.5522051176,0.1433292594,0.8882914128,-0.7689209863,0.8146522433,0.8477840992,1.0945753554,0.7660180239,-0.0669480775,-0.4274715762,-828.0509696268,-0.3601190291,-0.7220337928,-0.2300356011,5.2711436935,13254.7617677359,-4593.3217853751,-0.3767063349,0.9627690258,-0.2297757434,-29.4115850535,0.1781438176,0.1112263132,-0.1376276385,0.257398875,2839.3771032949,-0.2364069166,-0.5832158137,-20.9564359259,-0.8246187443,1.4875148513,4.3066435217,-1.1663176981,16.6875301887,0.3653267812,3.0410611411,-2013.1268281858,2.0105354837,-1.4711270019,-2.6179206271,-0.8317092421,2850.7701518965,24.839231378,0.6064709047,-0.4974817748,1.6155511453,10.3957192255,4845.8619734142,-0.1508940107,-0.2743558071,-59.0773948879,-4.5363474454,-9551.3289026232,-22328.7569883866,-1.0599177092,-19087.8706308267,-2.018940461,3.773722776,-1653.6569770816,-11858.0674711634,260.7524722715,-15309.1560809444,-0.2445685125,11.7695242268,-0.48634812,239.7528432565,0.7375490713,-4577.9927980854,-7330.6551439848,-0.2808925738,-0.3625307602,-188.4048837846,-29.7530148176,242.8388686814,-1.1320763702,0.3393678138,-19228.4564484537,184.0100205476,-1.5141078848,-6.4662590633,-0.6950595559,2.1507543517,1.813442902,-386.9068957712,-5444.2931623393,1.3996048361,-1376.192543738,-9578.1419809201,-141.4958874504,826.0921288513,-11414.1832839379,-6735.6128846455,-0.2365452311,0.4151251854,2.3861582067,-0.8183453082,692.0881482377,37.573176626,115.791712748,1.5320512287,-0.3404027149,65.2201387886,211.0032487249,12982.3365834521,0.6699289331,34.6343255353,-0.3037362772,3.7883043775,34.5387678988,1.0639678477,-0.1009961079,6.0310459948,0.7481331583,7.4541782346,1.8264828504,138.4962657519,-10456.794507224,-9608.9499254117,604.7934953788,5.5522029553,0.0348804814,-1.1284037262,1.4107454293,179.3474831106,1009.7308977387,-9581.3189165357,6.779015168,-0.3018018665,13.6723277234,-3.1350181102,2.0074378721,-5.7516526458,227.1839186441,-138.088930445,-0.968990281,0.8724251313,-1.8151294934,-10.4683745317,-392.1870811752,-0.6630239428,9.2642633934,170.40130425,-1.8991501427,-0.1142290324,-0.0001942083,0.6095239468,-0.7828240978,-9864.0943051585,2.4725916327,-1.025310679,-0.5213032927,-0.8673011433,8.8989058329,-15.7608823881,-483.4584076543,4.5825991754,506.9415104311,-5.5776844797,-0.3850052965,0.553235125,-83.5112535356,-481.7341693862,-156.5315575319,-0.4832338925,-9872.7473048174,-14332.1317849245,23.9283870875,-0.1151740482,-1.9272125078,-1.1504061257,-3429.5498332777,-69.8084462411,-1.7757217611,73.6662925146,0.3260755,-4962.1868586451,-0.7379031011,120.2868376428,6.2250678236,-2.7527798306,0.4446173249,1721.5691840382,-16.1899688742,-3.800687206,-0.3961966359,-2764.3387061617,1.0983554818,-3.0298040134,11.3845603413,-274.5172752452,-1417.2731901345,2.3184817317,11056.7037145778,-1.5312934838,106.2014547382,0.9138295526,-0.755099937,-36.3707578778,-1.9944482506,0.6420378683,-25143.881525617,-0.0169995664,-39.1628925287,1.6958990508,0.4026540054,1.4598601082,-1190.4309739866,-12.4500099587,2257.2887392218,-1.0871877169,0.480697619,1.4741435414,0.0202280649,-1830.4963666495,-2.9583593612,-21.9854944663,7021.2005795905,-9081.558552784,-506.1923374982,-1.9896136235,-0.3843058442,-1.399716967,2941.8614766734,-1.488980668,-0.2179816041,0.4745408129,1.6349178804,-74.9192422461,-0.0732654755,229.3777533366,-25.2159758102,-41.2850053767,0.7686002147,-0.2055951974,-0.7346894957,5.307740401,0.5690911848,15.8638141862,16852.7013448182,-0.1895910255,-0.1392527853,-0.2445987254,-33.5717889515,0.588561604,-36.5516875282,0.4670255479,3.794564556,-31.7384465877,-1711.7828159106,7.915758083,-4.9083831646,1.4020858894,-31.1698100007,-0.0550012246,-0.0347721918,-4012.9178244878,-708.6583688145,-3528.8396111539,-1.6337609961,-0.1031580399,48.2618034763,-18189.9949630595,-2418.0590200903,818.5082714252,2.6013360351,-5055.7941805271,16.6223759725,0.6243291127,-0.9438743297,21.0494404477,-0.8449499635,0.3222537943,0.01636166,7153.7548891752,1.0210253995,-5.9524727568,0.9145278403,-0.4164753881,51.6941397383,-1952.7835485222,-52.4422244916,0.7956386024,-923.2043007137,-0.745415338,0.3871598499,55.4543546901,-1.0040925509,-59.3186545514,-0.7192055939,1185.3366491204,1.0611826689,-87.3713157421,0.0983774952,1038.4647898773,-1.4578284894,-6.2725164665,-2.5751902732,-0.6025343213,23.9642642853,-0.8242276075,-8.2534159735,-0.1491762303,0.0028995769,-0.4356775831,0.8235223818,-0.4573468692,6.8806810959,-13.611572114,-16911.6610725471,1.1213948712,1.5211251763,0.3627942972,838.2867378585,0.2497880291,-9995.1509194767,-2.0400123782,-18.3085546028,970.2252051612,-8433.6732468979,-11475.2288233806,2.6442805584,13.8658616464,-0.2036434829,-39140.2526818421,0.9625361847,3.6855307476,0.4475922261,0.5974467675,-0.0345798049,0.2875940711,-68.8504411113,-38618.5224606188,0.5197109582,0.2670599289,650.1749515058,-10.0509114836,0.9053386011,-0.7365348355,1.0488073908,0.2997241979,-85.5162132093,-0.930729255,0.7535933419,0.5325917988,3.2670261769,-0.2287492675,-0.3352989139,0.6258631412,-0.1408563347,1092.5188796751,9.7750607356,0.1617288716,0.551333891,-0.4839691495,2840.9500754626,-94.7168513085,-0.070353752,-0.4489824491,5862.8753525754,-0.169941544,-0.5370056989,-2.0813920744,34.3328828934,-13449.2726712218,1081.5632253337,-0.3487380962,-0.527943272,0.6092684622,-2.4564686619,-0.1756988048,-2.2384876828,8.0276546644,0.057344614,0.7811787681,3.4982753342,-1097.2430165977,0.5950717502,0.8151193286,-0.410672583,-1.3870692138,2.2292764727,-0.2190638041,0.3856465401,3656.3583239476,-0.4487327235,-6.8303543372,-11491.4189004438,560.506741573,-0.4025413863,48.5987298836,0.1638936481,-0.3132028939,0.4389572808,-123.3040606019,-0.9270687865,-0.8286419349,0.7483022321,1.2589620208,-1.0889216576,-1470.0509157377,-0.9094463674,2169.20707606,-28254.635622637,0.8785908626,-153.8934205359,0.5743931329,0.6813149005,-0.255615963,0.2566553512,0.4512767968,-43441.9333624454,-3.3198623829,1.0401567191,-0.2356796995,0.4110104822,-0.8145789536,0.7813936565,-0.8734588612,-189.9786503328,-5920.6561200675,23470.1040607283,-0.7397755905,12120.0768093141,-252.0641855072,2.2986213359,-16415.293174726,-3436.0296191699,0.7857309733,-22.965385512,-49.2102247212,-0.8598915427,3.238464126,-575.9219487981,1040.4485122376,975.8403249158,-0.9262062296,5.455931099,-1.6365125322,-31.1299058578,69.9670075603,-5399.278298573,373.3020782854,7.1494509893,239.6203518618,-123.2582384604,9.1189421987,4.9828629633,-4.6902328441,10.3296704835,-52.4968044558,-5.7424912605,8806.5898054553,-17.2780623325,28.1885324933,-138.7808358397,-18582.364758001,225.083729166,1072.4713707391,-665.1437551171,-0.5626262463,-480.9729915358,10.0502747464,171.4627184114,-1114.9607684613,13.0657368024,-10155.281790574,84.8708118611,-2.8865222035,2.1004140108,58.1659121751,305.4566398958,-0.4168185118,-0.1763511263,-6.2944746528,-33084.0411596227,-201.4890730965,1989.7872129114,-244.0749255902,-15.5024460615,9.6115767315,-5.4491415994,-0.5074022451,0.8633020542,-10.4470602503,-7.0359941359,2.5136815706,-54.1748926305,103.0810069901,-3874.6877346946,1150.9162634812,244.1250004789,573.5088020241,-19141.6294320394,2719.5512513664,-3.9686276958,11756.057674051,-5.08568165,-35.5927797284,644.1853672893,-18.3471190835,-0.231139071,9.5483395238,235.6006204866,11.4943913094,-45357.8354308314,1061.9158201354,3.7411246751,29.5200224051,240.8423757614,1.9189158777,5730.4434588473,650.3819758844,-0.9345668542,107.1643466276,7.1726189347,21.7835558771,3.7838743139,19.8780409475,299.0861088513,119.8722797017,3349.3862361104,83.6152099344,220.953659371,83.6999825101,29.1520025651,25.3535053377,2.4604358573,-2352.0439583929,42.0235529785,119.8743542012,2.5591900679,-0.7810050468,0.1560227237,-53.418009217,-2.5512962301,-2.7184186091,-3.7327706472,-5.5027376902,0.3154475078,-1.2216562724,0.0541896634,1.0751793985,-23.1723949396,0.701608262,-1.2011099817,-4635.6373849546,-8.9530232081,0.4316444388,0.0470061632,-0.6377225266,-8.1979744364,2.4646905767,-17926.4548921829,0.0594052479,-1.0457069847,0.3439513898,10917.8012557572,0.3934024912,-104.2784597444,3.6713232224,-228.9083240208,1.0766683558,0.413298465,52.2881750682,-1330.2493349268,-0.8262074163,564.5316235597,-0.7148734803,-0.020557401,0.6634129132,-0.4033848355,141.4539132257,-0.7689067749,68.665223111,126.2684431902,1.0274574919,0.3689697009,-670.5959212121,0.7432804592,-0.7058964625,0.3095302572,0.4230342317,0.3798600346,0.0869196715,-0.312853975,-0.2450767994,-0.8274855078,174.6482524882,-0.9300780047,4.8817568966,0.869108103,-1.0189384541,-2.3929993768,193.9133052254,18.2202472278,506.420742886,-1497.807839943,-0.8680933105,0.7379941697,-0.0079667683,-0.0852631766,64.912779746,-1224.8769121036,-1135.3341113943,0.116331388,-0.6618317991,-11154.0285578741,20.4034784901,-0.342903792,0.8766694694,3.2992104342,1350.8861090566,-10.1860102636,-1.3754107874,0.5600357864,-1.0470257618,-0.064976376,-0.4833227594,0.4565283462,-45805.1348151376,-11965.3659137966,-0.4813984792,-38.9752094592,-26558.4290097691,-39.3073094721,10679.9287621218,-0.5372894671,0.2567280785,15368.2846018269,-0.7226364568,-18.2556880995,-0.206789672,0.4449374351,-320.1332775567,-10.4843786911,-204.6922201172,-1.2397035474,-6861.5761775096,0.6850127011,-25.8269658372,-71.1503946689,-5.1605601281,-6799.5440232262,-1.3751976438,2.1231284859,-4.0052990728,0.2053132971,-0.0370723631,-0.505885676,0.5163645819,-0.0829425978,0.1278386725,-32.5492174976,-82.6302936432,0.2919261205,-1.2192748737,35.2987321763,-16.4666738068,0.3252656522,11866.4220766506,-0.0016463233,943.8819829016,-2.6751427275,-0.7310900999,5.5518361614,-795.6093362549,-7516.6435958059,-549.4929997449,1752.3488369776,-2549.8176664841,1.1753280305,-0.9847526527,4.9034471155,-609.2984288947,-99.5197476445,0.7852203436,-103.4963894878,-20.0137914168,-2485.4977249219,-4.0410776683,-9.1313004545,-0.1227911159,11991.6654624376,0.5084627233,-0.2652388133,0.848486061,-37.4918319895,0.0158514986,-0.4131453742,-181.7367583071,-3328.8355782359,0.5895274262,-2218.306780674,0.1002961864,3.6231179284,-10121.2081891616,0.1308387097,-0.6568325349,0.1896082466,-0.0491220242,-18.1295527065,-3.1969948185,-1039.9519499767,10.6220923288,0.5865207135,-0.5377105342,-0.5506760479,-98.0706671885,-70.1587348099,-3.3895226725,0.5158589736,-0.551385698,218.4999547376,-110.2023607322,-0.3209328181,-17.0365765113,-0.2111889692,-0.6744423349,0.5165349063,-0.3612378243,0.8537979407,-2.2231778028,-634.4885958529,103.8779174797,-0.1885773561,-0.3211454979,0.3036257211,-1.0637609677,-0.6867026365,1606.2318589647,-40568.0961033117,-17.9704810896,-20900.5667310392,0.4908495212,-2.8255047993,46.9134668138,0.653363779,-44484.9277346355,1464.8785997038,0.8420887658,0.321431101,-0.2279140192,1.5665973386,1.6106847231,-0.9745421669,-1.0810174353,327.4587251636,-6.004888849,-1499.1422440001,1.3396307356,-1.0132787427,-0.0138596867,3.9102741133,47.2540497217,-1.657577901,0.778775632,0.276740401,133.7461190672,0.4830795379,-0.8193448398,3.1144791829,-0.479326173,-0.6537773216,-0.6293727479,0.705028872,-0.3867367732,-11009.9447477519,-83.149429033,-1246.9634331518,-2.2586012543,-0.312370804,0.6855399723,1.2804562629,-6255.6986347204,-156.5828953266,-9397.6060066288,-0.4618402148,0.5555305613,7547.7838613292,-739.8707182901,-0.9453317461,1.902647903,-1.0949419582,-14990.2393190821,0.3504860811,-1.2399080755,0.7632875125,-17986.1147519141,-0.742053678,0.580564513,-13292.4810512309,372.7625106655,-10.3055766311,-2040.0034930588,-1.1230926859,-15.4610012565,-0.511505636,0.5092411603,3.1874506777,0.0662665702,-0.4220031152,0.7124946325,-1.4594252003,-10339.6859705486,8737.0860380689,1.2304558524,1.4113140956,0.3542521946,-2.5052784974,-654.6254373414,0.4164579673,-133.8059532178,5.9040911812,16.2002792267,-0.9689300875,0.529984327,0.4413650525,-1.909092159,0.4274121506,2.6688680185,-1.2474125152,0.2952157708,8946.7396370862,-8496.9244289665,343.1190477167,-0.7781653527,1784.1967618801,0.0868491056,0.3566787888,0.5892225492,2873.6703111668,-11.9687236049,-1.3343729572,1.5235236188,0.481930262,4.3263483407,3088.6606697616,0.2346903214,168.3901204605,54.7718820819,0.2576976815,-0.336504894,38.6200202381,0.9622885292,1.7363732166,298.6986225929,1.486295247,3.6508095769,35.2714224284,-2.1487453208,-3323.9860474374,-0.7746538669,2.4876719738,3.5388934317,8.0983263302,-15.6797786754,2.7006037078,-0.6750274182,5.7952250018,1722.2116468638,37.4630395748,10.661921504,-11.5271875515,927.7019915943,10.695515169,1.1101181759,-13474.1283712678,14472.6909499618,-2359.3550436017,-34.3804827122,0.3612759077,2.2767102264,118.4278163488,-37815.9237982838,14.8477962482,0.6234029027,20364.6888975415,111.6427766705,-0.6376211766,2386.0115224624,29.3387797985,118.9150215328,49.1389142361,0.2547441095,52.3528644927,-21548.7853950573,-0.6204546558,0.86820342,1.288004455,-0.5395558244,118.0570094683,-9229.0794321083,-4353.4416757426,90.5690312959,-2139.9004494783,1466.675816034,4.7289401731,-291.5447334909,3838.5181878174,4598.6907008407,0.4687478748,4.1543529292,5932.6638206324,1.0373048929,-6312.3410346322,72.7698208127,15.1750923471,2.1441966838,1.2668553535,62.622411914,-42530.786637559,-2863.2798229967,57.2388430431,13.3813572209,-317.335533935,524.9701690846,233.8288271591,778.8531987053,1.3446016621,-0.4273058435,42.4297067357,0.5221508923,3.1204880745,18.8337261492,-57.6830840752,-0.6951840859,-7569.6891912017,927.3396649344,16.9564363465,21.1255277835,5.7610972878,-19681.9803580378,12.3712459919,5.0959720267,18.0633536021,-0.2651204943,52.9040084907,-30087.8671074975,-1.1465018994,61.5032181916,-11747.7565115162,4.0699404609,2.2340284753,10.5762678539,10.6658163718,-17.2116666215,136.6254959185,-0.6047524234,-27.865129941,40.3227793854,38.9334354673,-0.6794850786,2.8380924555,-1.5869946687,379.9343038457,1.4260458139,0.8627517157,-27.0897333636,16.1334178933,-138.9221840999,-15009.6537384956,-53.1993347474,-165.2119708591,14166.2597654504
   11.5217742025,-0.7059785706,-2.6178437018,964.7236695144,2537.4042722859,1.4512244674,2029.7265162548,-803.1995193589,-0.368916404,13.576763887,61.1971257207,3.7175287807,-10.2878635969,-1.0975930184,0.3081065337,0.8013839507,8.3867868072,-0.1400376635,-269.7871049437,145.9643529962,8.1827017863,2.676381549,4.3112710166,-2.1752219746,-45.7711233379,3.1598006655,-6887.4469865416,0.4609586848,0.5816346537,6279.9922491578,14.8862100558,-15.0126270852,-5469.0847474103,0.2351755162,13924.8213063855,-8223.0079320187,-1660.5277868494,-3.0239985116,1.148781919,149.7667892057,1.4036005939,460.7850345699,-2843.1721255898,-32640.8119191942,-0.2752053847,281.3895734874,-1.0110389841,5.4846839856,-7.8744625144,1187.9921450146,-4.7212520169,201.7948545891,3.7557763289,-20.7085631856,3.4731565107,15.1428103761,14.0339195522,-34050.3189283191,21.4520616888,-0.5455366912,168.4768901564,-2053.7082454337,-5468.8695555362,20.786478565,0.1642426275,-8990.3973598404,905.3309423085,11.2942470804,99.6307554557,1.1639010465,-35.9834531324,331.8906853842,0.7577884487,1.5947165916,-37586.8125129187,877.9397587138,-3.0916070345,23.3508420897,-0.0199671997,152.2532174599,55.7637973559,-45797.5805802687,-8.8288918626,179.4928949061,96.1137736327,173.6688438323,15.7742281858,-10.1927166304,4.9528899601,-1.1255862268,6.4423042044,461.0627761067,3754.0801359231,94.2411099569,-28.7383958082,-0.326762256,-24.1897135249,237.858808683,0.4922101731,-12886.2128216369,917.6079588685,-0.4672724245,-263.8917088947,-2184.410465472,-19.2053682521,-318.2262939683,731.6041872452,-265.4846793712,-39.7754745054,1297.6981051511,-1.7967369972,14.6265462461,-0.9781574697,0.5907980314,0.2348268932,159.9521991711,2545.4677945263,3.1950799552,2659.1340435877,-0.7785921172,-30041.2222510452,2.7267974354,-1.2891388983,2.496581861,38.358300133,-0.8096535492,8076.4389313949,22.9335869008,160.2603593069,-2.2905261717,-1847.6918305985,-35381.0692861997,2.8970126575,2.4201362166,-148.1778663148,-43.3189405915,6.1772419772,-3869.7785029259,3.6142373502,126.5980612984,1019.3222082125,16.409939529,-4.2737308458,-0.6295024541,282.8928612358,389.6663291701,-0.5595920088,0.0269854658,637.0621066718,-17.7426287061,-1.7796707184,-247.3700743143,-22.5277382498,-0.2908613062,21.9513638717,448.8723677521,2.9674214206,-7.8477276472,10807.6462671213,-23.5422674788,3.0425823955,-0.8379781075,-207.3214697583,208.5109069895,18.6866072038,21.9135314186,114.9272158572,994.7077508052,15.5052188888,3323.778358708,229.2312431624,-11.384230072,0.0433577188,0.7147071458,-0.7762361206,-3683.4542730973,7.3456633897,1.9462930344,1150.652012992,13.0669961236,-1.0700641068,-3.4514464385,-26.5287179547,-752.8654895515,12.3485436858,-3.1127450438,-15562.7713790763,-143.2280421464,4.6174020438,0.5053128311,0.9045405144,-1.7901436477,547.9070442371,96.2694023915,-389.732981106,-1.2138406981,-0.6407838738,-1.238344896,-33.1367040659,-15.5560885958,-2404.848743677,-3.7568150241,22.170099423,542.6687374814,1.4743083663,8.0010940477,-13.1321587551,355.2832687987,1969.4167000086,-0.5663934223,3.816246328,-45644.3766325319,-18.5524115489,1.3359315178,188.6271067786,-0.4743567686,10.9479204121,3.0217975938,-22114.9759840765,1.0645025701,-6.6767021146,158.276321261,-0.1715926675,-344.5925274013,-2.9417547503,-5.4319062003,0.3158040235,15.1816836527,0.0286757239,-1.3049801437,-1.2917365645,50.9782457572,5409.2566440853,-1.7094183013,1.8665594878,3132.8257758993,267.7925010507,-5.1452708411,-12909.4382290173,1.6868914175,-4.6652837212,-4.951783259,0.4745944803,-0.3782097073,-2.4049498552,-117.4293165829,1.0584747044,1.0764213594,-0.5848388769,0.8840491544,5410.8110285224,-2.7172759486,19.1678727156,165.851358485,2.3823002406,-26.725155212,1.167602071,-0.4128947451,396.7262171125,59.280159392,226.108933655,1.1982170763,-1.3981686258,-1490.0574536568,-63.8406185449,9.9667857978,-127.0019005743,-0.4191844257,-45149.5668516412,-0.4790585415,13736.0611410597,1.8551822722,0.46087392,-2.1347137353,0.5978926066,-0.3688064272,16977.6923783326,-0.9689906686,-0.2839830674,-0.3440474249,0.2988376743,1.8456416522,0.7404978912,1.8146922284,0.8452177763,-0.3034505258,0.5517893218,-598.9435511932,0.3455828928,1.1063819176,-0.8208908882,0.0754821961,-0.8596923646,5.8250180659,-0.7564480896,1522.7123209367,-0.3948967025,0.0755958231,0.0618189687,0.6505474608,-1.4712744507,-14611.0229542324,-7.2834488073,0.4092045032,-0.3222694416,0.7219791374,-0.1874128307,588.4925644567,-4809.2096957077,-1302.3412451724,0.4368620526,-6282.2866684647,-1.5363566968,-0.0440281639,-5.2987622309,-3060.6359949886,-49.6565530333,-0.6431471494,-1.0925925548,0.3202420782,-0.6253204811,-205.1042786845,-18206.5215155905,1.023198132,0.7813494678,31.2522105829,-0.3448325076,1.5162381998,-0.9162478508,-0.9072386477,-0.1158287533,3667.7765549815,-17029.5082577891,-0.2932603785,1.5690535882,-0.4050952953,-1.6385470715,-0.5791452438,-3.2512241342,0.3437185234,-0.046165439,0.5904391683,-17995.9246329661,0.9298578825,0.8005787252,-2.5043208895,-20415.9373282848,1.0838237711,0.6290767081,0.4474884802,-0.7262180021,0.5274047711,-0.1195649541,-0.1412266165,21.9178821506,-1.014317025,0.2550023625,-0.5545068749,-0.5802930832,0.0160747695,-752.037104535,-0.2938650281,-0.4811730202,-3.5921746309,-11495.6055889517,0.9076800607,0.5669475207,-7545.3162606249,20.389544054,0.3422929128,0.7914258519,-0.4838308699,0.6754832962,1465.2994386024,-0.3011984712,-0.3776541521,-0.145880806,185.9378639948,34.4963007661,-0.6450511521,191.328327328,-0.5130031723,107.1827779965,-0.1231703546,-0.1850318678,492.2176266777,62.2178533704,1.2938537171,22.1389591083,116.3093113841,-0.1471567285,-11.3249924042,0.1749140559,-9.5514485841,19.9671997962,172.2137744688,2230.4078697989,12.226191084,-0.0417813716,383.7156381366,0.425749796,-0.5442505258,50.4869449859,-63.4057941306,76.6306368214,2.9905351477,0.9969797986,38.7769258976,374.4904931564,-2034.5503223099,-559.4215721005,-0.6696502375,1024.4977455222,8.7547431427,315.0461397984,-0.6716969593,1.3004038713,-2904.9664406598,65.3176332179,-0.332375876,7.1306776444,510.6273138873,297.9290108204,-22993.4712289187,-0.5529206094,21.554983164,-17350.4946128385,0.2113678901,0.6673663886,267.5232361228,371.6208994,-0.1920989366,59.2825443297,-510.223698248,-893.5506200691,0.546480325,275.2861092707,224.7992648842,-1.1052729941,7.119391405,558.4023082269,0.411009831,0.1201078039,-0.6017781586,8.7437205098,0.5445727836,29.0309836413,117.1467644017,182.6683638859,0.4221582076,10.4433997497,-0.8608658868,-9254.5228175089,-3685.3341508617,-5778.431716467,1.2581541736,10.2037105001,51.6550844585,-3536.0503095133,0.15571901,78.0925986767,2.955644075,92.7093111309,0.3490055896,776.841908547,-8873.5473090152,0.5678933962,43.4222037753,58.5072255842,3.2253268658,7.1159930935,-0.7569087006,615.6597654595,1.8250530971,0.3844430468,165.5241881707,0.4695629315,-17157.818352245,876.7991482875,-0.9548047352,-0.6172537559,0.8909962459,-0.5572634792,0.8925969833,-1.8914179788,0.3682137439,10.289665073,0.5343756235,-11.5862873397,53.2328043195,0.6507227701,-0.4817572233,0.8353753345,0.0515515558,-38.8703062425,0.5167725679,0.2499776729,0.8829688995,0.9482578275,0.3044181162,-67.2378979798,-2337.1745133842,-9.8291666366,10385.381586806,-1.7224114596,1.169263642,3.9657353375,-0.3209829472,-52.1249851891,2104.9783557068,22.1780629216,-767.6654962085,-0.5029409505,-11.23626719,-0.6035994528,-1028.446723023,-1.4329126807,-1.7886098682,5.8545033154,-3.393768993,1.2165768962,-3625.9112782255,-4.7351101593,0.3557889085,0.3777788688,-1.1922306148,-4713.7288857709,0.5304424188,-0.636160205,0.1936558855,-12.163798939,-0.2690828422,-0.1244917191,437.5960559237,-5434.7944327977,-2.0380010612,0.6913295819,175.0186001591,5066.2240491993,-673.0196212589,-8.9087136807,12.0079297791,-0.1389805911,0.8514370639,-639.3050413202,-0.2084866131,1912.0649392938,-0.7455550945,0.0579665278,0.2543927054,0.7259880834,0.6870198016,-0.9375430767,0.5927402905,-14141.9214758917,-0.4207959847,4203.0680739423,-0.370262089,0.1885374074,-0.6839869252,-3.5907900972,-0.8955272314,-0.0808477764,-0.568999096,1.0680105627,31.1039237064,-969.766766529,14.853754343,-0.290131302,-173.7252645926,0.2513974837,-1.2443935487,0.4079612098,-15339.5573394837,-0.6277877647,-14739.7502973838,-0.81665283,-0.9121441859,-0.1623098894,-0.4642896507,-0.953235227,0.508250953,-0.7165772822,-0.9264821212,0.3406558346,-0.9031932798,-0.6184220126,-0.3841447596,0.5887874511,-0.4401619509,-0.8800876234,0.1081404092,0.9589864932,0.9563032651,-0.9533283286,-0.6987748224,-0.5550342819,0.2666951105,0.1442784955,0.0961842375,-0.8193878464,-0.4978649785,0.0486543035,-0.1863685465,0.5515064267,0.1138595549,-0.3605634271,-0.3031526729,0.691382862,-1.1482494159,0.628889713,-1.3258839017,-0.2008198367,-0.0311817057,0.1062976093,-0.250021762,-0.6012670699,0.4192396309,0.2072227646,-0.015615281,-0.6031697681,0.1048341805,-0.3009947681,-0.5881318958,-0.3912756751,0.8546852333,-0.7009202506,1.3271258649,-3.2324656605,2.7847444278,0.5383635746,-0.6570157378,-0.9663807786,-0.7180314383,-0.9217757775,-0.5498677472,-0.2256135665,-0.3973267534,-0.9702392384,0.7845693443,-0.3731893346,8.4339417245,-0.3717169955,1.0212644597,0.5483128679,0.1432050117,0.7532563245,-0.4031810806,-0.8206478204,-0.6679359808,-0.3495987289,-0.0709310225,0.1560539714,0.2570972019,-0.7666445275,0.1935870818,-0.5602424019,0.5499265225,0.6786162153,-0.3569396524,-0.5632615882,0.1294668139,4.3358832229,0.1089609215,0.1371341288,0.6622677376,0.3783314855,0.1476510772,-0.1967564387,0.9537733042,-0.7957452554,-1.1039258705,-0.0624627801,0.6808747979,-0.1013628492,-0.8072296565,-1.1336970975,-0.0523249411,-0.7272790976,-0.1968870037,-0.358231894,4.9552124148,0.4220565686,-0.6029707606,0.2114221333,0.0079884288,-0.6444445019,0.8415540732,0.4794504053,-0.5993238907,-0.9672055653,-0.0445084372,-3.8966147817,-0.7315686263,0.2425521904,0.5799798083,-0.1072164636,-0.8826164585,-0.4031288986,0.9123438193,0.9048321411,-0.8474261628,0.2795704956,0.3011302181,0.8685936221,0.5620176607,0.609694832,0.2006325667,-0.2720041967,0.9546535428,-0.4870619269,-0.0850828894,-0.5091058549,0.0689035494,-0.9110460132,0.9226665962,-0.6891680886,-0.0231927359,0.7289447412,0.8062766231,0.8790583954,0.2988059605,-0.3588176909,0.238848451,-0.9719688959,0.6155968464,0.8454766985,0.6905072941,-0.9335097144,-0.1137323751,-0.8933516264,-0.0827727676,0.1655316547,-0.6061124825,-0.670267409,0.534784558,0.2691630138,-0.566428681,-0.8274433863,-0.0628337541,0.788882438,0.4224269113,0.3949798789,-0.8250694041,0.7050995153,-0.7769853818,0.533584262,-3.1789652463,0.9622780446,1.1796732348,-1.0377567018,-0.2627365994,-0.0056742348,0.7166563588,-0.2717545112,-1.1282889177,-0.410270628,0.2051892683,-0.8919332554,0.1368800544,0.5590676674,-0.5719793641,3.6809585562,0.7815562619,0.6931273614,5.6954008803,0.1550844335,-0.7714376529,-0.4544601707,1.237062577,0.0233147913,0.0448852265,-0.7261049466,0.7117127245,0.7965124361,0.7587954508,0.426861989,-0.3367901385,-0.2271241242,0.5827471716,-0.1305722517,0.3969027482,5.5248970099,1.8904720619,0.4494904456,1.52475204,0.647816543,-0.7413166354,1.4582901341,0.8002818205,-0.0242911868,-0.7738784753,-0.8592302741,-0.6190657138,0.2006125297,-0.8319864193,0.8927433138,0.2209488124,-0.7723135669,-0.0986097267,0.4054793155,-0.8385979835,0.4545677929,1.0939809737,0.1667105528,-0.3988912935,-0.2090471408,0.4992874593,0.1979173529,0.2840807111,-0.4585947912,-0.1492200182,-0.2089772184,-0.4166942596,-1.0200768252,-0.9067112803,-0.9196652239,-0.3374525725,-0.8340750684,0.4840531802,-0.5559822689,0.8300102826,0.6750081953,-0.5367815097,0.4668554724,0.4972880089,-1.0339158381,-0.321684194,-0.6478436948,1.255722851,-1.0464087946,0.7790592404,-0.5941150669,-0.8808041598,0.2571615169,-0.8278793456,0.0656198935,0.6516976757,-0.7228862092,-0.328636728,-0.0370198521,-0.8153257983,0.3555382005,0.8434218374,-0.8170815935,0.7552914012,-0.4139108483,1.0567607743,-0.2519953174,6.8982856455,0.6691953005,0.7471293435,-0.3373100112,-0.9782241996,0.9099032203,0.3973898589,0.3186344479,0.6017580711,0.403528522,0.5762130674,0.0990746295,1.3483787036,0.0034168681,-0.8783735772,-0.4592652093,0.1877894307,0.2326823112,-0.5269408008,0.2145766825,-0.7528822538,-0.5233697922,-0.9214006288,0.1990047644,-0.740850542,-0.2398557731,0.5385234887,-0.2672330926,-0.8185617788,-0.6095256509,0.7667688029,0.1297880963,-0.6347978981,-2.1451818017,0.0120997825,-0.6102478151,-0.72171978,0.776353887,0.3559622307,-0.2363836858,-0.8360040371,0.2152271751,-1.0144398544,0.1853945489,0.989385897,-0.160471036,0.1281128162,-0.3070516369,-0.1673728154,0.2640029499,-0.7614742097,0.4395556497,0.0035327118,-4.8741796268,-0.0180478026,-3.3222242397,0.116960059,-0.9284030385,0.0617339676,-0.4034988929,0.2228640955,0.9317064666,0.2812020772,1.033890885,0.5517249125,0.1438956127,0.6388274225,-1.0049149887,0.8451878972,0.3143780416,-0.3999170214,0.7442396958,0.1639984557,-3.4368293222,3.0192679294,-3.3378083598,-0.6053395741,-0.883021317,-0.5206147724,-0.6882835991,-0.7294481006,0.0991159395,-1.7336106897,0.8702924479,0.4024185456,-0.9734281272,0.2164876239,-0.260147431,-0.4478631384,0.2049297199,0.1695061404,-0.9137556193,-2.5710965257,-5.1705376523,-0.3773719593,-1.9411209677,-0.7467112005,-0.4405267563,-0.5563784078,-0.1047856879,0.0187079453,-0.614558993,-0.7157152616,-1.6708101087,0.9373615826,-0.127688193,0.1236198603,0.1077322279,-0.434721609,0.5354297134,0.7848707713,-0.893086189,-0.9603996972,0.4806957638,-1.0560324694,-0.9967310065,-1.5460093313,0.0542744809,-0.1442073282,-1.0226787809,-0.8327414737,-0.7518616149,-0.7127792116,0.041877881,0.0439595399,0.4036124098,-1.1192457391,-0.6616292131,-0.9504121605,-0.2930479641,-0.0914222789,0.4803656038,0.4913512153,0.9560407807,0.4938391435,-0.6754078083,0.2675340804,0.0137860966,0.4516057297,-0.8290632121,0.7792092214,0.2602467693,0.5232416891,-0.4804086814,-0.7071144493,0.5740245485,-0.1311753324,-0.5899199701,0.7832910751,0.6420774597,0.8264692134,0.8505462535,-0.0301916869,1.0458818118,0.3032271855,0.3167926344,-0.3421699262,1.0289104407,-0.4745631224,0.1610449655,0.7926409237,-0.5373414745,-0.0221877624,0.9338584754,1.6084916112,0.8351643878,0.2042699522,0.8948573596,0.7204488531,-0.0422863302,-0.681311547,-0.7812966899,-0.6260121091,-0.8688443304,0.3358655218,-0.1115159795,0.1157831203,0.8506266362,0.5438969767,0.4423787213,0.2324282772,0.4758489442,0.2059832799,5.3919531237,3.1108563528,0.3439839761,0.3856824116,0.0845425336,0.0436407083,-0.922166839,-0.3446244314,-0.6038966377,-0.7889826994,-0.999272435,-0.4813495648,-0.5269748471,-0.4991226455,1.0320286308,0.250872004,0.5473275006,-1.0699768625,-1.0889508853,-1.3008241845,-0.8942267258,-2.2813817198,-0.8539895728,1.0096095186,0.6420914008,-0.8818699252,-0.4585434576,0.7101142162,0.7568657002,-1.4354349243,-1.1561882294,-1.2551892912,0.3563446699,0.3392901869,0.7873444084,-0.2679971453,-0.7439797244,0.0324412782,-0.9281198613,0.3239910142,0.6024824961,1.0049907718,-1.0511454305,-5.0425378249,-1.9099072797,0.5097130004,0.9305595756,0.4192783398,-1.1633139343,-0.7659030462,-1.1092098916,-5.3194518121,-0.160592071,0.5633799538,0.1329187642,0.9052308935,-0.2680711382,0.0320241211,-0.8575187163,-0.015410194,-0.7708431374,0.306344339,-0.4561477802,-1.029330415,-0.2460300452,0.9631216559,-0.6926128309,-0.2479235656,-0.6604312561,-1.0635609324,-4.5105104855,-0.2236462667,0.7027727726,-0.8005159305,-0.8917950026,0.941852214,-0.7858670283,0.8217025844,0.3393071423,-0.0401258634,-0.3054667158,-0.5215049455,-2.9314178351,-1.1787497805,-0.5076516826,-0.5555842029,-0.4435385229,-0.8874861614,-1.0748900827,-1.1424711213,-1.4478325093,-0.7784834709,-1.2423493969,0.3647633648,-0.2666014446,0.6630970791,0.2037794512,0.4838137308,0.6074111306,0.3501638613,-0.6741578722,-0.1138067936,-1.1605668571,-0.6770612169,-0.5295751181,-1.1925100933,0.5782947952,-0.1841386443,-0.7437969961,0.7004016604,-0.4290660096,-0.6934553374,-0.744982625,0.3707116012,-0.274729706,1.3443342636,1.5922692036,-0.4009898498,0.1406238316,0.3897046817,-0.0157394407,-0.6464792131,-0.8548951872,0.2447089349,-1.1401125841,-0.5886336589,0.9154618404,-0.3127195533,-1.0135303236,0.517195584,-0.4275827858,-1.1693358643,-0.4539060163,0.3000495339,-0.3863250381,2.9614822005,1.9114325871,2.3743834606,0.7248899131,1.2970004832,0.0503647459,0.4789353752,-0.6434882532,0.3800801337,-0.8624031153,0.540423487,0.2266679775,0.490450496,-0.4965518201,0.8048167205,0.3097046137,0.4995213803,-0.3004540563,-0.22514694,-0.1013449231,0.3592463201,1.4929659058,5.5766221191,0.2524458646,0.9878456752,1.986330608,-0.6219158363,0.5901105626,-0.7124626413,-0.1243861668,0.5054387397,1.0082740687,0.2349126593,-0.7185304018,0.361375821,0.0271114061,-0.1595929433,-0.1352830973,-0.3413310906,0.5864258967,0.0096329183,-0.5646200102,-0.0415394215,-0.136484797,0.9305692451,0.9492373703,-0.2613834508,-0.4696371636,0.1199268976,-0.3986907942,-0.8964965448,0.6726714863,0.9003761885,0.609000823,-0.4477047734,-0.1348256244,0.3225061379,-0.6362013971,0.640982075,-0.4234215453,-0.4741293197,0.0046426456,0.366607731,-0.7426709258,-0.5275606733,-0.6196847968,0.7037764675,-0.1316175762,-1.6084488013,-0.0024911412,0.2939832675,0.5204970941,0.2062143273,-0.9525420892,-1.0816049298,-0.5849512713,0.7805076024,0.4520744651,0.2013399363,0.7523546191,0.0376994812,0.515940166,0.874391283,0.3353352589,0.811002575,0.8271882334,-0.6649187744,-0.8726560118,-0.4188633512,-0.3600968303,-1.0269697121,-0.3763714372,-0.5605449909,-0.7459646593,1.0602539211,3.7052944844,-0.3281206412,0.3332162527,-0.4556153294,1.4826327448,0.0345499033,1.1772594781,-0.183801184,-0.4153182641,-0.5231055714,-0.2824360183,0.8145801769,0.0702230103,-1.7792804419,0.7734994842,0.2217285621,0.35268487,-0.0203236668,-0.5253189208,0.6807328891,0.6060500169,-0.9668633519,-0.647813823,0.68036918,0.3266058358,0.3619260972,1.1695320772,0.1943948868,-1.0814830956,-0.8254716463,0.995527123,-1.0655862865,0.1547932605,0.4143175567,-0.5577749589,-0.6550842565,-0.433955089,-0.6666181625,-0.7642590185,-0.5425456475,1.6611690428,1.8277543479,1.1218903489,-0.0778090442,-0.7275527045,-0.6455594571,-0.6308736409,0.0601868551,-0.6275414089,-0.8038102911,-1.4949550264,0.7041696087,0.3946666758,0.1284627839,-1.1250127843,1.0999641448,-0.2963336305,-0.6782952084,0.2098658252,1.3935465136,-0.7457360634,0.0897139286,-0.9146543011,0.0383515082,0.3319865226,-0.2651843674,-0.3853006532,0.0703584594,1.4927513541,-0.9632229929,2.1249040651,0.5117522809,-0.3548874354,-0.8427389339,-0.5850327466,-0.6616560543,0.0152054035,-0.9497374546,0.9243563449,-0.1777408465,0.1104703112,0.4408712984,0.8961605259,1.023523828,0.5861762488,0.4895341494,-0.4825822543,0.7241959478,0.8436175675,0.4691724754,0.1766380067,0.5135262175,1.0262171481,0.9184688663,0.7387032051,-0.346115682,0.2674543988,1.0995764862,-0.7665515599,-0.4643963085,-0.9281803027,-0.9196006635,-0.1154674999,0.7881601672,0.7037310389,-0.61400698,0.8426508841,-0.1819939211,0.2768076261,-0.893158664,-0.2399763519,0.7096214735,0.2734137022,0.8967171787,1.0122808155,0.4632197938,-0.5830674088,-0.3087749233,-0.2944566932,0.772953437,-0.0402850101,0.614828998,-0.5619067093,-0.5227576823,-0.7703000252,0.3175113716,-0.4298829647,-0.6204737226,-0.1389115942,0.6710208702,0.8599061978,0.2809449205,-0.8730619642,0.5343890142,0.0154587325,0.6889829802,-0.2454029782,-0.7524589228,0.709407559,1.0641776995,-0.9582013516,-0.4445818512,0.1286842079,-0.4054509292,-0.6486475598,-0.175286136,0.7606716677,-0.8022224528,0.8906697994,0.4577448761,0.493554595,-1.1119627628,-0.595319386,0.8089085257,-0.8959870489,0.4707315508,0.0770653189,0.3084006895,0.8549126344,-0.8179559952,-0.8224981669,-0.9160627515,-1.0681092869,-0.3377791005,0.5973005911,-0.5829783557,-0.5387672294,1.1555055821,0.4947490758,0.9232476442,0.9512597585,-0.0961066849,0.4648064213,-1.0397377237,-0.9083644989,-0.4876940025,0.233655116,-0.3205888006,-0.3882410937,-0.4861962,-0.5995750409,-1.1445921702,0.0481800518,-0.1865099506,0.6372948847,-0.8025181771,-0.2013150575,1.221499588,0.7866751313,0.7035912009,0.3397349394,1.0986576138,-5.8425940995,-1.0409264794,0.1826924713,-0.3605405069,0.259170423,-0.0102861184,0.9678968409,0.9962938343,1.0961100648,0.9075457006,-7.2624365971,0.5680625979,-0.9433023991,-0.0516164489,0.990673562,-0.4744884838,-0.0991187023,0.2892631777,0.0780510735,-0.8688622265,-0.881564014,-0.2454431735,-1.0628365776,0.3130991463,0.9357945422,-0.5747647561,-0.7256158235,-0.1088043478,0.8718539071,-0.757568107,-2.1668979701,0.707261412,-0.3383164094,-0.7476720812,0.5236697547,-0.6917549242,0.362373159,-1.2799450099,-0.5767564886,1.5963134791,-0.1554216342,0.4256416443,-1.831222905,0.4714968209,0.600797403,0.2550263304,0.3227707382,-0.1496948138,0.7251167482,-0.5287513498,-1.3582778658,-0.4649384229,0.6483971847,-0.0973277482,-0.6643811798,1.0588991168,-0.00652571,-1.0145554739,-0.0221057486,1.009434631,-0.3967496037,0.6849700038,-0.22337226,0.3511585832,0.799409563,0.9340583333,-0.3747447918,-0.7457214731,-0.8181596143,0.5997770732,-1.4798292855,-0.2699555641,-0.1431471809,0.3998224715,-0.450793218,-0.2907142726,-0.7307091932,0.9235237787,0.7126733559,0.7707518244,-0.8001705454,-0.2997089542,0.9536482927,-0.7251978091,0.0617183175,0.5350710549,-0.3677760463,0.8582514623,0.2014150391,0.0520681472,-2.0193098188,0.2723043769,-0.8521393833,0.2510499942,-0.9695738697,-0.7612463554,-0.2859628552,-1.5082019092,-0.5024492819,0.5575214209,3.6711042251,1.0053639452,-0.2999063855,-0.6922719022,0.2592122884,-0.435163692,-0.649865587,0.0682619914,0.2355592553,-0.1465975685,-0.5162524198,-1.2673778922,0.6264658687,-1.2365217716,-0.1805875266,0.5633614192,-1.0067283075,0.18723034,2.2749962693,0.5410651156,0.8660646419,0.4157692066,4.5641595429,-0.7875086147,0.2332774451,0.0618130379,0.1502527567,-0.6870906718,3.4824991634,-0.8866468663,-3.063761182,-4.6962368729,-5.6002638228,-9.3833373664,-0.6875681465,0.0072962217,0.2727248822,0.5998097546,0.106390631,11.762863989,0.9192306643,-0.8695966098,0.3680534566,0.4610614429,0.6489198386,-0.904932628,0.6363351471,-0.1529526487,-0.4652901068,0.7706098556,-1.0051971057,0.2643957327,-0.3360697299,-0.1248889982,-0.0597332375,-12.4022289219,0.1233568389,-0.6212881634,0.7745311822,0.6816015437,0.6073360132,4.0992735916,0.0309911695,-0.8069162095,0.9681334642,0.7858700723,-0.0104394455,0.6847343605,-0.9485215383,0.6412555009,-0.1241699367,-0.5352496262,0.2953093845,-1.3218399633,0.3754060225,-0.7737215523,0.2448388097,-0.1479449226,0.3692386742,0.1903024444,0.1038883128,2.0657872755,0.0231622104,1.007817163,-0.5306046614,0.717570298,0.803556025,-0.285255425,-0.4774651146,0.3990555952,-1.3836947559,-1.5522884568,0.7894450724,0.1760807738,-0.8416202537,0.4502935735,-0.424745458,-6.78174234,-0.6311770755,-0.8718403731,-0.0653205623,1.7806845761,4.1221816439,-0.2285925767,-0.258296894,-0.3249068684,0.8997023931,0.120074064,0.3484624907,-0.3472403493,-0.4444886596,-2.5006076487,0.8585877404,-0.7795127317,0.3282325984,-5.3165761099,0.8364942803,0.0458052301,-0.9055481415,0.1233015229,0.2927467449,6.8495938057,0.4079212266,-0.8515018163,-0.0727554769,1.0276625259,0.3380652969,-0.8716258882,-0.8435007531,-1.0260742822,-0.53856316,0.8376370858,0.6683402148,-11.2673769272,-0.116383068,-0.7533925364,0.5555510502,0.5667376594,-0.6077957748,0.4113382327,-0.0562643097,0.5192885927,0.9600842378,-0.2258477151,0.5058126648,-0.7832411419,0.3153267574,-0.0506835455,0.5943511902,-1.308164902,0.2559883152,-1.1842771571,-0.916994633,-0.5253215334,-0.7640583261,0.601425762,0.6159746536,0.1095474621,-0.7611404082,2.4120752774,-13.2156305341,-0.0192791156,0.4460846714,-0.6954399236,-0.8516020142,0.5313239779,-0.7509057592,0.2707613937,-0.3035615925,0.0257763166,-0.5411753107,-0.7958264731,0.7760705467,0.5882084549,-0.2883396747,1.9751350425,-0.4573035973,-1.0404927384,0.3020973922,-7.4145815512,0.0126003161,-6.3109820065,-0.159821878,-0.4221364006,0.3673809684,-0.1075253697,1.0495100719,-0.5009107026,0.8456175971,-0.2340336354,0.2010179248,-0.9431136584,-0.1413795508,-0.9370955201,1.0192925901,9.2639253895,4.7607594116,0.4015252897,-8.7710324644,3.9995396717,-0.1917501881,0.2444654689,0.2097417273,0.5759969437,0.0721201581,-0.7305592932,0.8738591573,-0.332371259,-0.2724359191,-0.5804850728,0.4453325204,-0.5533698836,-0.9083823967,-0.7634427334,-0.3403389987,-0.3401246983,0.3994498728,1.0932226753,0.7218625684,-19.1615781816,-0.9071382006,0.7270424397,-0.8184214238,0.1491707718,0.9495874643,-0.7260109248,-0.8664982426,0.8377909759,-1.0107562754,-0.4555303342,0.670153422,0.260200318,-0.669658704,-0.4317893213,-0.9148510927,-0.5360729304,-4.9281891833,-1.9919148114,-2.0296734623,-0.7504716512,0.8304120531,0.8226356169,0.1010471834,-0.0772282373,-0.8225410483,0.2353547614,-0.6141049988,-0.4917373677,0.4948605672,0.4777642283,-0.0319658021,-0.0113233519,-0.423223668,-1.2088812839,-2.1791007093,-6.0079466177,-0.0657714003,0.3232831059,3.6152462952,-20.1734853053,-65.7778567256,-0.1592534761,0.2752497813,-0.2236811594,-0.8957631767,0.1905709034,-0.2016478584,0.3229597995,-0.2432637045,-0.1311869911,1.0111930682,-9.8542890836,9.7209606079,-3.7587082706,-0.544093468,0.1089469744,1.8107013903,-0.2966625478,0.9682149029,0.8292157768,-40.2411038626,-2.1260030073,-1.7998456474,-0.1352140446,0.8130157144,-0.828121297,0.9002005945,0.9355869987,-0.3169819822,0.9610485008,-0.5083355956,0.7052624856,11.9126805827,-5.0774228992,-0.1624691122,0.2597321962,0.2243019943,1.1611482128,0.3400259621,-0.4265126091,0.5148721535,7.4217987149,0.0099036902,0.4459937226,0.466112721,-0.0226351021,-0.2246697627,0.1778620942,-0.0250661984,0.3024206925,0.6227229608,-0.3152060903,0.0567248211,0.0520804215,0.4682678767,0.1352229284,0.9735352967,0.5272184373,0.6532708392,0.7440516875,0.6246548792,0.0207888851,0.3167507502,0.357788634,0.4469070583,-0.9010034776,0.6101719924,-0.3018473895,-0.4193649268,0.7877805406,-0.9982621703,0.6203374824,-0.5472672621,0.9224662269,-0.5127217713,-0.6260289661,0.7768451653,0.3896660784,-0.0735530126,0.071053097,-0.9706661645,-0.1979345553,-0.8301198179,0.3535936967,-0.734950901,0.4512091567,-0.9459356337,0.1634124068,-0.1207668477,0.2904230918,-0.8575864842,0.5591703119,-100.6958659369,-0.3040060413,-0.483345197,0.2672868332,0.8068076414,0.6017993222,-0.6205065047,-0.3291436163,0.8764715334,-0.2424684444,-0.2824248767,14.2347162668,0.5249984047,-0.0813569724,0.7213926971,-0.2690758764,0.8926603496,-0.8013379954,-1.2420138727,-31.4524754532,0.6445474579,0.7708389781,0.404897853,-0.23598477,-1.0084491238,0.6491085606,0.362995131,-0.0782254489,-0.4021777474,0.0276053043,1.5999450368,0.649208288,-0.4190484285,0.469374768,-0.5520666468,0.9259117645,-0.5708508696,-0.2528202931,0.5318232027,0.4278121419,-0.7173257295,-1.1125983356,-0.0161732982,-0.9903085775,-0.2928504609,-0.8130814048,-3.5939641101,0.5240873073,-0.5340631061,20.380104451,0.1188646396,0.514565656,0.5721678619,0.5169703013,0.6603524109,0.276226274,-0.3966949083,0.5152629503,2.1868460506,-0.1135843415,0.2105191444,-0.3654235433,-0.3087718115,-24.3528403807,-0.5675039879,0.7817992715,-20.4026793515,6.564675311,-0.3440183973,0.8256592799,-0.4181103581,-0.7709119023,0.5204223275,0.1586622703,0.5246697731,-0.0310312759,0.2270174557,-0.3424954503,8.2151416008,1.0103947954,0.7255001042,1.6034963517,1.6883103911,-0.3516823357,0.0644115397,-0.3982175854,-11.2175366875,-20.7068720975,0.7051165843,-0.1867259618,0.3484564171,-0.6371185433,-0.4373850022,-0.6075069515,-0.2742881464,0.678831316,0.0521300876,-0.3368572944,9.4567445121,0.5106074174,3.2627244945,-0.6152781314,6.3007168377,-0.0155355715,-0.5262532876,-0.1141288706,-2.497962671,-0.1780866478,-38.6779894824,0.5887198625,0.5113471824,0.7821046188,-0.2348278482,-0.6274426956,-0.1375500204,0.1046117036,0.8861633595,-0.3457345532,2.4900808262,-0.2984019394,-0.2883037433,-0.0924345451,0.0117002305,-0.8467601507,0.2744818083,0.4789185295,0.3498931762,-0.5759799252,-8.891152004,-2.4695168251,0.1990541208,0.8512997245,1.0480561448,0.5848404442,-0.1451737923,-0.0550851913,0.3835910043,-0.743236601,14.2594475321,0.7785699006,-0.4415044799,-0.6466069069
   0.7323667985,-0.2622862604,0.526473952,0.9550664526,0.4585670362,-0.6631843334,-0.4969191595,-0.9894969174,-0.9831321099,-0.9264415103,0.3089484674,0.4850937768,-0.9064076266,0.2957908242,-0.9028486322,-0.3824479632,-1.1222968475,1.1285523152,0.9743065547,-0.3944335003,-0.2639746766,-0.2570172698,-0.3515323762,-0.5806697001,0.5743401408,-0.7902645341,-1.803610818,0.1925373154,-0.7581761183,0.2176118281,-0.0226319609,-0.6066012747,-0.2045339445,0.7529740145,0.573865276,0.1605916383,-1.6537506663,3.2136940427,-0.2179984601,-0.8602490085,0.0014320118,0.1601176523,-0.6571732297,-0.4604642427,-0.0608791578,0.819534787,-1.1736248087,-0.8356211733,-0.1117596402,-0.4398802911,0.0432085956,-0.6276270507,-0.6450021055,0.3465904585,-0.7477013441,-0.7213524368,-57.2930251157,0.7240130702,0.7128246971,0.8759888207,0.4927769129,0.9128733621,0.0973222022,-0.8597364092,0.1167434938,-1.9072293007,0.3447864709,0.7102500822,0.2450432743,-0.4087244853,1.0027001056,0.0665551915,0.3015652321,0.6320627104,0.7332816034,1.0747897784,-0.2104034957,-1.1500159453,-0.2780269039,-0.7433594148,-2.9753246558,-1.250496786,-21.8460773606,-0.8848559504,-16.1742841743,0.6278819712,0.6393102695,-1.1334955899,-0.0926532277,0.3054297238,0.6740388102,0.1128847435,0.1785994162,-0.981590455,0.5521309631,0.5241392548,0.4514224773,0.153553456,1.2298068533,0.242728808,-0.6416007537,-0.4680613529,-3.651004331,-2.1450391732,-56.0411837925,3.4646398149,3.7948459901,1.8339221928,0.4932557119,-0.728240605,-0.4741038459,-0.2923714312,-0.6005333403,0.365139959,-0.052005982,0.0437333493,-0.7124339842,0.202849136,0.124103487,0.1532967759,0.1729212598,0.569325587,-0.5032478706,-0.2530400373,-0.9664544989,0.4133232012,-0.6846021325,-0.576867593,0.9793306978,0.9449692916,0.4661680655,0.0361281622,-0.6357856822,-0.7257320966,0.5125492687,-0.8636332815,0.7458099719,0.669351866,0.6228660411,0.3549780922,0.6732571061,-0.7390886338,-0.1264553556,0.01857113,-0.5906809591,0.5022203185,0.6383683784,-0.0977344416,0.8348693597,0.5249101215,-0.8840555924,0.48885081,0.6062328543,0.5538913218,-0.6032222514,-0.8007108816,0.7951819862,0.1761869804,-1.0298606164,0.8313741989,0.2153064164,0.9951658305,-3.1601562716,-2.6994888965,-0.8251288747,-0.743936842,0.6506214711,0.4578480914,0.6203823921,0.1437188154,0.2451880184,-0.0151592077,-1.0054400319,-0.6410247954,0.2975169584,0.7733603951,0.2188326029,-1.0304770478,-0.9860676136,0.308368755,-1.0431500082,0.726242179,0.9355026721,-10.2598732705,-1.0950683665,-0.6396193241,3.5643311745,0.0222290826,9.2478229915,0.0191034913,0.1546400429,0.9310302686,0.1478620472,-0.7842464602,0.7446241102,0.4468876437,0.845559469,-0.1000414508,-8.5723856132,-0.3575096859,0.012636444,0.0664926035,0.6149247657,-0.0814918241,-1.0810521974,-3.5932326141,0.7118277669,1.3462252769,-1.0608780386,0.8548810095,1.1299273206,-0.8820574089,-0.1852712332,0.2899468105,-0.5923287821,-0.1375363023,-0.1852554725,-0.718946964,6.183989256,0.0859505529,-0.6424772599,0.4334915393,-0.0353352772,-0.7587055233,-0.7382830148,-0.542996243,-0.8970148499,2.4357807042,0.9841151743,-0.365749861,1.0443879707,0.8515352688,-0.552489302,0.5558886789,-0.2599571386,-0.3048419139,0.4125979676,0.376680185,-7.7607481529,0.1431210294,0.759746482,-0.4870900023,0.077288073,-1.0445488178,0.3285862934,0.9394068942,-0.9084156103,0.4169636477,0.6776801763,0.8314837705,-0.5011503803,0.9176996921,0.0467727078,0.1166045622,0.3224420793,0.5917267802,0.8462508684,-0.9470440653,-0.4501817339,-0.2493151153,0.7056071225,-0.0862618193,0.6514311095,-1.0169200424,-0.1056458249,0.4178972585,-1.0157070121,-0.3700727115,0.6188346029,0.1399486984,-0.8936137526,0.9980802431,-0.1935905818,-0.3616679513,-0.9588655475,-0.313071935,0.1175072122,-0.1087928893,-1.315698098,0.889070472,-0.3663975997,-0.3363521367,0.5257929057,-0.9764911103,0.2969880381,0.2836923152,0.061491123,-0.9233008575,0.7325757779,-10.1056928372,0.2050815858,1.2313684996,-0.2392976377,-0.8747934004,0.4077783243,1.0348875975,-0.4076886614,-0.1956287018,-1.2582887538,-0.0392155474,-0.9980479716,0.8246023098,0.3676805635,-0.2230314838,0.2964459923,1.1200088887,-1.4963391391,0.5482415551,-1.015382369,-0.6846606846,0.97534753,-0.0824239594,0.2079146427,-0.4469367816,0.0951387871,-0.2547915257,0.3698725268,0.1879788703,-0.5588830987,-0.8537388274,-0.1504186304,0.180193108,0.539977489,0.7002128849,-0.9109227973,0.2155367313,1.9875524593,0.7241881349,0.2253993255,-0.6236250782,0.4143893556,1.0351075388,-0.9901629777,-0.3080166754,-0.2642949553,0.4964685009,-0.7091071867,0.8183960634,-0.4437105565,1.1495523598,0.2035576168,-0.6315367798,0.9218081687,1.2999993746,0.9333472151,-1.9976685369,-1.5502289908,-1.2849517601,-1.1307792522,0.6240983311,-0.8800242867,0.7959347754,-0.4079880907,0.4341937395,0.9320392438,0.0761160149,0.6656919294,-0.0269272269,0.2653754936,-0.5226017819,0.5053697294,-0.4104780456,-0.3227132986,0.7491300632,-1.1494044882,-7.480958886,-0.4856417589,-0.5361755973,-0.2729706935,-0.3472752823,-0.1465299766,0.9325095676,-0.8582406302,0.1974740599,-0.5039057824,0.4869368995,0.5031913008,0.6029268752,-0.9074323814,-0.2389177672,-0.1457812764,0.8393762768,0.5960224062,0.1665855001,-0.1649707273,0.2066651671,-0.8000530338,0.2927223993,-0.531547929,0.2639529764,-0.2061389618,0.4049366258,-0.1247675464,-0.3440461124,0.2724207268,0.2878942106,-0.5728287231,-0.5370813525,-0.5222108336,-1.0893028599,0.4034336818,-0.3780282764,0.6880070587,-0.7670629194,0.2835811856,0.2429999689,-0.0950983918,-0.9118059196,-0.2688690387,0.9410653211,0.1093575058,-0.1844733561,0.697385024,0.6573851359,0.0292544348,0.15714149,0.2835079309,0.8788386895,0.8269581121,-0.6111072944,0.5757010683,-0.0374753617,-0.7387641309,-0.6465204627,0.5095382225,-0.9624163906,0.0806958258,-0.7461010831,0.1960751447,-0.8552772644,-0.1371006348,0.9024528281,0.372099194,-0.5680141718,-0.703510358,-0.638213852,0.187918002,2.8684532847,-0.543460239,-0.7161199131,0.4659850663,-0.2292589354,0.3284914646,-0.1418024892,0.1879751667,0.9256306911,-0.2790200963,-6.5587314209,-0.7336358014,-0.5893890799,-0.9265474558,-0.3748268954,0.5253475856,0.6749944798,0.4181076557,0.1759934259,-0.3521651603,10.7741701573,3.7471885535,0.1521662744,-0.1693216907,0.6234826188,0.3618461051,-0.0315144324,0.463588732,-0.3899699941,-0.1553547461,0.6273175016,-14.2057808773,-2.0459149721,-0.3412132417,0.4459643031,0.2636102263,0.2510769051,-0.9103378013,-0.8465792415,0.862447982,0.5817999382,-0.042710349,-8.4229024789,0.5130124663,-0.1666330849,-0.9122235129,0.0017037535,-0.199156496,-0.2014850216,-0.5472099664,0.1894719866,0.6960097351,-1.1372609343,-0.0500442384,0.9555009388,-0.4540947451,0.3742239104,0.561402458,0.5033945879,-0.9091005994,-0.6623574904,-0.9971281838,0.7836221144,0.4224374952,-0.3619541543,-1.4588844954,0.0175561333,-0.8777252905,0.5573786217,0.1506948411,0.8292719996,-0.3292704086,1.2079631902,-0.1482999192,0.5865760773,-0.1496793751,-0.9148330048,0.0216289497,0.7405019755,-1.0174267304,0.8156070912,0.0743996041,0.2384761647,-1.0089613595,0.6177823925,-0.5638273165,-0.176954016,-0.0529959388,0.1108956402,-0.5016371139,-0.7079282332,-0.4053392762,-0.5576456183,-0.5246316212,0.5144412158,-0.485125008,-0.3591916053,-0.7041491192,0.9570285664,0.190087157,-0.6449686115,-0.4596359038,-0.1949808407,-0.7006460517,-0.0380718941,0.3989147674,-0.0524303684,0.2408709088,0.1138922341,-0.7631547887,-0.0258272226,-0.6491684427,0.1039472949,-0.2334206473,0.5894290816,0.5905198027,-0.8441904638,-0.0646076796,0.4852528571,0.6002700633,0.2514990357,-0.8388127072,0.2346947395,0.1880821972,-0.3484762496,0.3916744911,-0.6772905224,-0.7828435279,-0.1120258231,-0.3503466996,-0.6702897542,0.9427066626,-1.1791879807,-0.3878276662,0.1109270966,0.9682406936,0.6265410237,-0.2815532343,-0.243675639,-0.1642805942,1.065073333,-0.0170616296,3.3000143871,-6.0377989542,2.4009406596,0.3672908766,0.2157197718,1.4850230232,2.3001845471,0.9597410015,-0.8956425122,-0.4235597621,0.0714582582,0.4964488934,-0.5086047318,0.5676872324,-0.2324217674,-0.8507368481,-0.5563254084,-0.1180658722,-0.4447111052,-2.0714005509,0.7412510338,0.1778662423,-0.0031100011,-0.0793518109,0.7402111947,0.0696758359,0.8948303789,0.8639109966,0.9707336126,4.7357480007,-1.4701666096,-1.3205168802,-0.8458138318,-0.8287881326,-0.3959349347,0.5086753026,0.3135885904,0.4046212782,-1.1025819339,-1.1055619064,-1.025496792,3.302535039,-0.4298876038,0.1706634692,0.448187901,-0.7864363917,-0.8331438718,-0.488723207,-0.387521094,-0.4855851552,0.0075016272,-5.5698242689,-5.90415282,-0.3717706727,-0.0162818017,-0.6852350696,0.5029750876,-0.071123172,-1.2109520332,-0.7892594537,0.5598781638,1.1144716508,0.0389073386,-0.7980402029,-0.7400722853,-0.2757609865,0.011503204,0.0850056729,-0.0785736412,0.9276994623,0.5593559023,0.5326154887,-17.2991140469,-0.919000587,-0.1823303315,-0.3204009965,-0.6070767253,-1.0007993594,-1.0998724356,-0.1918458702,-0.6779910094,0.431452796,0.7225772266,-1.1105299081,-0.8556636839,0.831826978,0.3005160656,0.024019967,-0.4741343938,0.1738773072,0.7811229888,0.09138809,-0.9387283711,-2.8002701806,0.7552740405,0.4703215407,0.7761234058,0.3093670344,-1.3917916563,0.1646066591,-2.9658096352,0.4377974648,0.4393267362,-0.9746457934,-0.15513171,0.4798247454,0.7670752347,0.5050475702,0.5601061783,1.0842507905,0.6463218455,0.5383574978,0.8621326372,-3.4780069417,-0.4871796246,0.1283173862,0.6248855668,-0.8577657116,0.0963268878,-0.180815411,-0.5912411337,-0.2491724973,0.9434559008,-1.2997509933,0.6705752571,0.3115948303,-0.602248482,0.6291755265,-0.3783490181,0.5076226162,0.7707090027,0.0725175448,-0.1449143928,-3.3443988463,0.4398587032,0.3578299213,-0.8013603811,0.0039524635,-0.381685574,-0.0900147718,-0.1981576015,-0.6925262768,0.1489371959,-0.0463196081,0.4447502056,0.6497105513,0.3569440607,0.8533924819,-0.281996873,0.0544213871,0.3426538572,0.125231956,0.1608081797,-3.9524225476,-1.2132931705,0.6660742925,0.5953003509,-0.6362538834,-4.9548203873,1.0880151038,0.9522757658,-0.2747105768,-0.7610261622,0.8714588746,0.840860659,0.1811846566,-0.1813468537,-0.2712845237,0.6041433183,-0.5077154627,0.6574368058,-0.2232429506,0.6181910525,-2.4393465482,-1.6012343943,-0.5157392182,0.7053878582,-0.7671928211,-2.3233144349,-0.1636614479,0.0233929002,0.0040082652,1.068162114,0.9251800171,-0.2113563361,0.0691727337,1.1664276727,0.9221897452,0.5847895471,0.822898392,-0.8485437207,-1.1302034113,-1.1214123605,0.849177104,0.2538842723,0.2964266266,0.6597270221,-0.1021397392,-1.5686220943,-0.8381739893,0.9832289792,0.5243275796,-0.2577112136,-0.8222993721,0.2323717845,0.9788594124,0.5018187865,-0.6483494665,0.7321813222,0.6658233113,0.2185180904,-0.4696187027,-1.6105304952,-1.5695464196,-1.227000696,-0.3402546028,1.0660019815,-1.7519765914,0.6396809507,-1.0128749863,-0.4167467313,-0.2664685098,0.4788387814,-0.3683883597,0.0919012621,0.6925414262,-0.1184971462,-0.4988981546,-0.6334619515,-0.9129885687,0.6020555431,0.0296281489,-5.7277667328,-1.575838146,-1.3133786571,0.1717030977,0.5948016428,-0.500560961,-0.9990722115,0.9609975779,6.9541721482,0.821874748,0.403490722,0.5052150828,0.5481348664,-0.6824699635,-0.5542043911,-0.1931395581,0.9255102724,-0.3028227384,-1.007830133,-1.6769840517,-1.5954884196,-0.3616135291,0.7656335579,-0.1744252012,0.9308733509,-0.3417709407,-0.2875093136,-0.0827341717,3.0549246727,-0.0113844371,0.0165743043,-0.3699932868,1.0155607509,0.1545923201,-0.6570128115,-0.8050557708,0.3108580068,0.3992671688,-0.3332673485,0.0488354771,-2.3009964517,-0.1770386847,0.9327081011,0.54054898,1.0757086851,0.3424391316,-0.0178705268,-0.7329962605,0.8686098182,-0.7345981007,0.6575114254,6.5970225501,1.241223064,1.1460553957,-0.2559621538,0.9970858365,-0.6598373983,-0.2280828702,4.4690617169,0.4489126859,-0.0837588041,-0.4536428726,-0.3656678936,0.4335158479,0.2292065971,-0.8451977627,0.5210136536,-0.2854902801,0.849480841,-0.7536415627,1.9996848784,0.2847630954,0.1301729161,12.124331704,-1.6677155259,-0.0359149069,-1.3341177231,-1.0875490313,-1.0946544708,-3.4935484103,-0.149811082,-0.8613561622,0.3149663738,-0.3836494287,0.9631149483,-0.4768213962,-0.8312640283,0.1386811511,2.6710539006,-0.1639160926,0.8987530858,-0.0404227816,0.2239054339,-1.9383917626,-1.4912130555,-0.087134194,-1.8634445775,0.4266093604,-0.3760468579,0.8253691446,0.1996026269,0.2249620165,-0.3088298177,-0.5276836494,-0.0263621586,-0.2004185095,0.3526562968,0.3389244137,-0.4700784493,0.2200689226,0.3997459157,-0.6793437297,1.0430907168,-0.1277222403,0.4135543813,0.3901393292,0.8564137372,0.3468429813,-0.7411429536,-0.2139010918,-0.1178681055,0.621169947,0.154472304,-0.5216581003,0.0163809855,0.0934264752,-0.3821623956,0.4435712221,-0.6929448632,0.0462783219,-0.835034089,0.2987943543,0.0038900378,0.0140409122,-0.5255278297,0.5677623662,0.0724265305,0.9393834091,-0.3987755367,0.1240019853,0.582598074,-0.5426844416,0.2180162869,-0.7265281382,-0.5328614181,-0.1942136874,-0.0269864037,0.1544605587,-0.3295067358,-0.5864850423,-0.5691557527,1.035739275,-0.6172184056,-0.6741342866,-0.3686268299,0.0133409849,-0.6049603616,-0.5662512107,-0.3775338899,2.4367373711,0.6151295839,-0.7632757092,0.3350064672,-0.0555648099,-0.7332236242,-0.8109931254,-0.316560909,0.008980123,0.1989940796,4.1146067165,-0.0500680611,0.5986474768,0.4632585988,0.8520088529,-4.5477448101,0.1285270104,0.0369618616,0.7275897919,-0.2451395476,0.2600107628,1.3074698469,3.14242071,0.691552407,0.9977816215,-0.9035472188,-0.3243849605,0.4292575815,-0.2936912236,0.0167751615,-0.3059638418,0.9752479789,-0.1098693094,-0.4082407774,-0.7203343651,-0.27832661,0.4108649866,-0.9534648196,-0.4649306611,1.9757172564,1.2010128458,0.1067344989,0.0526903732,0.4583736142,-0.1127569101,0.4892171986,-0.1052981373,-0.4155623268,0.5196982909,-0.7781972071,-1.3323096695,1.816412575,-0.6791900262,-0.4153376099,0.9842411421,0.3407557611,0.9377251856,-0.7031946473,-0.5221394253,1.1154946925,-0.2070894264,-2.9527070967,-0.0372338045,-0.2743952176,0.9306690668,-0.1345710339,-0.8755028388,-0.6522460468,-0.3873990313,0.7254126405,0.6878980787,0.8391129752,-0.5521253228,0.9783090662,-0.3443185731,-0.9410483765,0.5871779609,0.6931745102,0.4386458041,-0.142156375,-0.0929455223,0.1848139479,-0.078681851,0.7745064148,-0.5442276051,0.1110398073,-0.193966772,1.020478766,-0.8123652608,-0.1085907002,0.0004728804,-0.4596248336,-0.016531355,0.2307816514,0.6477406027,0.9080799894,0.0894658408,-0.8750714773,-0.6015531495,-0.5046179375,-0.138388324,0.370584588,-0.1882176349,0.5218548106,-0.7215245863,-0.4562111011,0.4684617829,0.6894599328,-0.424541421,-0.6430590569,-0.5268522603,0.262998725,-0.4826114013,0.7517796697,0.2684930671,0.1129261373,-0.3493735505,0.2075837203,0.8811773743,1.1551758758,0.125632889,0.2231624815,0.9657515706,-0.1214861095,-0.9182918051,-0.3213346135,0.1789286908,0.9613967402,-1.0593184558,-0.2016685532,-0.1826296561,0.7185305569,-1.0050911782,-0.3417362064,-0.7474710407,0.9695541331,-0.2457818193,-0.4022701054,0.5725980635,1.1896754761,0.1642149531,-0.4218799149,-0.6245384761,0.1885673173,-0.9531012213,-0.3610538233,-0.9339580503,-0.8083711948,0.1439395057,0.1449806224,0.239519065,-0.3482458824,0.4969471756,-0.5494735987,-0.4795571968,0.7301390659,1.3573027551,0.9007648577,-0.5178725419,0.5017929011,0.4134560638,0.3413426839,-0.7276887344,-0.8471590024,0.3175051339,-0.704817588,-0.4857841699,0.3396511412,0.7197806677,-0.2727291271,-1.2164357432,0.3930019363,-1.0347050923,-0.548310419,-0.9120125582,0.8611345028,0.9334376329,0.29161666,0.9474767064,0.8478161077,0.4727829986,0.5077675948,-0.9870414269,-0.8237909351,-0.762593477,0.4045992443,0.696166361,-0.3393357121,0.9461774095,0.9856787359,-0.6064414575,0.0415711768,0.5423104177,0.6907905933,-0.903319372,-0.2671596949,-1.136114138,-0.0336548835,-0.4749282347,-0.0540078796,-0.1699868873,-0.6241949602,-0.3268316022,0.1510084125,-0.7016195443,-0.647025227,0.8985842359,-0.5152755768,-0.6848399644,-0.7597736023,-0.6344811102,-0.1598757823,-0.6721410881,-0.1140122237,0.0465245717,-0.6722336732,0.9146212233,0.5462449792,-0.6862529642,-0.7538166998,-0.4511632966,-0.9345927696,0.045186482,0.4359499133,-0.7059208519,0.0702245598,0.2281429277,0.2434017485,-0.821198437,0.0306158936,-1.5935284357,-0.4016810978,-0.9028011481,0.7714561289,1.0222474582,0.2593952819,-0.4619107152,-7.0316197423,0.3787034578,0.4878231459,0.6180210665,-0.359869973,0.2155259687,-0.1262132583,0.7570108648,0.9164332711,-0.9178695332,-0.6642559799,0.3598610753,0.17871608,-5.4472298249,0.3506479472,0.9170220621,1.0023632065,-0.5790977712,-0.9611794009,-0.5494860995,-0.748953928,0.6184915004,0.8432233045,-0.140687594,-1.6619146005,0.2382061547,0.0283319833,-0.412340673,-0.5513840323,0.5389088137,0.0806456172,-0.6210323514,0.8054394224,0.200858576,-0.555968168,-0.4944626466,-0.4135757984,0.7255439696,-0.2397302407,-0.2822864869,-0.3795714393,-0.9287255814,0.5204770617,0.722479014,0.5818260343,0.5795098098,0.7302210751,0.4650336103,-0.1290587902,0.1637529708,-0.2693967481,-0.6618711607,-0.20223903,-0.6543379611,-0.403859576,-0.6268524308,-0.3004415565,-0.4212327077,0.5909583609,0.2986276955,0.937518736,0.6490162171,0.2465469894,-0.5472582027,-0.7113944952,-0.0395119419,-0.3775865816,0.7670066667,0.0919354061,-0.8064341621,0.137270376,0.0606635521,0.8852332048,-0.0112412664,0.6798460109,0.7838810276,0.1527147832,1.0008234762,0.0924369293,1.1933786279,0.779306031,-0.5990067658,-0.1924298931,0.5628593461,-0.3463043201,-1.0612813089,0.9637578259,-0.5202480699,0.2881154262,0.7090561788,0.8757120259,-0.5416516372,-0.750428572,0.5203988826,-0.6064434965,1.1292596462,-0.2534292708,0.3573918684,0.211118717,2.3354276571,0.7502350332,0.365672402,0.1224143978,-0.2372566281,0.8465250882,0.0636090879,0.4322590088,0.7858080903,0.3781957648,-0.6922359882,-0.4880503358,0.3753503314,-0.1231284787,0.1034918655,0.2871706081,0.5877122195,-0.0283017776,0.5774253857,-0.744082201,-0.4724558212,1.1440111244,0.5499000647,0.1193498649,0.5996058606,-0.1052833543,-0.0063529274,-0.8042459841,-0.7707276776,-0.0954904032,-0.2099522749,0.3094717213,-0.384555698,-0.0140444737,-0.1425300019,-0.8822724399,-0.7894972718,0.9922981119,-0.7232500276,-0.6456052922,0.7595344706,-0.8233094796,0.4824933949,0.504553559,0.5908465193,0.0913764398,0.3676657137,-0.4578365099,0.7468778015,0.1282597418,0.4573689448,0.192726528,-0.7606192419,0.6799172511,0.6313440926,1.0056050223,-1.0289586517,0.1266854691,-1.0822487988,0.1832355068,-0.2374176968,-1.1490887446,-0.2617304637,0.0991962691,0.4384300427,0.9406862453,0.3739369744,0.8192083022,-0.2475796215,-0.6160543963,-0.7444192605,-0.4949604031,-0.2671422227,0.6112881941,-0.1927474321,-0.0738412104,-0.8241118017,-1.3165559919,1.778020578,-0.331739823,-1.5446094104,-2.7110528233,-2.4170409208,-5.2951972006,-1.2180478268,0.3476652098,-0.5654668249,0.2152213899,-0.4655146044,-0.5308449024,-0.2281263608,0.9159645504,0.354412008,1.5192618201,-0.6454969474,0.3031860466,-1.2489761018,-4.8928786688,-1.588408455,-0.5556555218,1.3967915328,-0.3868166909,-3.4628399058,0.3933499239,-0.01534624,0.9391437418,0.4625858771,-0.6412724256,0.6351233159,-0.7411031454,-0.7475896503,0.1264171073,0.3895440003,-0.0049259098,0.2600295329,-1.4613619135,-1.1155579295,0.0878895642,-0.3884194384,0.0926661434,-0.2846998728,0.0330857703,0.2173127798,1.3004889473,1.0530818075,1.1212776965,-1.1484505878,-0.8855652883,-0.3307596894,0.3816840224,1.1449891565,0.339035096,0.1957521954,0.4502315388,-0.7379107859,-1.0933700414,-0.6871437486,0.8761426128,-0.2518829756,0.6861882842,-0.3518184378,0.337930266,0.0181423018,1.4725557398,9.3438740518,-0.8185144354,-1.3142440348,0.4662154391,-0.990412364,-0.5427138187,-0.7625906832,0.4391761665,1.3953996311,0.0658042434,-0.2543796151,0.3386091394,-1.3852205808,0.5162636735,1.4596926286,-0.5315000267,0.2528930222,0.7145430357,0.701084126,0.2836408843,1.7843878629,1.2049136939,0.1901743517,0.3411402419,2.1386888859,0.8319108155,-0.1538122553,0.4988963132,0.2025825628,-1.0644930191,-0.4149859543,-0.4563209391,0.4489470346,-0.7489899661,-0.7985410576,1.1245417342,0.1528894112,-0.524469929,0.335820884,-0.4416462517,0.9387432209,0.2955804987,2.4853739851,-0.982993311,-0.0546182329,-0.5275034277,1.1326302863,1.1263262293,-1.166820349,-1.0936016621,0.8588538738,-0.9100426918,-0.1546801907,-0.5542687878,-0.5249308253,1.4644963346,1.0734381327,-0.7574248592,-0.8404094384,0.626192249,-0.5446816762,0.9855754707,-0.2755625329,-0.6725102654,1.9854928498,-0.4355570451,-0.3451548972,-0.712270519,-0.2198491248,2.6065236881,0.7634286597,-0.8669751511,0.1382669016,-0.6408214468,0.3778471053,1.0883817586,2.1714318064,-0.6211925045,-0.3452372762,-0.6885559967,-0.1324224077,-0.1999031094,-0.7886245943,-0.9092992479,1.7986490284,0.2047077,0.2772328687,0.5106102762,-0.2193200771,0.3414810953,-0.8234530501,-0.2863866416,-0.59196995,-0.9436636535,0.3889361819,0.185279905,-0.018037067,-6.8817429929,-0.3788090103,-0.4719232857,0.8274384708,-0.8016304361,0.7383475685,0.2425742088,0.4091338726,0.0685457611,0.0636312955,-0.2430409708,0.3077762832,0.0708845386,0.202345993,-1.7369186822,-0.4545494956,-1.4515630017,-1.1032332304,-0.8676048592,-3.2426230308,-1.2571424478,-1.3526849962,-0.3457494839,-0.8616692701,-0.9685303008,-0.2635111922,0.1580736982,1.2128900184,-0.9797573161,-0.0686434716,-0.962932315,0.3531341117,0.4901923545,0.9797031292,-1.1370053142,-1.0298164038,-1.083219153,0.4850587686,0.3876186748,-0.2788179681,-0.6791117093,-0.7771750046,1.0146356581,1.0453109998,-0.3645952857,0.5215814497,0.7510758746,0.4481365183,-0.32118825,-0.1408850869,0.2100930736,0.6393818176,-0.0995484645,-0.4795736619,0.0966760047,-0.7896445489,-0.659765341,0.0752936425,0.9072637474,0.1111957606,1.0993205355,-0.9851297988,1.5923246747,4.479739236,-0.5734264489,-0.7777911321,-1.12930394,-0.7852049278,0.2522666176,-0.0148590851,-0.7857825033,-0.3734044801,2.9680168217,0.3893388179,0.0849293043,-0.0092607705,0.2550209657,-0.1343727667,0.3491741723,-0.5711523429,-0.6197816979,0.4279002403,0.157820619,1.3494151763,0.0692879937,-0.9095208773,1.1823274214,-0.5909384198,-0.1201912306,0.6508070396,0.5777815698,-0.4701047804,0.4235134709,0.4059802545,-1.250711934,-0.8621391943,-0.9676744727,-0.2466472849,-0.5852002431,0.0734487489,-0.3693776278,-0.1886480229,-0.460019293,-0.1815805863,-0.2536794064,-1.6669787682,-0.432445695,0.1872078648,0.5237675374,-0.5783534368,0.5427132197,0.5983036218,0.0682110061,-0.782597061,-6.3885262798,-1.0987750575,0.2180792763,-0.6832801083,-0.7487063784,0.8059450157,0.3322953728,1.0390106968,0.6396355846,0.3233998177,0.2107053805,0.4474575,0.4185281306,0.7017435649,-0.5410317955,-0.5315896932,0.0059111456,1.1071217944,0.1118665082,0.0461126009,-1.6044770229,-0.1146683987,-0.9683689876,-0.9098450608,0.6017758965,0.8038214496,-0.8057973915,-1.7937275446,-0.2865957416,-0.1495038259,5.9185222458,0.5898537831,-1.0167579866,-0.2258020056,-0.1745364354,-0.4757657767,0.796105422,1.5664364129,1.1456357731,-0.6033881108,-1.7665823897,-2.1333561574,0.25662369,-0.3477245537,-0.8074318485,-0.3539228443,0.722328661,-1.2764991443,-0.3300390375,-0.241436648,0.0289367102,-1.329774142,-0.3868708115,-0.540941561,1.3196327927,0.993188141,-0.9190058972,0.5832577282,1.0426561688,0.0849221678,-1.0397996577,-1.3629402872,-0.0150605798,-0.402048592,-0.2628933661,-0.268441038,0.8956792906,-0.0835961439,-0.7318661941,0.2187404789,0.7724042479,-0.542684963,0.8601274389,0.6686776937,0.1018583309,-0.6082708347,-0.6301858475,-0.1828223423,0.1951773821,-0.7204092928,-0.9189512253,-0.356877125,-0.4804626985,-0.5967550596,0.5801175258,-0.7775822363,0.542188637,-0.8638196548,0.1577792272,0.3336196167,0.25939113,-0.4675788725,0.4018018341,-0.3968633817,0.1485218493,0.877749826,0.7455203157,0.9521257975,0.840744086,-0.2840759492,0.053081541,-0.6759039905,-0.7157589392,0.6612674354,0.3085888616,0.161390985,0.6366177239,-0.5583055383,0.053766561,0.3174096029,0.4677378696,-0.2741945801,0.7545324169,-0.2352936148,-0.3961706179,-0.3111792736,0.6088278406,-0.5388708992,-0.5310126392,-0.8066031405,0.0624418655,-0.2314538002,0.7841950945,0.5234944484,1.109403724,0.5494798193,3.8496004698,0.349802136,0.9489254516,1.0910504729,-0.2020872804,1.1579171084,0.9814348206,0.3797437253,-0.2534148702,-0.906671913,-0.1477920648,-0.5966265436,-0.3880840542,-0.9768673312,0.4417295644,0.9226231109,-0.3923260478,-0.0345761933,0.9785866894,0.3356757046,-0.0940401335,-0.2867129037,0.6215165337,0.0898986851,0.527110869,-0.4712110219,0.0124295429,-0.0712391155,-0.7896709127,-0.1210376798,-0.5177627992,-0.2228182784,-0.3832930122,-0.9265439833,0.2540231024,0.7560608914,0.2543204842,0.0449916642,-0.0777690728,-0.9274632759,0.0484828868,0.2270561302,0.5453654973,0.8137406748,-0.7722012346,-0.0783119605,-1.392953052,-0.8588555963,0.4272635745,-0.3864950961,0.2017405299,-0.2686162368,0.4641498719,0.7750395695,-0.157784172,-0.4888100868,0.7934446744,0.5818073937,0.3243683471,-0.103070326,-0.476903553,-0.0110323767,0.5465933596,-0.0441186733,-0.58980789,0.2370395183,-0.2301732406,-0.6796240099,0.4131530501,-0.2024307515,-0.4522072743,-0.5270110023,-0.2295442962,-0.2807095251,-0.7293040661,-0.5188915985,0.0676608963,0.0229402185,-0.2433001185,0.0762443216,-0.4912488299,-0.0042066692,0.7350029173,-0.2347849693,-3.4246696005,-0.9183017575,-0.0021538349,0.0199433662,-0.8700914156,0.2835685799,-0.1617577908,-0.2614615113,0.2978148964,0.8301930892,-6.5376337916,-0.9132522929,0.1995866273,-0.3059854649,-0.5972746424,0.7768771003,0.6790999599,-0.6026525725,-0.965898182,-1.0670844062,-1.3604279589,0.9577958988,-1.6197153822,-0.4971455078,0.6468941674,0.5456248075,0.9839567201,-0.3436835486,-0.9007684794,-0.3243094383,0.3968444948,-0.7831699305,0.6632858421,-0.6088415451,0.0339682414,0.6430592372,10.0828108439,0.811571108,-0.5001653124,-1.0245465276,-0.8456406409,-3.0021563662,-5.7033939167,0.5884504715,0.4764851074,0.4578486644,0.0510149403,0.9763097007,0.6873525128,0.3274671934,0.2645634214,-0.0958746731,-2.0838118402,-0.1594558913,0.1853484914,0.5376264877,1.5369149092,0.5474680733,-1.0310501504,0.3965191792,0.9387772665,-0.674441703,0.7262125361,0.1443958536,0.4731657548,0.0131120673,0.6357488303,0.9708573902,0.0373716479,0.2356688903,-0.8227716146,0.0871706542,-1.8870013412,-9.9625906639,0.3922755554,-0.582808014,0.7240519529,9.0021117222,-7.5985450959,0.3108230802,-1.7904820862,-0.2552519189,0.5397240882,-0.0832501219,-0.7319926653,-0.7579879702,0.2307887612,0.8753116653,0.598515698,0.8652602223,0.891494804,0.3608120812,-3.5418472138,0.2160421075,0.0262343632,0.7258661714,0.7598976515,0.7669973682,0.8100083564,-0.8254744373,-4.0397699377,-0.767875805,-0.424707926,-0.2380088998,-0.6309298755,-0.4703056074,0.5188472135,0.9322757692,-0.2104805878,0.4508704582,-0.6914867663,0.8342682725,0.546769784,0.6293997357,0.5617002845,-0.9055739446,0.3157031916,0.0656018954,-0.1821477743,-1.0013648621,-0.5264624286,-0.8916655881,0.3288916597,0.7584630604,-0.780517528,-0.2879117423,0.7638961502,0.4246986812,0.3352446686,-0.2557382738,-0.0531192705,-0.3973096559,-0.7961242265,0.6948418964,0.4840622775,-0.6866505242,-0.8850992457,-0.6344404704,-0.0397287878,-0.7116199701,0.5078521539,-0.2870086231,-0.2123459442,0.2771135208,0.4176936699,-0.3590908349,0.1590641083,-0.34987313,-0.5906742051,0.9597371607,-0.7603205703,-0.4088771637,-0.7498572937,-0.3342253335,-0.1346189144,-0.9253501392,0.0628033229,-0.1474191971,0.0433122731,-7.3924898996,0.5718411025,-0.6700621067,0.1392669783,-0.0438498577,-0.7902076538,-0.9807778614,-0.0690418375,-0.8989780259,-0.0863163817,0.2383693635,0.3027100233,-0.6456705579,0.8112571126,0.8721625587,0.1660557951,0.4207020161,0.0869097043
