encog,BasicNetwork,java,3.4.0,1,1497215685812
[BASIC]
[BASIC:PARAMS]
[BASIC:NETWORK]
beginTraining=0
connectionLimit=0
contextTargetOffset=0,0,0
contextTargetSize=0,0,0
endTraining=2
hasContext=f
inputCount=400
layerCounts=26,101,401
layerFeedCounts=26,100,400
layerContextCount=0,0,0
layerIndex=0,26,127
output=0.00000285,0.0000049301,0.0000044453,0.000005524,0.0000068139,0.0000036538,0.0000040672,0.000004144,0.0000084048,0.0000039185,0.0000044109,0.0000043071,0.000005714,0.0000042144,0.0000048166,0.0000046783,0.0000037244,0.000003656,0.0000043231,0.0000050425,0.0000054939,0.0000065384,0.000004285,0.0000059758,0.9999887252,0.0000063589,0.9069953515,0.9837270807,0.0492590399,0.925234736,0.9858049887,0.0772618393,0.992177253,0.9519473902,0.0751144673,0.1673142812,0.989317636,0.9891732265,0.022237753,0.9453667365,0.07751114,0.9961008284,0.9782632642,0.1860405589,0.9321018432,0.034495822,0.942479288,0.9246786763,0.0028980032,0.9897349688,0.0297131735,0.977587395,0.8533112621,0.849359367,0.9863717361,0.0210202023,0.0223878188,0.0147769124,0.0139511748,0.9852126338,0.0590668169,0.9868611789,0.9775988058,0.0502173431,0.9800779556,0.9560686271,0.9701515775,0.9693193811,0.002390121,0.9751009134,0.0096289914,0.0613077415,0.9691980546,0.9819437236,0.9806629341,0.1152044171,0.0733918003,0.893702649,0.986174843,0.9705179476,0.2201467921,0.9849246349,0.9960406647,0.0331535571,0.9906972467,0.0436689823,0.0493371718,0.9813330992,0.9800532246,0.1316592331,0.6666093106,0.0052033849,0.9244229219,0.9756273913,0.0164223601,0.0284817821,0.0167036035,0.9149221333,0.9870233147,0.071112623,0.9799173797,0.9881166829,0.9749665983,0.0031953264,0.0474573851,0.0076059697,0.0099474729,0.0111179244,0.9771284343,0.9857016611,0.0283331764,0.0312682178,0.0704167625,0.9890485521,0.9882419754,0.8663349992,0.0306081981,0.977152255,0.962576461,0.0149937239,0.9707749263,0.9973057271,0.1037585722,0.7820221239,0.9935552373,0.9819027781,1,-0.5,-0.5,-0.5,-0.5,-0.5,-0.5,-0.5,-0.5,-0.5,-0.5,-0.5,-0.5,-0.5,-0.5,-0.5,-0.5,-0.5,-0.5,-0.5,-0.5,-0.5,-0.5,-0.5,-0.5,0.5,-0.5,-0.5,-0.5,-0.5,-0.5,-0.5,-0.5,-0.5,-0.5,-0.5,-0.5,0.5,-0.5,-0.5,-0.5,-0.5,-0.5,-0.5,-0.5,0.5,-0.5,-0.5,-0.5,-0.5,-0.5,-0.5,-0.5,-0.5,-0.5,-0.5,0.5,0.5,-0.5,-0.5,-0.5,-0.5,-0.5,-0.5,-0.5,-0.5,0.5,-0.5,-0.5,-0.5,-0.5,-0.5,-0.5,-0.5,-0.5,-0.5,0.5,-0.5,-0.5,-0.5,-0.5,-0.5,-0.5,-0.5,-0.5,-0.5,0.5,-0.5,-0.5,-0.5,-0.5,-0.5,-0.5,-0.5,-0.5,0.5,-0.5,-0.5,-0.5,-0.5,-0.5,-0.5,-0.5,-0.5,-0.5,-0.5,-0.5,0.5,-0.5,-0.5,-0.5,-0.5,-0.5,-0.5,0.5,0.5,-0.5,-0.5,-0.5,-0.5,-0.5,-0.5,-0.5,-0.5,-0.5,-0.5,-0.5,-0.5,0.5,-0.5,-0.5,-0.5,-0.5,0.5,0.5,-0.5,-0.5,-0.5,-0.5,-0.5,-0.5,-0.5,-0.5,-0.5,-0.5,-0.5,-0.5,-0.5,-0.5,0.5,-0.5,-0.5,-0.5,0.5,-0.5,-0.5,-0.5,-0.5,-0.5,-0.5,-0.5,-0.5,-0.5,-0.5,-0.5,-0.5,-0.5,-0.5,-0.5,0.5,0.5,-0.5,0.5,-0.5,-0.5,-0.5,-0.5,-0.5,-0.5,-0.5,-0.5,-0.5,-0.5,-0.5,-0.5,-0.5,-0.5,-0.5,-0.5,-0.5,0.5,0.5,0.5,-0.5,-0.5,-0.5,-0.5,-0.5,-0.5,-0.5,-0.5,-0.5,-0.5,-0.5,-0.5,-0.5,-0.5,-0.5,-0.5,-0.5,-0.5,0.5,-0.5,-0.5,-0.5,-0.5,-0.5,-0.5,-0.5,-0.5,-0.5,-0.5,-0.5,-0.5,-0.5,-0.5,-0.5,-0.5,-0.5,-0.5,-0.5,0.5,-0.5,-0.5,-0.5,-0.5,-0.5,-0.5,-0.5,-0.5,-0.5,-0.5,-0.5,-0.5,-0.5,-0.5,-0.5,-0.5,-0.5,-0.5,-0.5,0.5,-0.5,-0.5,-0.5,-0.5,-0.5,-0.5,-0.5,-0.5,-0.5,-0.5,-0.5,-0.5,-0.5,-0.5,-0.5,-0.5,-0.5,-0.5,-0.5,0.5,-0.5,-0.5,-0.5,-0.5,-0.5,-0.5,-0.5,-0.5,-0.5,-0.5,-0.5,-0.5,-0.5,-0.5,-0.5,-0.5,-0.5,-0.5,-0.5,0.5,-0.5,-0.5,-0.5,-0.5,-0.5,-0.5,-0.5,-0.5,-0.5,-0.5,-0.5,-0.5,-0.5,-0.5,-0.5,-0.5,-0.5,-0.5,-0.5,0.5,-0.5,-0.5,-0.5,-0.5,-0.5,-0.5,-0.5,-0.5,-0.5,-0.5,-0.5,-0.5,-0.5,-0.5,-0.5,-0.5,-0.5,-0.5,-0.5,0.5,-0.5,-0.5,-0.5,-0.5,-0.5,-0.5,-0.5,-0.5,-0.5,-0.5,-0.5,-0.5,-0.5,-0.5,-0.5,-0.5,-0.5,-0.5,0.5,-0.5,-0.5,-0.5,-0.5,-0.5,-0.5,-0.5,-0.5,-0.5,-0.5,-0.5,-0.5,-0.5,-0.5,-0.5,-0.5,-0.5,-0.5,-0.5,0.5,-0.5,0.5,-0.5,-0.5,-0.5,-0.5,-0.5,-0.5,-0.5,-0.5,-0.5,-0.5,-0.5,-0.5,-0.5,-0.5,-0.5,-0.5,-0.5,-0.5,-0.5,0.5,-0.5,-0.5,-0.5,-0.5,-0.5,-0.5,-0.5,-0.5,1
outputCount=26
weightIndex=0,2626,42726
weights=##0
##double#42726
   -1661.9889499977,6.705778597,0.6974259939,-48407.790121258,-16394.110765658,-1.1761303235,-0.2244409352,-2.6138074685,24.4841863996,21.2659535288,-29.4664073231,-0.9583995862,-28.2988420873,230.3897768822,2.4915265665,5.3198643732,0.7755277674,35.7450077967,4.3072363584,2137.7765149641,-11596.292123676,158.6227046394,-0.2971437222,-0.6412058612,259.8535493207,-1.7675517805,-0.5555851739,-41.0001620933,11.1565045351,17.0228166783,-90.3221791124,-0.8579004755,-223.0274990898,-8.0252775908,-29.9625627478,0.0789252366,-46231.6590828442,-6033.8868408741,0.4009509988,-0.439790447,18.6741907454,-14921.2322115644,-180.9292495108,1945.309185287,-1.0708793636,0.4821278044,0.1875681806,1679.1808322818,0.8410064344,-0.8565770599,99.1407281777,-49.869212989,-15958.0436960387,0.1139774571,0.2024233094,-0.3313182582,1.7517022963,-154.4619987085,-16962.8685518933,-0.8076251763,142.6954965972,0.4523477965,0.1172840785,-83.9163632516,-2.0126406498,6354.5000787112,1927.1910188539,-0.0580833004,-0.8643093393,-42.227061806,1.9464600609,6.538759192,-0.618939965,69.2300810168,-42.6578155504,0.1877586004,0.8934883788,-0.8075233593,-10.9997188932,6.288146591,50.1930177577,12524.71043077,0.1833635642,153.2294429705,2.0828765431,0.6913740891,12451.2077939563,-399.7546351967,-9733.0266139118,-3.2344347841,-2.8105852234,-0.9010085465,-2825.6963603491,44.739559169,-0.6728861449,-6686.4944977081,6298.4276907971,2933.8005034078,12.7101871069,32.1243263948,-1.1472576685,-0.2572165479,-2.2343426904,-0.3588679676,0.0994346384,1333.1333739793,-2836.8443257389,0.2424729325,51.4623840756,-26407.4700300891,-0.2877625732,-0.2875427599,-0.9755866995,1739.8966776879,5.6799332572,0.7169371732,-0.7611465285,-1.9464039434,-13.8280803553,-42.6172534106,1427.5058618674,-7176.3509481285,-1.1887437679,0.8619969663,-0.0497641934,0.144761621,-1.8348022131,-0.3414495469,-12.2371321578,-7.4713200752,12.1611784187,-2.6572694717,0.2001374599,-1045.7800943035,0.8736543436,-0.0637763545,-1.6768549638,-52.1362719149,-1718.6632316236,0.6839249697,29.2490883683,0.1413508373,2185.3083251999,-2896.1734943998,0.1201681222,0.3337733712,-126.4149281571,-22871.5246092429,-2.9157528447,-3.1910628304,-46.7271388736,-4398.9739711209,11120.3854904025,-0.0279320034,-0.4978002949,-1.4876863027,-0.1532628569,-0.7975843869,-4.089503205,-8575.5785808534,-4.9281684079,-0.1716859944,3.0972212612,-0.7998561053,0.5249278283,-15698.4483247294,-37.9572871018,1.8833115704,-11.7102880815,-221.5927812324,-973.1334501283,-122.6282433619,-1.3274130403,-1568.8870577364,24.9767424204,-0.5261975737,-2.0064259544,0.3527828069,0.2359813447,836.1076209279,-246.6517477856,-134.8630517001,-446.8705070898,0.879717678,-8.1379528829,1.2752740819,-0.3566513771,22629.9577442635,-0.836470357,-0.3245984501,-34072.1694593039,-66.0277024788,3281.3160172201,-38282.2035919959,101.3112334617,-0.066599858,-1156.1399283248,0.3194992599,-1.4724111736,-2.1140121337,-0.3020995501,-0.3045815618,82.6713113204,66.9756734168,-0.4627778677,6.12727328,1457.4822850397,-1.0452040423,-0.8901615467,-147.1511435624,53.7619293689,5045.9535773621,-190.8260735195,0.6743319207,-4909.6829269007,235.97238377,0.996408078,-0.2133509312,3.3817189958,-3.474296984,10.2221877159,404.03327718,749.0538562709,1.4414872945,0.0263001942,-0.9167167576,63.1126839036,0.8327776854,545.1339917974,4.0962005048,0.4182321393,-40236.0189492972,1866.4456923256,1.5172234331,2.2484455039,123.6426882708,6448.5108327355,0.5554387775,1.111095537,-17729.9164444696,-0.1075547339,0.8719871828,16204.964865893,12.7388951564,-18616.725306434,-16150.9927490293,-0.6060060557,-1.021775544,-0.9089591043,-0.5797511309,0.7324705947,579.0861852844,-12.691744817,-18678.8714553816,-0.7741377948,0.1204751919,-12960.6901694479,-0.807592568,-0.9262497863,3553.7770082965,-0.2132213126,-0.3659426077,-0.0890920071,-0.1896336509,0.4918354253,-0.493431915,107.2811926856,-1651.5350142298,-0.1448172902,-0.5769253464,0.0175778896,-4.2151091866,-0.548493205,3.3053868411,-0.9036729042,242.2218204394,550.138204333,0.7628641541,-0.23743583,1.4810719836,-732.5794433574,1.1392542151,312.6060964578,508.780456287,1.0042544875,-66872.4025365259,-0.3615194833,0.4692282092,-96.6242884558,-0.639111116,-746.957509483,9158.1621866308,-1.4925095103,-1.1791635944,2168.4108138442,2540.8921948489,-2475.8443373067,-7393.777400117,-0.491071439,-3.0003387177,0.2623509567,-30039.814927802,0.6504344404,-1063.6048722655,-16478.9544092104,-2.0748291167,-0.3602849483,2.0633194701,-1.095012817,-0.1619887975,-0.0625000812,-1.3202320576,324.8584954081,0.3243441427,0.1342010934,27604.9998115393,12376.3897204127,0.2218979016,0.0769851073,2.0054872918,-0.9524310862,-3.2536161891,4663.2294574612,-0.2639718784,-0.5261414657,0.4466066737,0.1337547151,-458.8511072008,-8.2342237057,-20410.4884469695,0.8857625723,-4.3041728244,-10942.8501688219,2557.1626930529,-10.4224468359,-1.0164525328,-0.7545031211,-3.349635575,0.6866110541,114.1965934046,1.1700279856,-0.9073507868,0.1114653945,0.9384689785,0.8278400744,-7846.3482116138,-125.6853593795,0.32078491,-0.6764870042,-0.3234035746,-310.6706946915,-0.6438206016,-0.959958478,-509.1002622921,462.9937317552,-0.8677700822,-0.2082747148,-0.3428079688,-0.2107691819,-22.2613732908,3569.0763563203,3256.7073262187,0.4202970707,-0.6147819412,-0.3220581404,0.5537570778,108.2247327809,-51291.3981747476,1668.2528841924,0.3928206531,-22.5011251668,0.6128430808,0.1565022135,-35.7829629407,-0.5624153976,-0.1856982404,1.2033666674,0.1655144044,-1051.4256171188,-1.0494977002,0.1330619068,-7322.5091832866,-4363.0773579659,-1.2399703689,-0.9671849291,0.4796509243,-0.1739000183,-1.8923536203,-0.9912880672,-1.2146181869,-4.9497165325,-117.7255011053,9.1063621007,4.7028718295,-30072.2713404428,404.933534231,-25138.7338114671,-0.8199089933,-6535.5914035058,-0.3709559026,0.8095683354,-0.8260314144,0.4186841179,-0.034655834,-0.0783401646,-2.8826281231,-0.8774876009,1.4982511817,-18858.5897419436,-4.0977023697,-4.6522745334,-81.2203059732,-9983.2983264413,-0.0992917525,-7998.7634051619,0.1173356512,-7222.9923330179,-29.0388781095,0.4199132035,-19.8417673434,1.8883144619,12.4206713308,-34695.6644271105,-17.0928645314,6079.3421521174,-28.4776960636,1.3804434437,-0.5843286424,-0.8724343042,-0.1395754815,0.6820807178,0.4532950618,-0.6606424321,11.6032319513,-6.3171841508,0.0757323621,0.5220279664,0.3261588239,-10.8789072514,0.5261628847,2.2930428974,-216.7185855058,-1.0162991297,1.6529687099,0.530580294,82.0928759556,-1680.5832732414,-5.1317394679,0.2716280629,-7.9386707915,0.8622498948,11.0779263419,-0.0518914422,-227.8780009682,-8219.2527664753,37449.1116655002,-0.2217333523,0.8936486155,-1386.2514934368,-0.9391620978,-0.8368330197,-21295.6712796371,53.25472779,1.0843607546,-19564.5229248607,-33140.5173367597,1.1938836094,-1.0492881691,0.0405645291,-78.9500469611,361.1621818951,-0.6611845674,1.3462971181,1.8651621523,0.6746027574,-1888.6527203908,0.8545595682,5.2107883768,-666.1844194136,-0.5246767332,-0.6024004413,0.8944297978,-2.9535455247,-12817.5413091652,-30.3363506784,-8568.3783781002,-0.4957154313,-11.3081797889,1.0100809266,-0.7634827294,356.8624533671,-156.7145223035,67.9166178578,1.0369970216,-10.5714023393,0.3955050918,383.8083194469,297.592482855,-2642.3473965161,-9646.5730757091,1.2706423041,-90.0469157084,-1582.3055720937,-1934.5002331617,0.3607474958,-1.4576841953,2169.4091136681,1.0092714344,59.5104298055,-1353.9243119576,-263.1576141465,-0.3533655854,-4042.3502802414,-2.341157937,954.090896655,2.2146372658,64.321228207,-1.716705435,0.843668764,-1.2058350845,0.728475685,453.6365505006,-7.2988656889,25.3900496015,34.9690633443,-6504.7732505947,-234.9994833173,1.7865381597,0.0366528633,1341.9018940301,0.8177355465,0.3940800436,35.2790726945,52.7101364901,-26.0337995414,-3928.595974602,-213.404154683,5.0396047175,1.5061002271,9.5986842636,152.7121716813,1658.6064703046,-164.8287107811,0.8887562554,-27847.057223835,40.2823901022,19.1247584451,-1604.4898939919,15.1254694855,1.5779374127,174.897039366,517.3159239238,7.7100626091,4.19203507,-45.2434377601,-2.633076118,711.484598676,6.1292447753,-0.3080881978,-1570.4835619849,1.5771272649,17.3829239878,-89.6122409797,22.879159674,30.9203324414,2449.9864439298,-30397.6519899579,3.5922047868,-2.2184092635,861.1856990523,-501.2335049384,43.7776253395,1292.9711015113,5.0904577763,1381.1739658121,0.3160490785,3.3828369209,2.7316439221,165.7123578735,7.7663301434,-1.4673374168,-0.4459852453,-0.2787438993,14066.7171143577,427.1087706304,-0.0799221073,-3433.4946419302,0.1753082037,4.2673149474,13.9717829212,9.6510280236,39.2925884509,-47677.4475340765,23.0373493796,-1613.6330805345,0.8392588168,-6013.4343775807,738.5066018273,-24.0343850533,7.0472346474,-831.8348737795,65.5739209749,-16736.251889917,6113.2188403745,-15906.0616535546,2.0105796567,-12.467030281,-3590.6309816438,-0.4118930284,1163.7123710902,-50.7819206344,-2.4018185828,-0.1800730746,-0.0838228669,0.2768546617,-3.5233095925,-13.4021187644,-0.0616776355,-2964.9555111671,-0.5526655172,0.7146060178,1.2977098465,-0.1221983563,-0.6411263097,0.2314186899,-0.8783011838,-31.4277649349,1.187073969,-0.2182697291,-0.9136172363,0.9356252675,-0.5526355882,-10.8647459284,-9524.7693615268,-0.8306727536,44372.0384016711,-792.9856066673,0.0350433287,0.2657220556,-1.7298298085,0.5391428421,-0.7329887149,0.802438908,-6250.3247764847,-0.9291368332,-5.561940561,105.900639539,-1574.3372888219,-8495.406293107,-0.0102990892,0.8207948462,0.514690525,-26698.0552548851,-188.8548032091,0.3315447401,-21.5658852312,1.147454411,-3857.5323515944,0.5461197643,-0.3203546172,-4588.4078530377,-0.5730155738,-0.7481166779,-1804.2154569161,-0.2059554823,0.7230234135,-2.3958332991,0.082527071,-0.8779796025,1.2710217707,-0.779175761,-1068.2697150946,-14950.87426796,-3985.175796374,-0.6013201501,-6662.2004210574,0.2460201222,-0.3751011096,-0.5448289192,0.656768709,0.7923527749,-0.654294101,-0.5288640427,0.0380186766,-17330.8106096435,-15.7190245423,1.259961002,-0.1431757167,0.5409657408,-3.336292278,0.5543725914,-15.1032615579,-0.4937880391,0.6835750508,-19246.7097423414,-110.3156075608,-2277.6941376649,-57.1047855143,-0.0322466427,-5489.6173146237,-0.2113227414,-11269.9248807488,0.2663174612,-12.9159680856,0.9147865212,-32051.5251100496,0.2607247355,-0.3123800969,-6756.7545813139,149.210994784,3303.971755826,-6.364181085,-2.1242478348,58.2835253595,-19980.4287119348,4.582951127,-72.7899685934,762.2442261813,315.8850563396,-1.4287552493,-169.429295383,-18.2026716285,80.2713098643,655.635289138,-404.1937381075,391.1712767468,-11.6150988184,-17.11670678,67.429762461,-5.4676289662,52.8806469791,2468.6571751647,175.5802800788,83.7572315148,-90.8628543305,20.539931161,773.013039834,-859.5996356253,0.0299995773,123.9755966625,565.4139502889,-0.8009882535,-1846.2340296488,-1.9647165772,-0.4042514588,40.8298586703,-39137.8680018651,12.2054090356,-1.3278926513,-4193.6874531029,250.6847725106,177.4138043073,469.5618540156,0.4213189735,-2.7460023834,-52642.5851136746,124.2716705188,278.9529917047,5154.5090379693,-0.8549016973,29.0102809278,-2.4512596803,3.9494048462,378.8520043378,-21.4527522501,4.1960506768,22.8295704209,1.6100635851,130.9959918412,94.8600754006,-40241.5572407206,-12.0327925488,-1261.733850535,9.2395606117,18.4997851761,31.0383255855,-154.6696764443,-0.3348483868,9.4571009636,-38.3991279785,27.3528603016,120.5881281051,2357.6499308105,107.1641430524,-10.8659395546,19899.8559094303,68.938439799,-2.0603697377,103.7808374193,134.3829495787,81.8813744744,448.3353096938,-126.8353957091,3279.4704693682,-33.828070417,0.4116086399,14.8838733043,-19.3183701991,7.4800363344,0.1582133928,-4.7689811965,154.1596100467,-13226.9635706349,1510.1636603466,34.4224741585,73.1497542944,-1518.0037246607,13.1260945525,-0.1213103253,433.2745846285,-0.2964788065,268.5831811123,-397.1078810921,1.1201131945,0.0986924622,9.6428130875,5.5561949356,-11083.5600210108,41.0689292477,0.369741777,-150.5760112421,9488.8239037114,9.7293045184,1.377479771,0.8136024271,1.0054783968,0.0604924672,-2633.0368718081,-29314.3777317007,1.5873971926,-2.5023512667,0.290792642,-0.8605707177,1.581303992,192.9133138538,-0.1547765248,0.3039295456,-12446.2912402357,-12729.8610750049,-32.9317467982,-6.7468781182,0.4619428039,-416.8946952392,0.734113161,456.7028053072,-1582.1015097923,-0.1869795471,586.4471032855,0.2236187452,-4754.8773791434,-92.4235703226,-1.1874702675,-0.0427291039,0.1082661986,-0.0459690675,23709.0169656904,1.5160783496,-2409.9644794539,88.8391681528,24.4080146756,69.4823339053,0.626158989,741.9373623194,-0.6443972336,-0.6325973423,587.6757098872,-13811.2010923853,0.3046744822,3739.1578507496,14.4218862571,0.3179789184,3.6652535156,1143.9795550647,-4166.3856527989,277.2409613415,66.2880828209,0.0137658476,-768.5213331928,-0.4954305772,0.1068105426,38.591740798,-33251.8174401315,2.1345670054,-0.3729267472,-0.2968885243,-1.8365495989,-4870.8488271873,-34492.6457959382,0.4200863928,-1.8431044151,0.1391130306,473.5818636084,2.1028300999,1502.5674213968,-8382.7111586371,295.2870929788,-15077.7367481696,500.3753204194,1.021981376,297.019070499,-25959.8403033075,-5230.6288069449,-0.109334735,-4291.9758757698,0.0352796548,2.7330464935,0.4391267272,152.4468196619,-0.4396004853,4.7656228653,5.424396844,0.0968871259,1.2706382858,4935.2704549158,-0.9553931749,0.3768201495,7910.2879037988,5996.3048767652,-6631.1116123414,0.2877403372,6.94851779,-0.5144543171,13.391271358,101.9299298137,6.1624234782,79.0373843717,-0.0665483986,-11803.0739809412,-6513.1108588524,313.8699186786,0.537096509,-0.8698859563,95.911269272,71.5621347337,1.0931105436,7.3238446075,-16508.2708389977,-31176.0959827235,-1273.0745039974,12.3931553946,11498.1926745654,3.5055043411,-0.5435615076,0.3972593139,-0.7977201014,3.4430547379,1.6785854785,1.7762919274,23.2714073062,13.5560131968,-2102.7664989451,0.1661086218,1.3628745276,-1.113410289,-8.1425425177,36.7757199502,-7328.8394728739,3.3380122994,112.738072831,2659.0823594401,-410.1098931347,25.622863654,1.8656731502,-5872.3452299858,0.5159583794,2.8915337985,1.6469384556,-12400.7554121568,11.185640251,0.7620441659,448.266109124,1.1159682923,84.078107729,-0.6479181617,15073.1371070896,-19455.3961367338,-1.2569668305,2.414090661,-9645.798120513,129.5982418019,2.7700542075,1.1490617214,1556.0063446212,8.7187830848,-0.3149169623,0.5100420049,0.2441299904,799.8348643312,-11.9429108197,-7.3512775414,-6050.3420197581,-0.5945133082,306.608704192,37.6598915075,3.0249991829,-0.1033795434,-1.047409944,-10587.8190163433,-0.0110571185,69.2796257059,16.1949697968,-26403.3372719296,153.9419511502,0.3480654275,-12949.7578302411,-10918.1251974325,7639.5078766725,17.6475819458,108.7712414781,0.676443227,-0.6493964994,-122.3775484856,-0.9069343361,-54.4452640793,-801.2451585525,-104.8131933826,0.1606311581,-12.8415729281,0.65737074,-15.2510458943,-9.5307273433,0.4224189016,31978.2515486282,-53.8848298143,-0.4715834712,-63870.1972819003,-0.5434381543,-0.8826297417,2.1580749877,-1120.3881706765,-62.0840884327,-156.8819142909,0.2852018018,-0.8884801619,41.8187823295,-6.5694071858,-6.4614385903,-10.7664230202,-0.5118666239,-506.3956248479,1834.4721953504,-1.543574231,-10.7220539246,-0.3506919824,-2241.1577797779,1.4779650574,-17630.3026733732,18.8731336169,-0.9128750686,85.6466153494,-47797.3881129199,17657.8588973423,1302.6067743229,360.0280639671,-0.5790625288,-0.6453802306,-1.7104473618,-0.3697791969,-0.6026144753,-1.6620899549,-0.2141778506,555.6274208559,-0.6346689348,-1.5769641921,0.1160037787,-0.2664040255,-0.1985212024,0.0353120507,8.8840598031,-0.6095109651,80.0586300793,0.8205092072,1.0098272932,-163.5511628739,-1052.9997374739,1066.5310147086,14.6619489107,-0.3241713544,0.6336937496,-3.5510546708,-0.4127246264,-2.4619452343,-9.9048070099,-13.8101233801,-2.5728356587,-2941.9748744069,-0.0808225673,0.2861613484,8513.4415510684,0.4014570216,-0.3095703973,-1092.0780085866,-0.9128573434,-0.4482438946,-106.9615212686,1298.1711179974,-77.6749240448,0.6882794632,10.0767151669,-125.7955741611,-0.9910628678,-157.3674562932,0.7575929811,-0.3908016054,0.5838149868,-28.125445753,137.4090535924,0.2739797171,-19.1754384892,-0.8760665548,-0.317256038,1.1823747006,-23025.3063854399,-0.1672792422,-396.8595958985,-1955.9464408083,-0.7386234021,-0.0593923267,0.3820263191,1.9969155235,-0.1963171704,-153.8289969212,0.7418225595,-11.9250152054,-2.554466842,0.4106617311,-0.1114742325,0.4504422594,0.3620829919,-23.0823637683,-1703.9517699862,-26119.2823460805,0.3622622946,0.7601215851,-12.8149788989,-2.6873060094,1.7744575369,-1274.384903347,1396.6674032875,-0.1430851327,-29344.1572222541,0.0071179454,-0.4238999226,0.1472329304,-1.4707246139,-457.9747664577,-64.4925602209,-0.4190663166,-13028.2307155837,-0.1844916867,-0.466781949,-0.3323030232,-2407.2765145693,-190.4358948591,-3155.1924350984,-0.4614734767,-93.1068158494,-0.4420447522,-7444.2667353679,2.1483986074,-341.0592397239,-362.282648682,2511.8396935415,-7.0700901076,-0.4800454081,-2.3806688117,0.7460509984,0.2798605596,450.6259460175,-0.2510145082,-0.1142635432,-6492.3178557383,394.9922734374,0.0529690887,0.6471423616,2.0059654327,-3231.1515180692,-19.9388189395,0.1877101719,-0.4634608128,-8308.7904057411,-0.287592129,0.1199399172,0.0808308164,-1.3838692294,0.2009122644,0.1856048685,-0.5984449113,-0.2325947512,-3478.0345264236,-24064.7116841087,-0.5884230506,-5.4939809655,-0.176454081,-84.88510956,-0.4025616652,-93.8749728755,32958.4267314934,-37.1300815806,-63.3649914722,84.9311782462,-0.5468367554,-4.8004718437,1.1072044517,9.4195433989,-43701.759246556,-13737.8446140696,-0.5807568853,0.4682542942,0.1707529786,-4.1203018527,-0.7827119308,-1.1598045439,1.172855286,0.3034466431,-25566.9986310639,-15.1835898798,1.3085631059,0.1500029055,5284.5483028104,-10.1751256593,-190.2045429688,-31.2052944853,-0.3259361073,-1.8505117668,-15.0179348906,0.3040266914,0.1513180268,-32181.159247041,11273.6788380765,-646.9075299705,0.2592758535,-1176.4350148221,-0.0732558224,0.1528345151,-0.5662056807,-72.1701455397,-9965.379542559,0.3923592481,103.8258866303,-0.1826128779,-513.1158325676,-6.8882273939,-8.9251574094,-1.5217605474,-27.2252596678,-0.7014089221,0.6203112722,-1.1391463574,826.4643562191,0.52122934,-1986.7703346543,-13021.4572255598,-4804.4011520092,5.2616554192,25.3338118894,-0.6024266518,-0.0572479175,-0.4069231503,15437.2629992844,-20.0543713451,-18.3719211142,1637.8634156722,-3278.2131520299,-73.7568810424,-22631.4746416972,-1.7655096295,-0.3195648945,-0.32161399,-69.6253933655,-0.1294735229,0.1294079888,-19895.6437261548,0.7309194398,-967.3008740977,-1.7634483414,-367.8442383294,-10.2164438424,-630.7152676733,-0.3618937236,-3685.1807386552,-13.7334152301,-0.1800195227,-2738.4695196826,-0.459991688,-6.381757618,-5128.5356676272,0.6377115072,0.5714682441,-0.5590506514,-0.2734401277,-0.626185721,-25.1798727208,-0.3388475553,-0.1229636971,-0.4721194424,0.2877527062,0.5325250484,-0.605239282,-0.4962483334,18266.0604250867,-5.3540744239,-20.6852303044,-0.948528363,288.1040771763,-4.3742845403,-1.4068249731,-7139.1860988917,0.8732896207,-1.6027550455,-13.1566930201,5.4466809399,-0.6447997431,-35.058842087,8.5479551449,1.2522571129,-0.4507857052,2.591547781,0.1073988767,0.9078690423,-0.5969027425,297.0246718105,22.81811022,18.6462474961,1.8775914439,-0.9338919656,-304.8358381626,1.0542774684,7.6648322231,17.6886786435,-11.7018798401,-38259.4310424083,-84.8629054353,-0.8477486911,3047.8029818905,0.3240589197,1.0256445275,-0.418944118,-66332.9598265412,418.1164624038,-1550.8856046288,-2.180614907,49.2060727798,3.6183054496,-25.6590661654,1.024235411,-14.9009452173,-0.093496259,-10.9153046573,50.3496176033,5.5266214172,-0.3088665327,611.0872224231,-18.5988926536,-0.6121488975,39.6678458438,-0.2546930517,-0.0667255949,5803.6803925904,-0.1828502045,-1.2564014232,-31490.7504606678,14801.2178189781,0.9945950289,1185.9424525176,-3.2480674139,11.8315153091,116.354376525,0.648411978,3.6790644429,2037.7519670267,3588.4713476985,-11.5592837943,8982.6339624681,4.4011333623,0.176735894,527.9460787288,-52.7181119488,-7686.4633745442,1048.3299009264,2.0144926974,0.5200483551,-95.1187281916,-7.1060322977,0.3501511165,-0.7848528786,-5156.4014372488,-7.2409393889,49.5979585375,-0.546571184,-0.255249386,-2.6785230046,64.3434635124,6.5528336005,-1569.915717914,1.5118344524,-15.0488114611,-0.520067999,-0.2226430207,-358.4759246277,1.2116736442,348.7483934713,0.0925259281,-164.813946266,55.6403227998,66.4814043096,30.3705979079,1.3552721709,555.342560844,-2.4766128984,552.118593877,1306.5832322985,-5.606812294,-0.6461116662,5286.7785041743,-0.0413762943,-0.4851406739,-53548.3378126366,1028.0937800378,2.0557053627,-0.2035182456,214.2282320718,-0.221331791,227.1423350902,-0.0177693898,-0.3564478251,-22.1409834404,1192.9518976391,-0.4385882171,0.8111732993,0.8590327764,-0.4600208181,0.0644978797,23.7268659028,0.5874083525,0.9519982026,0.9223657643,-1794.6820891927,-0.782097808,0.327862343,-0.5123718295,5739.9516051857,-21187.3529548841,-64.4843737738,-5774.6222305401,-0.5185889301,-0.091217775,-631.2237168322,1.3227135972,-5.8914066896,0.4242301395,2335.8744416946,0.2631068839,-444.4512344194,0.1144884905,1.8585759114,-617.0579509677,-6.3965161954,-0.5581126937,-1.3238959072,-0.1639430483,0.6463996588,0.8425199566,-3.6587024584,-0.7772778544,-4544.9805243709,-0.5791364767,0.5594952174,0.6563977252,-0.3176091405,-30090.2190260801,-0.8983964842,-894.9634576444,-2.0478787799,-781.8563594661,-0.8370126295,-0.664684886,1.0092959205,1.9325380952,-14898.6380433514,-93.9563472932,-3664.8123698365,0.2193521943,31100.3528168217,-0.2280930221,0.3511775938,-0.3024292733,8.3965505816,-0.5491294665,-0.140368754,-0.8396957937,0.9692986058,-1.1616279125,-3.0556983433,-0.3905461645,-1.8904658716,-0.5474948457,15585.904110841,-1.2263423785,-0.3789892821,-1.7433262017,-0.9511571344,1.6217552924,-0.145254305,-0.1826425381,-1.7336627332,2.6441849279,36.7957824687,-20036.2143731399,-661.1127782994,-141.3803351516,-0.7467526357,0.4648695389,0.1071339329,0.2861878693,0.8269682788,193.3839078708,-0.8702648607,74.2050836514,131.7081642291,2.891335485,-0.4666235005,-22811.2448228564,-1570.8030928371,1.3300317712,0.9346395633,0.5132960619,-5030.7368447157,-0.0610769738,-0.5232590805,-0.9422058413,-0.075207249,1.0980563139,6655.8130744906,1.1999110567,-1320.4026436097,0.3794016945,-0.5450239206,-0.0642048273,9.9382885968,1.9169743324,-11638.5119756748,22815.6087677588,0.7008602664,-13657.7898591855,-3.9808423472,-44.3208835649,-0.4881762874,29.5268525823,-1.0439082116,1.1642381552,-57929.1586774771,-350.3998819112,0.7424414759,-2473.2460788337,-0.7319266862,-0.109491299,-429.5891801679,-0.1442816319,0.582490544,1.4024986279,-7032.8087180664,132.7950630292,-0.2526819007,34.9241833677,-13161.8698472388,704.5031625081,2.1703331918,0.3661854905,34.0996532932,-0.7582304229,-0.8031353284,826.2915320326,24.6086890864,-0.0773303977,57.1568503463,0.0309790764,0.2681779943,264.5688338345,1.4808203224,-131.3532751358,1704.1380677033,0.7280494725,0.0967097442,113.771923357,-0.608040732,1.0371749137,3.48710119,10.393918979,7.1456431469,-0.0600022815,0.9472452094,-0.3832478318,-6058.1528400094,299.8434411287,-159.4909319821,8.0387975964,-0.259222437,-0.1939736726,0.111961553,-660.1907169599,2256.7255125853,8.8078086605,145.6074970268,30.971125609,-0.2522151606,-36117.8170766178,3.2932439343,-23116.9397251966,0.9506286444,-315.5620627212,5691.9388949685,0.7207952705,194.5481407708,3.8405157259,-0.1915903791,3.7239424011,-2935.7999009979,-0.6291081025,2896.9191843072,935.1231782279,-582.6382821139,-29.2185284693,-11506.7606386164,0.2310689025,49.3550723842,0.5913312216,1.0096247855,601.8908341748,-4252.3781928873,0.6069049127,1.1402457168,99.7297908393,1.9142195105,338.5666153765,114.2166192209,3.0492005238,1.1002590998,0.6340684369,-0.5793158629,7.8825194183,0.4550579073,-209.6752919283,-4386.6190495539,0.6025302036,-5.5355608029,42.6851196878,0.1606397251,-1.100691124,-1.1611608621,162.3305873337,0.0487024004,0.757078675,744.1898499261,-3.5919809726,0.7964016382,1166.8756370927,-0.4895100687,47401.1898178966,-29.0362274327,0.3007892504,-4378.8622483829,-0.221025315,-5790.5304042655,-0.9906071951,0.189463243,332.825296796,-34138.4644232384,1.4250107669,-0.8185157937,-1003.6431650634,0.4017002376,-513.2222802285,-82.3275873247,-4.5347145887,-0.4802397277,303.740808908,-2.2458877647,0.2483424998,2.4929204576,4.4158050495,-3116.5310924668,2609.1812013712,-26338.4206420977,-0.9363442047,-3226.3527340736,-0.6026996914,0.6464855658,-1.0963288807,23.6627064638,-17776.6881374848,0.7233841333,-1.1038361859,1.4991869869,1.5766183112,0.9682801553,0.6714508306,1931.0116777043,-0.5545877506,-2.9168916564,-1.3028631735,-10.2598998842,-2771.8284341287,-0.03600709,-26155.5268872878,-0.3082948339,3.9380962503,-14365.7235002651,16.2182441863,-22361.1326713489,1500.917073182,2.0138087752,-5133.1297825723,-371.4731994169,0.514564051,-2.194371929,0.3055302228,4.0755779143,3.3056220408,0.6424252681,30.2089748666,-20714.8523797965,-0.6837174543,0.8667832629,-0.6370454408,-33.7068054147,-61.0464096448,178.6585972652,0.9836180211,0.4717412717,-95.9990879043,0.096455536,-11974.9604956513,-0.2351056354,-14.1442477923,0.9577974187,42.9821099182,-2751.4432977655,-197.457752475,0.6208952488,0.5788759196,4149.3605944644,1536.3953740211,0.5471998866,-96.3424635549,9.4946073527,-1774.6168139714,-6.8659938388,-0.9416003675,-0.006382889,121.7275441552,57.2315208005,21.6135589525,-213.4874986645,-3961.8705524709,-0.6274989108,-790.1782451381,6583.986240997,-11362.1542836411,-7064.633098284,9.7792121766,-0.345213468,-329.3792745673,0.0357004588,2.2331490716,0.6478435682,108.4746318893,-0.0410878811,0.1600321357,3.0666756092,0.0981256235,-20.450473344,-0.9108906999,3.3716588297,6358.6936880613,0.9724504007,30.3463728965,2421.6764355944,-14118.2485532181,-0.1490139667,-9422.9663613476,221.0898245674,5.1182199856,398.6050577421,-1.5156107039,-0.7573729037,20627.7836159104,4055.7402251907,-0.6908000805,1.3976905227,100.0545628854,2.2062107007,10.3212375728,-0.2915717412,0.203975415,362.2899162545,1140.44589163,1122.2333250228,-269.2072656911,0.0688344934,-0.0243180892,148.6986181876,2.5126801772,-7775.9311166015,8.3134567915,-128.513041486,-22991.4021882349,-5.0471358902,-2007.5855998761,-0.7763675997,-210.6970000952,236.2107333954,-4369.0805269108,5.2036914289,152.2172757069,-58277.1254982724,397.7634321641,-0.4711483553,0.1860707186,-11485.1633668611,0.0630742164,-0.8648346805,-11646.9966508973,-1.0899451986,-0.2188055415,-8.805975585,-133.8845818723,1464.4447619098,-0.4539566452,21.7813548166,-3759.8026290987,0.8429858189,-1.1216175888,0.1212562188,-0.91211831,-1.0349289831,-44685.4948035892,147.9340178617,-1.047491571,32.9688497849,-0.5384818475,-1.1490251246,0.2799739376,0.9325024219,-4510.4860342025,-0.1601249035,0.5218653464,4736.9652269936,-187.2342274223,0.7654089107,0.4408057119,-0.2156455928,-574.4224737568,-0.5905109569,46.6664355146,-6.3585064144,0.3245433594,2341.6202006976,-0.3190230047,-4380.1153518581,-442.7584759681,-0.0448967557,-0.7037851703,-3.1394174508,-0.1900551223,12730.4665431281,1.0044486834,-8.1691020127,-17550.1160229416,-13575.5559465213,-0.6160490239,-0.6294003994,-14826.8013562003,-0.757351056,2.7118041082,-10157.1415776208,47.2816837573,-0.7251477073,-0.3994127043,2.6959894362,0.241057502,11.0147060501,-442.191170479,-808.3941270896,0.5913779222,333.5991688911,-0.1885344553,-108.3257268431,0.2634710098,-0.4374932741,0.5541399304,-0.5965448763,-0.6439090307,-0.4923967392,0.6430065414,-0.1067162205,19884.2879846,-274.34623654,2.5117914667,8.3430123806,0.7965443917,-61.7570423383,-0.0150367847,174.8260765941,5375.4581974287,0.0920940672,669.8168922496,436.3959339625,-0.1224843851,14.2295897697,-44457.2465843507,-1075.6019620625,-54.9875321383,-634.8123653603,-29.7224515435,-0.4460184853,-0.8756455646,-46.59923881,0.5201157294,-0.0842564687,35.7139445352,0.0328644748,-21.192362941,-841.4013922715,4.0854263338,0.4165265152,-5972.7361810596,-0.7869239478,18038.7185181444,19.9077149262,10.6292464643,-695.1762105639,2.392159942,5.0880424921,9.5007199128,2478.2927896436,0.3551811383,4852.6560171344,20.8359060054,53.6167435933,-7680.5724927146,-0.596750099,2.3535250864,-27350.8594412916,16.6988816184,10.4584989425,188.7654283203,0.7672205457,-0.9060782236,-391.2372649068,-6.2711995416,8.9900657483,0.5519610246,34.8104401708,-0.1972769228,1.2465579616,-1.8625201124,-0.2734009369,609.1466126944,51.8738203096,140.4660073305,-107.7111699331,-0.2061461383,0.4093044384,9317.0012796653,0.012177173,-0.4377573606,3.192558006,-38.7335935894,-17761.3518120581,-1696.5492108088,3.3589064246,305.5540909705,1.6802827981,0.2872569264,277.1922905103,-2615.7255576922,-173.6396688802,0.0856633325,39.9917940383,-29362.1790945488,14.131494048,2152.5653979719,-0.9810746234,-161.8955711973,3.5920477647,282.2907836246,730.0146300428,1439.166168166,-1.7239923994,19.1439826536,-0.2914762515,299.3119415027,2.9307550519,2.5188210519,-0.4972756529,1.0245662942,-0.6908695141,0.2476877527,-116.2271583094,-2.1911979848,0.1901653595,-0.3472376335,-0.1874687038,8.4460515562,-1517.4013743152,0.2371203537,66.5243052608,-30087.4162682052,5707.3719817775,105.2523642908,-42211.9820433484,-10710.1025752732,-0.3798331832,975.6023444649,0.698676315,-16.055331885,-1.147863565,0.0088991717,0.6502976319,11.7532716273,-6616.1803787745,0.3977216327,-0.5674374329,-1270.3883679519,-0.6757705257,0.3289142425,-4642.7654214811,0.6347658908,-34857.0976292824,-6622.4888383286,-121.4590872767,6.2489550131,-0.3866083866,-0.783737705,1.0106537738,-25.622018324,-18.3335587657,-2.1987801442,-0.6662415556,-7.0742191343,-0.7595691249,-0.1835607958,-1.244183392,-1.0650338468,-30.8884983815,-1160.9416597245,-3.3158352477
   -0.0710931527,103.3198097603,-700.1824670265,7.9150859776,0.7018724472,-4191.4738736564,35981.1607218939,-1.5901649921,1.9709597023,2.0369656272,-0.3718963103,1.7194755266,-44390.9291817841,-95.5880922879,461.3952337974,-350.0228436741,-0.56341435,1.0916088419,-0.5940414082,-1611.3689665933,0.1162694032,-34530.8581074307,20.3683879891,0.2817391752,-1.5281053626,-60.7775270102,-0.2351594159,-0.8040070263,0.075537549,6.2889287061,5121.4207214957,-0.1555282602,7.7465609223,-1.0310000886,-39.287188457,2.3407141888,-0.0140379389,-605.9158463758,-4.7099582688,-2.0077152262,0.8230428238,-19661.7688972049,-0.5215416143,-0.2367270105,-11307.9941911939,-808.219930492,0.3876681491,0.3223061689,-0.9382851743,-0.3923801963,-1048.5119225889,-22.406007546,4.0562877487,-3414.6344120766,-0.4282741652,-1.1011447926,-1.3371995917,-646.2818391802,5.2639879121,-5376.2906212939,-175.2216523291,34.1342225945,0.4919690093,-3.8802904097,-3.5461604781,276.7741785851,-12.5295954579,-3387.2552285416,-6245.323959905,4110.6527286042,-992.1506564218,-1.2739005698,0.1357900441,0.2426072084,-5.8818655842,-0.1437591295,-0.1523306189,0.3684155749,10270.8897097632,0.5167154483,-129.4461715755,-0.3686634814,-14373.5591331574,-92.7109916087,-1197.7107435083,-146.060914666,-0.5861709041,-1.0652487232,-9.1279926809,-6.5499233537,-0.2502671191,-20.8365575201,-114.4244408086,-394.7528154571,-1.3254188454,-0.3345431833,0.5557242197,0.5521545845,-865.5992951004,8087.5602514428,-0.2670572994,-26.8847603634,1.1146847177,-12040.5952129145,0.4392771306,-342.2848818801,-0.8472388124,-17414.3572086082,-5.4747228702,-14649.7975640458,-5.6689708703,-0.0720489591,-12522.9272943248,-15779.4928122866,-11.5328053309,-143.4374403616,-1.6798283135,0.7807611143,-0.2553751643,-0.5795983492,-12734.322080441,0.1221640714,5134.1756509817,3.1266711199,206.6185514658,-1.0663408097,0.1003792265,353.6854279431,0.1013569023,-20.3741143008,37.7344384571,33.8373663876,0.374505389,-1634.7318693989,-1.0543115753,-0.3733725783,-0.7133837556,-0.0696230338,-10.330258939,-25399.9633872197,-0.5652836285,-0.9242444982,-396.8750596742,-0.2515805466,-5.9363792673,-0.4397012351,-17683.937718061,0.5407298399,0.3913792565,-97.8067398765,0.5969805389,0.2902450197,-43.4130631699,-1949.8813049928,0.3685761223,-0.8421914671,-2.817572164,34.2369344249,-0.1619667524,8954.0110934869,-1.0265635108,-31.8571856946,-47.3125855579,21877.2959238202,-343.1882622778,-64.808545258,-19836.3413135535,-1.4763349114,-71.4912001961,-3.3013952748,-9.4788709955,-0.2684069257,-1.0314939146,0.6505579858,-1761.9160817096,-9814.5620904532,-0.3500825355,-11288.8042307405,-46677.7883317359,-5.1385655688,-0.5665448808,0.0189912423,1.6125993712,5.0219428565,0.0127892878,-0.0093583145,5.1799442697,-34.7287476309,0.8501333355,1.1764236002,3.4230650786,-3381.6394655232,-0.5607840303,-7496.8635230877,-2927.0666250547,0.5421768666,0.2249930905,1.1626361014,-0.7348192608,2.2339476007,0.3531834885,0.9299334145,-0.7060360652,-0.3157685578,5.4966858585,0.6396916511,-0.5727070287,7.6057531407,41.1290666969,0.6123721665,0.1335490693,-1426.3346514665,-0.2448135437,-1.246658342,-344.6444264178,-15.8725072993,532.5666132118,-212.2526229393,0.7413601748,-1.4588189851,-0.01662067,0.3657918863,-0.5617078146,-0.6213988417,91.290907295,0.2318314158,0.3586908638,0.5651021305,21078.3210496255,-0.2377077729,-24207.4314067827,0.1874520128,-17870.2922090919,-0.7367166911,25.4394450233,0.6356180898,-0.3054422373,-1332.9500253282,0.640560277,199.5841622754,-0.5926744347,1.1566511295,-0.0922600927,-63.9512640921,-0.3529664442,-0.9229297337,0.1128862718,-7027.5876372384,-0.3740639905,0.0386767904,-0.7940018107,-0.3388118028,-8.521622563,0.4836385097,-0.3555600992,7379.8185563547,-0.3223454362,0.1517578765,-1.3717119928,-0.4317066087,-2.0690959229,-0.490241745,-4701.5355613227,1.1908005247,0.2371772886,-1415.7926354516,3.0836459581,21.6709613291,0.0248077781,51.4688453807,-1.3425420307,-1217.2337907991,-1.1873618248,5.8878711809,-0.7536301787,-0.2244082959,0.441200673,0.9295208224,4033.8617265607,-595.5139889434,125.3578224376,-0.3603737991,4559.7792342341,-0.7466708202,11108.3596338686,84.9069260593,5.9577008918,-2.3939893803,-3.0136874842,-2.8962659138,-1.3762825682,-39430.073171982,-0.9398723085,0.5293409056,0.0674455087,-0.3997295885,0.1610866504,-0.2869080478,-0.8262497096,-21635.8244479587,-0.8403134467,-6508.8052882385,-26837.6500178206,14.5554680031,-22629.4350585745,25.0427302945,-0.6102191868,644.5173035798,-0.7589944004,-4301.7465308634,-0.6056566696,511.3992348945,0.3136552431,2.1988501744,7.6959347119,2.350281274,-62.3417465593,-335.5883093254,503.4028823476,-0.6358745058,-3.9957284685,-0.2229294639,0.2568272842,-10.849927336,-0.1608097388,2.5005188009,-170.0303754106,-0.189316727,-1.0152208379,-3.0635597263,-0.2973216188,0.5728008278,-160.4422162657,-26.0233549235,96.3109687846,0.3739615858,13.3189248327,-0.6804277615,-8655.6406155382,-7960.3131515183,6.8611057566,0.0822356993,1.9833047228,71.5283651876,-7.7384167518,0.6913682755,0.7626809493,0.2278413249,-25686.915976921,3.3432141204,-0.3266568077,-0.0657065192,-0.2185815726,1.2347493046,837.5125196251,3.5406676385,1.299169511,-0.4638042848,505.3467597729,0.0806660478,5.7028700841,-8.2934424464,230.58089574,-20797.4780174348,-373.1646394067,-0.6376494969,10614.4551652064,-241.0887091969,-7.953522435,0.7422522383,-8995.1219683011,7111.7758519455,78.8444004118,-0.2947013214,857.5444654011,0.3830873689,4.1139731021,-3.5448128441,-2.1760682613,-0.4038417346,5927.8611498945,-0.5511682182,-2.2902222152,-1.8200919141,-9975.4804643428,-1910.0867777558,-6.5039835125,0.0144134173,-383.4712347297,0.2440251118,-1.4251376672,-0.6060880331,-0.0558144172,0.1865892549,-2.1796377593,-3054.380047738,102.0237047783,-18.4402879928,-0.7585756977,-0.6169917117,-27808.1477282173,-0.266921042,1084.6965134717,-0.1769559758,-5.1759209593,-1566.7865226912,-2986.8567267382,-19.3398383599,-487.2812504359,1284.5330751798,-60.9973680274,-0.7371415404,-407.0035716814,-28.2803773782,-1.7277944303,-99.0907972275,6.0219891981,41446.2114829886,-292.4750473346,0.7822843976,-1.2070837029,135.5505775461,-15.9452715427,5451.1527598841,-1.7127659799,0.5170562694,-17689.1365556768,-67.7746314672,0.0429773119,-4.3533226728,873.5565714899,-2.4103695715,-13.9161289295,-902.9167259467,-100.4340983247,1.3913110342,-14372.625563011,-0.4045690223,-26.9326665436,-12419.605260592,-9.3314872813,-19.6338227768,-1.0192712931,-14.5999104435,-28333.3957484242,-6635.8034275037,-0.4564832119,-0.4634635789,-0.9689204499,-21386.9030476012,2.385638245,-2.0435378748,-1.1810696134,0.1376721017,-1.8316487952,-14.9143772121,-709.114316996,-308.9939693766,-0.4388523011,2.0250777703,-0.1219021042,-0.7170544981,-8265.5741029192,0.6054545076,2467.3984433492,-7799.0761980809,-0.4980775436,-292.7169654497,-0.4960911187,-23.5836801354,0.1635866661,4663.9038791129,-119.6703203537,-269.6840641451,-1.7374914198,0.5836157215,-2.5691259165,-2.3258002223,-67.96265074,-0.1813558836,-0.5035201806,-281.4843034473,-0.3422632667,-0.392989775,3095.0396254746,-21.2421437778,-0.0855716855,-1.8669379536,-71582.2080630248,325.6987695686,800.0824229882,-0.3913474157,0.4951466403,-0.3436031873,-14.243304492,-1.2615542088,-28.1613936352,21227.6273024127,-6197.3965669955,0.2076854277,-0.8225801984,-21547.3394609085,-17.6454515284,-92.4504086531,-0.7492394796,0.2391197106,-4.125876877,17892.1573501681,0.3089817843,0.0394296707,-0.4343493017,0.6932877906,0.420288799,0.84835827,357.4277871045,-0.3005753036,-1.0144954114,-7.5438280199,-240.2672734308,-42.0505397181,-0.9852036773,-0.0189820573,0.8382693484,-0.285753492,-161.2802295052,0.3537048277,-19420.0987237488,-4002.7001406776,-0.1146897215,-1.6123649539,-16.1423350269,-247.4390809196,-0.3120748735,-6.8004241568,-0.9548243908,-60.7998596089,-0.7193317363,-11.871896559,-1.2209935322,-0.7867180566,0.616139069,-0.4583688046,-331.5797743598,-23889.0795025296,0.121546547,-0.6008849854,-0.5902889477,-0.6187985777,0.007054671,-0.5729654672,6.6374472244,-5.2998300494,-0.6264221218,0.6960392976,0.2111438782,-0.1923109027,972.9576542075,-0.8462159081,-781.5853356882,-0.1249215683,162.7479627314,-0.3938547022,2.030220552,2257.0133073202,-41.3562814781,-353.5163880601,5.7479463287,-40.3336794309,-0.6779397199,-3.1560437991,250.4564590355,-397.3008074573,421.5118105843,1395.0587160687,-0.9167090562,-92.67174107,12.8335309566,-0.166767996,0.6724266293,-0.2235978638,0.9278165531,0.7951478101,-0.0650911621,-0.0608247607,0.8860317858,-0.2326985666,-0.6988552058,2.8511311899,0.9627393172,0.4468038088,-0.5500076793,0.6218025788,-0.0776445373,-0.6538682941,0.3547322374,0.7347988075,0.0463441222,0.6370469835,-0.3289645721,0.803949509,0.6937060965,0.0412229978,-2.8041722985,-0.0158795839,1.0467204842,0.7982716379,-0.3487305215,-0.3495764529,0.7998977417,0.7062019959,1.3294054366,22.7385718681,1.0120914197,-0.6140567304,-0.3215479419,0.8698325003,0.7001662914,-0.7820083337,0.9854890215,-0.7957494163,0.157671931,1.3849852773,0.2028156982,0.3923716721,0.2199126803,0.3018879992,-0.9678924604,0.2056937718,0.0998095947,0.3339610982,1.04289735,0.0318180893,2.1585047476,0.7164260606,0.8631043337,0.5421280772,-0.332773076,0.3508353369,0.4524294162,0.8616620066,0.2703367985,-0.4854308204,6.3333684942,0.5612608006,-0.410640143,0.2002370497,0.0094234316,-0.7321967465,-0.3928699595,0.1473680399,1.498871733,0.7706499046,5.7608399184,4.5752395395,0.1969486168,0.1576766487,0.4351796325,0.3727091202,-0.6269984653,0.076857344,0.0503857189,6.9160502873,1.1042385848,0.7806778252,-0.5376467893,-0.3843411482,0.351441838,0.5042351522,-0.1984135019,-0.9293867481,0.1441682345,-0.4675425151,0.658418406,-0.0781943773,-0.5903046271,-0.5286348016,-0.7271877337,-0.6024607837,-0.8771139823,0.3666772084,-1.7226632583,1.2886771714,0.5392297531,-0.4863271268,-0.3709269501,0.7117215997,-1.0356050956,0.2130648997,0.3934467957,0.4456365996,0.4833384946,0.8970409027,0.966221292,-0.9490973071,0.4990417917,-0.7237919448,-0.3968399021,0.3439845071,-0.9002203835,-1.0986762114,-0.1631726261,-0.725634771,0.2776568476,-0.2441698503,0.7866165736,-0.0985613465,0.7729957174,-0.906567896,0.8091073864,-0.4201002822,-0.8420660233,0.5802972066,0.1959527623,0.1641320284,-0.7093626235,0.2095576331,0.8639249357,0.3988517134,0.3624841172,-0.0076511751,0.325139657,-0.6872507384,0.2296289072,0.1445396092,-0.6669040865,0.8551996727,0.1305580971,-0.6521119579,0.5571620283,-0.6062779218,0.5827580338,-0.6936129437,-0.8206073847,0.8327859924,-0.6693791579,0.0565956227,1.6184716115,0.1006016604,1.0131811966,3.4349974084,-3.4089087697,-0.99298369,0.7192278879,-0.0656713931,-0.2956115907,-0.2507460351,-0.4966774705,0.6494820175,-0.4724186626,0.1968911245,-0.7873796959,-1.5052878387,-0.6414247286,-0.6987352236,-0.803308447,0.7496711687,2.1522985847,0.2757934837,-0.0270748826,0.773513171,0.8106089171,-11.3926501252,-0.2562345239,-0.8772157696,-0.7285022494,-0.6343891986,-0.2412942963,-0.5422522621,0.9150660854,-0.00417946,1.1345473893,-0.5071078867,0.8514700407,0.0474342939,0.107238526,0.1683043079,2.4803156632,-0.8210929409,-0.6814121968,-0.9392714679,1.3735694261,-1.5260691109,0.170881933,-0.2657442594,-0.5397866797,0.6230101577,0.442958155,-14.592831606,-0.4017435372,1.265422562,-0.6363897971,-0.675662036,-0.1330013274,-0.6404208125,-0.9555946135,0.0901497974,0.970282657,0.2205573775,0.0659782092,0.2590743165,7.5504970451,-4.6857011575,-0.7847802253,0.4281236476,0.1691022349,-0.0905699023,-0.8993332971,0.3226922851,-3.3508078238,-0.1527044897,0.5259236701,-0.7110238531,-2.4364134469,-0.6203237121,0.2144169138,-1.0197754657,-0.9006626607,-0.0654166143,-0.4142951084,-0.8425459282,-4.9520540654,0.1775883548,-0.6709404632,0.292945717,-0.2527284929,-0.9201313023,0.6480834143,-0.8064184065,-0.5635675084,1.1549975173,0.6863602373,-0.8194295799,-0.966324358,-0.1081357228,-1.0580202377,-0.8332276337,0.4154409592,-0.8761247253,-0.5345156176,-0.5821436926,0.2230757443,-0.018030359,-0.3820536687,0.1875931319,0.4729436917,-0.8615646701,0.2682087032,-0.7422275948,0.5546099063,0.6871842497,0.6207662588,-0.2908007334,-1.0468022388,0.3007590597,-0.6152712546,0.2729654962,1.0431781483,0.2813053187,-0.3640124922,0.7358463109,0.4946328472,-0.4881182386,0.1869512786,-0.6274537974,0.0384023045,0.7104058666,0.6801476176,-0.6846471432,-0.681954538,0.381694845,-0.4508322735,-0.2155145117,-0.3607543185,0.6649526422,0.1796490533,-1.0219424315,-0.0756920249,0.0974231296,0.6682365814,-0.8500188316,0.1159899685,-1.1401394385,-0.5576116014,0.4739409998,-0.8065229179,-0.2234662487,-0.9968744951,0.8327779246,-0.180830225,-0.8613737046,0.847576826,-0.0986596275,-0.2409985391,0.6109772896,0.1405755884,-0.8063867653,-0.7349987136,-0.2519161066,0.1242099431,0.5304945154,-2.0464370942,0.4542684384,0.2090500828,0.6202350134,1.610115852,-0.3726213828,-0.2352345892,0.6356783194,-0.1354400631,0.7697150292,-8.4351557282,-3.7665890085,-0.0095161054,0.7258672262,-0.9760245616,0.4629430806,-0.5116381971,-0.3347541794,0.8872130904,-0.4581145321,-5.4689325415,-0.6672731349,1.3294560832,0.2916631934,-6.7817001415,0.252108238,-0.5007423133,0.0893591845,1.0868593791,-0.7420897211,1.0264953924,-2.712962679,0.5024143427,0.0911104163,0.581935022,-0.57643676,-0.2811671052,0.318053667,0.5896368708,-0.3394565009,-10.6248583028,-5.7079182189,0.3354117779,0.657280601,-0.7124002523,0.6712595406,0.6448138074,0.2656510615,-0.2232052343,-0.724348676,19.1539845468,0.3245008873,-0.0092885723,0.6954993253,-0.6026475272,-0.2883827432,0.5567052816,-0.3319178427,-0.0702135643,0.2632686683,0.124088744,-0.5182259394,0.2670485953,-0.0277156693,-1.5860119725,-0.310723994,0.3106299519,0.6494121512,-0.8032094154,0.9850683792,0.9732922895,-0.1099714827,0.1480027368,0.1253606808,-0.5508077668,-0.6724502484,-1.0411796963,0.5377178311,0.3074001301,-0.7233001495,0.4060842568,-0.0894895856,0.7254769828,-0.630163322,-1.1389745594,-0.1481128648,0.5497990583,-0.4684323164,-0.867097147,-0.9748583461,-0.2162307609,0.7943145815,-0.2269508455,0.6549838507,-0.1144821582,0.8610082945,-1.1426897821,0.057291324,-0.1619492127,-1.1288221869,-0.8575452746,-0.7413155456,-0.1667850435,1.1223064814,-0.2350069764,-0.8801402315,0.60909403,0.2117369857,-0.7255318036,0.8236728274,0.0245544228,1.0403389069,-0.9298037947,-0.3133036689,0.5184212854,-0.2620747257,0.8955206489,0.4834360938,-0.629873495,0.5794747866,0.9002289613,-0.5751873548,0.1058249862,0.390180349,0.714733009,-0.1323839226,-0.7373563266,-0.4004291322,4.3896559484,0.8588996892,4.9402950641,1.868251801,-0.9422182672,1.0859632265,3.6618444505,1.0039934548,-0.6747725233,-0.0838240836,0.3342684271,0.3269803058,0.8091978987,0.6351187006,-0.248712996,-0.9256727822,-0.7794305112,-1.1761516056,-0.9608739401,0.7519369658,0.01367667,0.5927312984,0.696135534,0.4236018353,0.0027035607,3.4141791801,0.3009932504,0.7432162962,-0.369308646,0.8071552069,-0.4421863658,0.5348873007,0.2110185803,0.3890815646,0.1752340079,5.8659638589,0.4177847106,-0.6623437368,-0.0834784499,-0.4862683743,0.6774958854,-0.0765804523,-0.8806319964,-0.7141634797,4.4125511473,1.1329029035,1.3083984149,0.3082511168,1.1366518785,-0.402999636,-0.0083089234,0.0331902816,0.1725316679,0.6591786223,-1.8986881485,-3.02826828,0.1443914536,-1.1223301403,-0.6466099751,0.1628001039,0.766991534,-0.9667989035,-0.6697896507,-0.2609191109,1.5166465894,0.4074419467,-0.3690687622,-1.0344078187,-0.2440530068,-0.7741692725,0.1716611231,-0.3494450139,1.0132087399,-0.3294050683,-0.5012554156,-0.7467681633,-0.6465137366,-0.6674169135,0.2683919724,0.304821945,-0.3485563823,0.9330016226,0.8964907493,2.281496045,-0.1061269495,-0.7895678648,0.0620667267,-0.6198544212,0.8450498297,-0.8359046003,-0.6012044072,0.2554473464,-0.7401094084,-0.7091307998,-0.6273625267,-4.7528814556,-0.032547669,0.5753845335,1.1006460305,-0.191570292,0.9239459381,0.3799668263,0.3110567664,2.2528251016,-0.7390646567,-0.6038379025,-0.7738918381,-0.0329686025,0.3769744605,0.3522717419,0.6192257041,-0.9336925548,1.0565393698,-0.7885229102,-0.5451182167,0.0107639553,0.4324288929,-0.4746128612,0.0077261016,0.4283146226,0.6364166646,-0.4710981037,2.7452906646,-0.0896648694,-0.9922782758,1.8923162341,-0.0027426815,-0.0944939249,1.0314242332,0.8830662824,-0.5068426844,0.0067008444,0.5076112789,-0.4761503319,0.232918984,-0.532396943,-0.7794836279,0.651235687,0.9357359354,-1.3071266646,0.5535213935,2.8069421325,0.1552841432,-0.5108587503,-0.7239846598,-0.1673781995,-0.5140252958,-0.6170976504,1.0037415778,-0.1672275918,0.074525937,-0.9974122273,-0.8003062858,0.4634610948,-0.8337991555,-0.6439362328,-0.9775538684,-0.6079118475,0.3526978516,-0.1210715406,1.2468319264,1.4412269884,-0.5165666946,-0.871856555,0.5841378708,-0.6761916789,0.6304862946,-0.4463835297,-0.9340637275,-0.8479847603,0.7463665752,-0.9827311905,-0.5569387432,0.4091803993,0.6478518446,0.2725780322,0.8946804714,-0.1453715814,1.0582121485,-0.5809505668,0.625730602,0.7810279316,-0.4776961022,-0.1517269908,-0.3459018373,-2.1707339111,0.4535960219,0.2096588956,-0.4898812153,0.1791841655,-0.8108931438,0.4270954004,-0.1625065384,0.7965077752,0.2902103892,0.8595459941,-0.6057134159,-0.6798391435,0.1504838614,-0.4901360811,-0.294009493,0.6246557979,0.6898955639,-1.0812696638,-0.688391622,-5.255829911,-1.3820353525,0.5313929216,0.3087662593,-0.4443372665,0.1905525227,-1.1168278364,-0.0458986374,0.955288307,0.7819744333,-0.2475153323,-0.9179005142,-0.9003141111,1.2692543383,0.0512903233,1.0755086649,0.1977684473,-0.8677004497,-0.7083803425,0.5229405815,-1.0042471948,-2.5898727073,0.2388408953,0.1840750402,0.9004646859,-0.520643531,0.654315354,0.771262246,-0.2498794595,-0.7584605759,-1.1906075234,0.1967513361,0.9405673032,1.2801599285,-0.6314087205,1.959614354,0.6857041041,-0.8072690427,0.6204246485,-1.1204454804,-0.9485946949,-4.2981553981,-0.5594778545,-0.0358202118,0.8186345618,0.5703076556,-0.7941433466,0.4756522454,-0.2235993599,-0.3058312584,0.2865302863,-2.5344088979,-0.3063865355,-0.451019758,-0.5978679264,0.8493626526,1.0000525726,-0.3980470741,-1.0056790112,-0.9225979759,0.6641642654,0.0744404296,1.2509733108,0.7971877649,-0.3190126101,0.2430972491,-0.5194219217,-1.0316103776,0.4592301706,0.524707324,-0.7181863936,0.5099295052,0.581800757,-3.8747217388,-0.0827675127,2.0276293391,-0.0860316225,-0.4308091318,-0.1109107826,-1.284132536,-0.7668068334,-0.7517977934,0.5608107385,0.9701198378,-0.7956206838,-0.1439939332,0.2059593312,0.5735675886,0.8954222689,-0.8048667192,-3.2404308911,-8.1381353455,-1.9004351786,-6.3930003283,0.4008850036,0.6315011506,-0.1695343616,-0.6132996516,-0.1125840496,0.4014680175,0.1295524199,0.015903098,1.3181988312,0.7918346117,-0.2031829907,-0.0835187438,-1.116208523,0.3289638942,0.3946974713,-1.404931628,-7.9997993339,-5.3357627508,-4.9180867248,1.0847786677,3.1977485993,-3.4884567461,5.3157532883,-7.6001940502,2.7488683556,-1.3799898128,0.1865618932,0.8427511008,1.0020437793,0.7274679219,-0.6549653893,-0.6503134899,-0.2574139324,-0.7830603005,-0.1743158318,-0.9935968269,-0.2024916278,0.6851911653,0.8037615264,0.7735893114,0.1580696218,0.378853764,0.2491895007,0.0550138713,-0.4078652217,-0.5611621925,-0.6240674654,1.1631643845,-0.20878705,-0.8094037912,-0.022049603,-0.7538266143,-0.2510536722,-0.2785254486,-0.4229546439,-0.8146105852,-1.0160407011,-1.229556776,0.4737660265,-0.2757602744,0.2395107637,-0.8610379454,-0.6649760695,0.8119791238,0.6731413402,-0.4168011078,-0.5549481124,-0.2746841789,-0.5134502277,-1.8811421586,0.0282081976,0.1027421885,-0.337561973,0.1134925919,0.6017284149,0.7294552612,0.0151578219,-0.831290231,0.235662348,-0.559355861,0.1231474004,-0.4128767242,0.5447801476,2.1300329083,-0.3520641257,8.8278948758,0.3928235889,5.6000474426,5.4129023668,-1.2294117246,0.1165205642,0.5989412723,-0.4367665264,-0.4977200206,0.4630174224,0.8012012548,0.4757760608,-0.5897385983,-0.7221966641,-1.0754881881,-0.5627588436,0.5727171679,-0.4374942613,0.2614751555,-0.6590739003,-1.7489766327,16.9005177896,8.4703407365,-3.9506805765,0.5496683535,0.5393931313,0.1856475322,0.5819676841,-1.1543430432,-0.9299821702,0.6446230458,-0.0274413829,-0.9078074147,-3.6998615225,-0.6405496773,-0.873889392,-0.8698126579,-1.399342152,-0.9243740227,0.1050694506,0.2737029347,-0.7894593911,-3.8483189189,-0.7828770447,0.2626845833,-1.0213005735,-0.1836150787,-0.3360187848,-0.8842232528,0.2520111586,-0.9255892879,0.2598714347,0.5819387061,-1.7902997936,-0.8842102087,-0.0896113058,-0.8809678285,-0.1816944189,0.4343559057,-1.2234882179,0.2554602174,-37.2298098644,-0.9425958931,-1.0202869242,-0.6761172422,0.454395031,0.0257250377,-0.15627686,-0.0095102427,-0.8493490581,-0.042411863,-0.1164989839,-0.3555183604,-0.7290203459,0.2290440588,0.1596425033,-1.1334596383,-0.4694092397,-0.7116508356,-0.2151338053,-1.7591454343,3.2425432724,-0.4899145981,0.1988482469,-0.0547355411,-0.5566501373,-0.0694243894,0.0573680901,-1.0951879632,-0.1277205127,0.7865813629,-0.3270122094,0.5042114763,-0.5270236887,0.2080595612,-0.9896368352,-0.4905830653,-0.873597706,-2.3669705359,-1.8063394956,-0.6067540284,-0.5935022592,-0.8515417943,0.5358249452,-0.1287903393,-0.5846932674,-0.6660383849,0.7269047636,-1.2294135595,-0.4799709903,-0.853202215,-0.2488375511,-0.0678228995,0.4581504633,-0.8889562906,1.5485998438,0.2873056514,-1.6381366849,-1.9954364959,-1.0721575005,-0.5914901807,-0.177331124,-0.4036112074,-0.3599686665,-0.7777098034,-0.2340556978,-0.2760640168,0.6358361461,0.7073839204,0.4454668188,0.4009476171,-0.8232807935,-0.6488870928,-0.2483677763,-0.2250967109,-0.0270622356,-0.7794562648,-0.4225266322,0.3024141943,0.0196276391,-0.3191561954,0.1771709166,-0.3092610812,1.0286020606,-0.6051266266,-0.8220992139,0.1355485269,-0.0076180253,0.7118896108,-0.516488949,0.1178726481,-0.7564900035,-0.452372715,-0.0423722808,0.3912859908,0.5720524544,-1.0370839772,1.3127129277,0.2357496284,-0.4830881016,-0.2155701323,-1.0678317324,0.944295504,-0.1286042375,-0.2268908271,-0.5309666877,-0.0295623269,0.1408273491,0.3662182398,0.3697486458,-0.6637687561,0.4731797478,-1.0804541435,-10.6891859266,-1.0298816386,-0.4391760049,-0.3487161936,0.7390714751,8.6408597739,0.5901439061,1.4643383402,4.1394341625,0.9894701958,-0.4503968454,0.6499182506,-0.7329550834,-0.505955694,0.2492783877,-1.1947581475,-0.1487441203,-0.9883345655,0.5546685429,-3.4827739079,-3.3255442995,-1.9384948003,-1.1604827427,-0.6158978429,-1.2739651523,-0.7584030877,0.0074817214,0.3819806219,33.0093999068,2.7626205874,0.2167268048,0.7657239501,0.4020843104,-0.855182188,0.4214688169,0.3276259302,-0.2848117096,-0.9723509607,-0.0267301508,-2.4313864377,-0.0358057756,-0.9473768973,1.2619224365,-0.1723269747,-2.7396703181,-11.7136616179,20.3630280361,0.9783921357,0.1597952562,-0.6363989712,0.3913003419,-0.2606912879,-0.7372850555,-0.5493941476,-0.1228725236,0.0423678064,0.6995161951,-0.2738712618,-0.9680121125,-1.7942571884,-0.2168348294,0.7708087144,1.0445555808,0.1208700964,-2.168109427,0.9909329261,-0.799521766,0.8898728048,-0.6133168472,-0.1517243091,-0.669929286,-0.7894754738,-0.5686515393,-0.1534711611,-0.8879860044,-0.4091318302,-0.2799840513,-0.9871250722,-0.2114882364,-1.4639486894,3.8348677855,-0.1842809274,-0.1132471055,-1.2710277846,-3.631720101,1.4580327557,-0.7619773978,0.0527957783,0.3529555027,1.0555122905,-0.644824775,-0.3626752657,0.2388957471,-0.4086930328,0.671794763,-1.0053067168,0.062881856,0.2809138967,-0.0334235568,-0.2435884243,0.65325047,-0.9731042256,-0.4060199791,-0.0245803308,-3.1991481047,-3.0304879959,0.5832876758,-0.8258880603,4.9424415094,2.0884984519,0.4994625963,0.7173626889,-0.7612615534,0.2413579687,0.3463077684,0.5010485755,-0.1800886767,-0.6025671921,-0.2350479051,-0.5840831949,0.4869281369,-1.1527268778,-0.735435225,-0.2810657451,-0.3261896863,-0.9380249583,-1.3309823377,0.0490233999,3.2359867806,1.8590963881,0.8043424661,-0.629766276,0.38499577,-0.1170020819,0.3326421005,0.6545931702,-0.3901837141,2.2016393111,-0.7021158553,-2.6557306522,-0.9774557,0.5494279984,0.1706390547,-0.61373525,3.5835176703,-2.4459876576,0.0725836418,0.8195232667,0.2928057371,14.5425915003,2.148919147,0.0671566986,0.6378771186,-0.2492072748,-0.9270229871,0.1063088129,0.7367299191,3.7345356229,-0.9040502144,-0.5863707247,0.1228141238,0.5387031436,0.5587874755,0.6148648399,-0.1888293954,-1.0447870023,-0.2953117118,-1.1946242612,0.3383316173,-0.5616562095,2.7526475707,15.2068076524,0.1898365859,0.6004187203,-0.3164311035,-0.2572219465,-0.7229310166,-0.6555558638,-2.0881895492,-3.2101264698,-0.121823261,0.2558975904,-1.2532654283,-0.0774443524,-4.4139132668,-2.538088299,0.4650225598,-0.2738664596,-1.0163525795,-1.4721915149,0.1836613377,0.7059782275,-0.5508264009,-0.2314547593,0.6801541792,-0.6185414029,0.5807006531,0.5602575158,-0.2478525765,-0.2733943453,0.1194150596,-0.4598670873,0.6723284433,-0.0617812634,0.3287337973,-1.3048108061,-1.3898978698,0.2246642678,0.7647838899,0.35378922,-0.1772496451,0.4734806612,-0.4932930257,-0.0533521121,0.0229939431,-0.2000599353,0.7069441773,0.7575304787,-0.6052027244,-0.1428518468,-0.7137911255,0.8141143053,-0.3404257615,-0.5061625547,-0.2662666933,0.037610997,-0.5456312711,0.1544398738,-0.2025751561,0.9040705393,0.4401962567,-0.693899578,-0.0170108246,-0.7724565234,0.9693874821,0.5368420404,0.4446929299,-0.3494578088,-0.8082381488,0.2156935059,2.3211418292,-0.0139216505,2.8849494901,0.353792354,-0.8566225482,-0.6903972879,-5.7228966774,1.0253748916,0.9743465699,3.1481779332,1.3713197521,1.1762745274,0.6852982102,0.2993733948,-0.2485351902,-0.6243647465,-0.385982649,-0.2163526284,0.3356396182,0.6392771627,0.4284075737,0.2285971561,1.0292511624,0.7696520669,-0.7304425975,-0.0236556186,0.918161558,1.0395092521,-0.5475487434,0.4879076357,1.0173117551,-0.8424772174,0.0311395404,-0.0919174833,1.0249638295,0.2046246354,0.7677578582,-0.9121717976,-0.3151754708,-0.6223533583,-0.5742076144,0.1952003769,0.1690258508,0.7338861622,0.3258480943,-0.0548869809,0.7024924728,0.1880965325,0.3979913655,0.3185127251,1.2925358293,-0.8188086898,-0.4687196333,0.7137718633,0.7154475856,0.0018999761,0.7759699305,0.2738697891,-1.5684111461,-0.3615364406,0.728297737,2.7590743206,0.1328991771,0.8448297348,0.1932937461,0.3124609894,0.3201159578,-0.5617587517,-0.6013359275,0.8105496934,-0.8855707447,-0.3069656236,-1.0355421584,-0.6740152272,-0.7663328645,0.5905681409,-0.5832842301,-0.5381894923,-0.2868565883,-0.641516277,1.3574573154,1.1699078502,-0.5530783476,-0.0767176818,0.8347893308,0.0616209927,0.5458807716,-0.6129846017,-0.7600241201,-0.4164708084,0.1318590428,-0.0802295281,0.2928813922,-2.3895884003,0.8086499853,0.115121965,-0.5064784635,-0.5105552772,-0.3177277334,-0.6663032411,0.1398318382,0.9230910409,-0.1946487884,-1.3970497669,0.6631775765,0.2660680726,0.0780230499,-0.8588811216,0.9892342892,0.8228325112,0.1951674955,0.442148552,-0.1596547341,-1.3843895715,-0.0415462925,0.6387407334,-0.1651931019,-5.0386825014,0.0916333013,0.9160031311,-0.6704986501,0.2494153688,0.0970442489,-1.0313978069,-0.554933283,-0.2457685616,-0.629613014,-0.0230347503,0.3479532996,-0.8685458101,-0.4509035144,-0.8888829104,0.3885245283,0.0038012604,0.6088275076,-0.6405355225,0.0413088378,0.4014292962,-0.236734143,-0.773722744,0.5150439632,1.9716815712,-0.1221384458,-0.896142667,-0.1414168291,0.5250410343,0.3726630465,0.3765863368,0.1600871859,0.1253476646,-0.6187260768,0.2657241275,-1.361914551,-0.0017446829,-1.4951401826,-0.1537667874,-0.4083783116,-0.3192856855,-0.2392103751,-0.8769402927,0.9103996299,0.2098152635,0.8329706212,-0.74510901,0.6216185207,1.9085885065,-0.2424486821,-0.3818575336,-0.2027182908,0.7405496297,0.3151989871,0.1082098764,0.0570521177,0.0851994976,-0.8497964166,0.0727551571,-0.4896366633,0.1944253256,-1.2110765221,-1.0480414401,0.1549425134,0.7362384693,-0.2487039355,0.5935880997,-0.4705926789,0.0185270903,-0.2310211971,-0.6588015062,0.608554495,0.2090508683,0.29162693,0.7337140317,-0.0985893953,-0.7186291353,0.2973537896,-0.6355003236,-0.1228628534,0.8483123283,-0.8633652373,-0.6763022829,-0.2865554126,-0.8453454607,0.4334967047,0.6148252251,0.4335740886,-0.9035597188,-0.7365597154,0.0254852035,-0.5991725189,-0.7560819345,-0.8859427124,-0.0536647351,-0.8025167134,-0.5835692657,-0.0242125268,-0.7885324102,0.8266936573,0.7171185414,-0.281429012,-0.4198036912,-0.837118476,-0.2117523285,-0.8976849932
   -0.6921461317,0.1506175514,0.4259151463,-0.8192969886,0.7216626752,0.1193886097,0.6857851481,-0.9194102127,-0.9550280094,-2.136656168,-0.4502069107,-0.1225652107,0.3756666041,0.4984340959,-0.65190879,-1.7664036477,-0.5621048949,-1.1888790897,-0.146588998,-0.656609779,0.8347448944,0.5765018512,-0.7131680061,-0.4505134008,0.0273625392,0.5253583589,-0.2448213466,0.2590035263,-0.3318888729,-2.8883201899,0.0497700583,-0.9564511594,-0.1694602881,0.2437966814,0.3427776498,-0.637521708,-0.1092286448,1.7028529942,0.1094550916,0.3520843223,0.0400472298,0.6057190857,-0.7493710756,-0.3159432937,0.1290565908,0.1762800578,0.4710974993,0.8417728789,-2.0002513892,0.1086047125,-1.160696801,-0.6825567149,-0.2911166389,-0.2260560053,-0.9515870316,0.3788636719,-0.9181413211,1.9031044254,-0.7904886692,-0.674611295,0.9258798585,1.0590444518,0.7577706643,-0.4334524294,0.770664091,2.3755728999,0.8033396885,2.8846012471,0.5872706596,-0.7505946333,-1.3857877837,-0.718946239,-0.5933946782,-0.3258057708,0.4802832637,0.6515496198,-0.3617557223,1.1897438992,1.1643425106,-0.3148307529,0.154532193,0.2567719766,-0.8450691687,1.102255097,1.0899440918,1.606430819,-2.5932777779,-0.1635875428,0.3020268622,-0.4887838718,-0.522299228,0.5922601401,0.9814189922,-0.4532579555,-0.6087519789,0.6965357071,0.284439073,0.5258245008,-0.3427746634,0.9010068604,-0.2359366779,-0.1282951572,2.5189433551,-0.4143662666,1.0606494183,1.1683061096,0.116151551,0.2455574749,0.7712543216,-0.3325742612,-0.1274250983,-0.430751186,0.9008003921,0.2250268513,0.9745356707,-0.3113803113,0.44321499,0.227149331,-0.5162731522,0.1063289892,0.4109894282,-0.2901011087,1.2382036309,1.1339776375,-0.4211472066,-0.380119169,-0.5280509823,0.1349197564,-0.3356195572,-0.0285944049,-0.3673272556,0.7422054606,-0.675379591,0.8457382431,0.1173336659,0.2745962983,1.0860969509,1.4820904249,1.4792232831,0.7843754282,-0.3885195651,1.0288728429,0.2555253755,-0.4805831861,1.182175843,-1.176732316,0.786314264,-0.3878742874,0.3831476406,0.5719035114,0.8570139034,-0.1682846193,0.0515308455,-0.7210361871,0.3522339915,-0.0378974399,0.5834311015,2.0900057215,2.0019818426,0.6903149537,0.1740146467,-0.5338754172,-0.8719278352,-0.6980384586,-2.0112642423,-2.1960362763,-0.6074956849,-0.1810420493,0.4081783726,13.1740322958,0.2838664452,0.7628259977,0.8682867468,0.0375105102,-0.2909865131,0.4279044769,-0.1429361094,2.5956497288,4.653725682,-0.1302289731,0.2293293516,-1.2307179872,-0.1277882829,1.3369314214,-6.6888712015,1.5021296224,-0.4860398148,-7.382729566,-2.1450983997,0.5629307817,1.0986164613,0.5169489687,1.0829135254,0.4953395207,0.6228461738,0.332784586,0.1238678509,0.3658482864,-4.2818307326,9.5642741967,2.0551839185,1.1443447536,0.4895019942,-0.2507680384,-0.2913205715,0.1646354264,0.2940962752,-3.5140174959,49.492793866,-1.1999266359,0.7769700796,0.2726476105,-0.329869352,0.3699691529,0.5684081076,-0.4556867128,0.2281350043,-0.5434439418,0.8254641942,-1.0407349892,0.5719244374,0.8179427153,0.4332388152,0.6188053535,0.9708153541,-0.4619851644,0.7267105065,20.2781669897,6.5088601733,0.3916027601,-0.7234809801,0.0250421187,-0.5576001005,0.6322031092,-0.6288470766,-0.477800282,-0.2081259839,0.2265742982,0.7745925294,-1.0240232237,-1.1218983048,0.0921442005,0.1862359234,-1.8155848124,0.6545465047,0.2876370591,-0.3976768845,-9.0839672719,0.1492299264,0.886180204,0.9555085249,-0.0420879711,0.3769061683,0.1580126099,-0.6577404039,0.4790173165,-0.4226635074,0.871825915,-0.4844521062,-0.5174673474,-0.081597324,-0.1728812144,0.207970622,0.5140554986,0.3548856753,-0.6268873631,-0.0238231918,-0.6803670241,-0.2842305298,0.6472615314,0.3967762398,0.4728804904,1.0485076722,0.1277599475,-0.4737626568,0.6199766949,-0.7563054563,-0.3969275051,-0.3505661914,0.0345626562,-0.8291157897,-0.645507719,-0.5853467212,-0.2586671168,-0.2302572983,-0.5856605928,0.7763600495,-0.3954731735,1.1974670956,-0.148737324,-0.5487842876,0.4328523793,0.7212931996,0.0592205223,-0.2767739779,-0.5244656576,0.2879171685,0.3628031086,0.0810209111,-0.6466798442,0.7671769795,0.7174396247,0.5799891923,0.8828847622,-0.0860105374,-0.2285934499,0.0545574005,0.9051956115,-0.0044841471,0.6141156097,0.881089448,0.1983058312,-0.1503760599,1.0639460968,0.1573446254,-0.8963914034,-0.2504015753,-0.3232962919,-0.1537958141,1.1242103721,0.6575964515,-0.0961383728,-0.311495463,-2.5659933791,0.0355053988,0.4097681726,-0.1305830752,-0.1303406003,-0.8155821864,0.975263877,-0.3224283375,0.3472893696,1.1263850636,-0.5428873714,0.3110402119,-0.8275031992,-0.8170751084,0.4554154105,1.1545910361,0.4642176887,-0.246537752,-1.1340423909,-0.9338298957,-5.0337709362,-1.7406650952,-0.6422308237,-0.5986261844,0.8321052495,-0.1250253424,-0.3733176562,0.7416338528,-0.8416975313,0.0942281596,0.5380642103,0.9822147815,-0.9390423132,-0.644837007,-1.4911754485,0.8577978259,0.9485614159,0.9089450539,0.2499505747,-0.7985103533,0.0661207442,-0.5303088845,-1.2732341926,-0.2951783761,0.3718250901,-7.6523839042,-0.4304483339,-0.8013143274,0.2552710797,0.7337416537,-0.2677525026,0.4349619099,-0.228145474,-0.2631795282,-1.6633181124,1.2969346417,0.9070070892,0.1199279456,-8.5200267953,-0.4781260812,0.3606239749,-2.1936030115,-8.1569879813,-0.7348264817,0.3370102897,0.1060597778,-3.9721669027,-0.5193720239,-0.7756032352,-0.7545573169,-0.6476469196,0.3289902541,-0.3019721639,-0.412161925,-2.952969276,0.3642866234,-0.1969075951,-0.1804385551,-0.0628339072,0.4777620828,0.672795048,2.5748637898,0.3301379745,-0.3041247567,-0.706170383,-0.3425151156,-3.2930658914,-0.7039263588,0.3182196545,1.0581995565,0.2690820675,0.6103610115,0.4472963838,-0.3498001207,-3.8146301116,1.3996147663,-0.5412125631,0.9948695351,-0.0492056515,0.337777838,0.4295856348,1.8195481703,-0.0739625197,-1.0867463212,-2.9561153115,-1.3490246168,0.3387849928,-0.9128835411,-0.2314195173,-0.4914067774,-0.3126653846,0.9085731183,0.1785762396,-0.4167965944,-6.587866417,-15.8006798519,-1.7829154473,-0.0526665654,0.5231261511,0.7265711971,0.5940094547,0.020066463,0.4929016201,-5.2368816358,-2.0322152742,0.1025766738,-0.0295351039,-0.0098015349,0.728317925,0.4177375825,-0.4365179737,-0.5737321961,0.7860485844,0.2924021911,-7.9193869022,-0.8388988102,-0.8953426654,0.9017467704,0.3163295986,0.9853538312,1.2366963128,1.0636863973,0.6407558617,-0.495305507,1.6885100626,-8.6591020361,0.0809286045,-0.11856181,0.8868149482,0.5551727594,-0.0373322398,0.5980652596,0.4575087739,-1.095734028,-1.1444537163,0.6110972176,0.3783584231,0.7498539599,0.5594888872,0.9429120578,1.4867370334,1.3785187257,1.1199007276,0.6305030418,-0.0170788275,-28.0923255671,0.7323899682,0.0043073583,-0.305644299,-0.3827500734,0.1412163084,-0.4054611654,-0.6903313613,-2.193737957,-0.4791637387,0.4981758354,-0.5856058081,-0.8717531612,-2.4762874349,-0.6864418899,2.7369207869,2.3632497573,0.0854454188,-0.7157940211,-23.5533713798,0.2958950667,-1.1148338324,-1.0542788298,0.4716779958,0.0771264589,0.6226249332,-0.6036975464,0.3699983343,-0.7599811304,-0.4646357343,0.9881025354,0.4365235983,0.0271803584,-0.3284777146,1.1546015486,3.7840616973,7.299757249,0.5141485634,-0.1122079974,-0.5184514588,-0.8638016336,-0.6773204181,-1.3234071176,0.17106409,-0.3835356834,0.6033409057,0.406124135,0.1063436796,0.6188656356,-0.6615831164,0.0501878436,0.4646126985,0.8426681864,0.6902685667,-0.5034181766,0.7956031374,0.1332102264,0.5428198357,-0.1149650708,0.0161966208,-1.0879830542,0.2640176297,-0.7398037801,0.8769105295,0.859897151,-1.0588969969,0.6248381646,-0.1692233988,0.6163572036,-0.7398519537,0.0177245839,-1.850720982,-0.506520995,-0.0356704061,-0.506052432,0.5660541748,-0.9349791678,-0.3740803982,0.4302031043,-0.2352144746,0.1941496209,-0.1075857843,0.4270730304,-0.3619709577,0.6569154104,-0.5356320678,0.5528538629,-0.7922287702,-0.4573916874,0.3857863049,19.519641636,-0.4910104892,-0.3218364632,-0.518832324,1.1288029773,-0.253049125,0.5994218183,0.4534925565,-1.0851303243,-0.548369427,0.5655357334,-0.1990606807,0.8044680428,-0.2362976004,0.8975112352,-0.8984345612,-0.7008954025,0.4495564077,0.3887263709,0.4877212441,6.1662468925,-4.7010348646,-0.8013030326,0.4927823667,-0.3390304897,0.7744483553,0.7346992197,0.0747213113,0.2212759281,0.2444759884,2.0701027645,-1.2316895862,0.5917797797,0.1537107322,2.2470011063,0.8086103577,-0.5743553742,-0.4835459251,0.5856870857,4.0949970506,0.6249112122,2.0390197742,0.2441378069,0.3990606652,0.1107548863,-1.0255542039,-0.3098686951,0.5527523161,-0.2476496988,-0.6423769469,-0.8204425141,0.9108031893,0.0832938276,1.1437471892,1.3906647668,0.7300657894,0.5714070272,0.1678942835,-0.4060684982,14.3022190719,1.2449054513,-0.7517942257,-0.0157529835,-0.2482574178,-0.5874805297,0.6113441096,0.7487112384,-0.0942980486,0.363282915,-0.8019196388,0.7954255916,-0.4035321845,0.6451300999,2.2678639295,0.5252026592,-0.6428535809,0.5419472673,0.3178527821,-0.5476713363,0.7538035066,0.9890694816,0.8991895774,-0.5276721068,-0.0081062615,0.5402549452,-0.1450042522,0.376575336,0.7249228225,-0.2790993885,0.5037631318,0.3359718068,0.4069704918,-0.1829207568,1.1109286912,0.8214540543,0.7809389373,-0.6284201304,0.6427519789,-0.5490742608,0.2604818929,0.5557049636,0.8317720179,-0.471896125,0.8848806148,-0.1712995184,0.1602525751,0.0424804511,-1.0362951818,-0.8783624406,0.0861553745,-0.0074356011,-0.0665690697,0.0660969019,-0.7940894842,-0.2031961577,-0.072444757,-0.9259111034,-0.6213801552,0.2549269741,0.2890011317,0.2796118635,1.7502002555,-0.3803751616,-0.7056410341,-0.6941908097,0.5844907099,-0.5680863748,-0.8392152796,0.680243483,0.3247091941,0.8780262419,0.644131978,0.3309393469,0.1237446895,-0.2613381202,-0.1634465464,-0.501914628,-0.4043092552,0.0646917022,-0.1344262257,-0.0199380883,-0.3775562267,-0.0373788793,-1.0897499903,-0.1255600902,0.4674081253,0.2877864262,0.2694801386,1.2928014308,-0.7579789826,-0.4124013345,0.7900740129,-0.4328307714,-0.1113707329,0.2735723516,-0.4922256643,0.344885227,-0.1802014086,-1.016058307,0.0985134615,-0.9567911265,-1.6593706127,-0.8642776293,-0.0390086786,-0.1496900567,0.704315502,-0.0352807894,0.9619603121,-0.6626990575,-0.2730514921,0.300445351,0.0690461481,-0.1618075999,0.7868931069,-0.5333499479,-0.1841814932,-0.4098149076,-0.2412969089,0.213685926,-0.7727268234,0.0889603818,-0.1185995213,-0.4116901096,-0.5481229081,0.795073888,0.5995808294,-2.3275356764,0.0273915429,0.9176328534,-0.8538584341,-0.1772583284,-0.2210204715,1.1247062939,0.885738689,-0.4284621582,-0.7510536687,0.2808463509,-0.1640084525,0.5446312952,-0.3361751239,0.4527567441,-0.0492088878,0.6590776382,1.3596656779,0.2684241911,-1.0779709425,-0.8243890808,-2.4175469915,0.3668473502,-0.6426429501,-0.4469572053,0.139579402,-0.6772275913,0.511436654,0.7497529134,0.2086321247,-0.2759076051,1.0169765524,-0.5791940024,0.5529014015,0.3647777161,-0.690797093,0.8940157123,0.6917759282,0.8396329541,0.0958103421,-0.4631448254,0.6784810548,0.2030566111,0.2599692808,1.1275066983,0.4994685925,-0.6772415228,0.7331694641,-0.2284741528,-0.3350576338,-0.0084206088,0.1060706264,-0.9727174295,2.4092708798,-1.2475139631,-0.7018169094,-0.3103791182,-0.2883286816,-0.0459103507,-0.8618264576,0.6817626791,-0.5015547799,-0.889757676,-0.0717292677,-0.6154084516,0.9295376469,-0.3062148743,0.0028751387,0.3835546447,-0.8382300471,-0.3951468527,0.9858173497,-0.3917354169,-0.7200802188,-0.6132869237,-7.024262353,-0.383972693,-0.262114457,0.48791513,-0.5522155963,0.0563254287,-0.8088800333,-0.3143383167,-0.1415068641,-0.3763212877,0.320311395,-0.2380083826,1.0137686068,-0.5690659919,0.0816404454,0.2945279001,-1.0524234519,-0.4883097853,0.1116003367,-0.8591730298,-0.8181896412,-0.5303739098,-0.9043761519,-0.408671848,-0.2560616698,-0.6680259107,0.7310898688,-1.045931746,0.1383701783,-13.8304790021,-0.6101543478,-0.4730577011,-0.6504588578,0.4791391845,0.8666009824,-0.2449743315,-0.9835320668,0.2595767889,-0.962816695,0.2016369376,-0.50124568,-3.3082632962,-0.1282773458,0.4216125528,0.2383865776,0.6221363279,0.5756614727,0.4279103303,-5.4630592561,-0.3646294926,-0.0175206812,0.8674225535,0.714956328,-0.9169862287,-0.7312899924,-0.1366917611,0.3040586898,0.6378282065,-0.6223367492,-0.5308736784,0.5992495706,-1.5810192508,0.2394117962,-0.0642440084,0.4794723138,-0.0737752408,2.7061998445,-0.6635994337,-0.3148594898,-0.2150845314,-0.2325894392,-0.0192914607,-0.2326260203,0.8837427387,-0.3467560671,-0.3031787318,-1.0520076095,0.2152848475,0.2124820034,0.3381447211,-0.2680332615,-0.2337351108,-0.3345909777,-1.0056530483,0.1146129981,-0.4564104234,0.7718438113,1.0952669351,0.0830593558,-1.0491846505,0.8859767598,0.5653156019,-0.0418741064,-0.7532260195,0.1420347126,0.7387975341,-0.7611978657,-1.0941787368,-0.0830963462,-0.2348641922,-1.0713920144,-0.4864948431,0.359980034,-0.9846667863,0.2913087973,-0.3923704866,-0.5603012623,0.043232459,-0.8920488544,-0.1712331177,0.4160471052,0.1890402965,-0.9953223371,-0.0537088355,0.3827810026,-0.3463534673,-1.0176775806,-0.2781662877,-0.3669662833,0.0192093955,0.2873097889,-1.2313289496,-0.6123624678,-1.2399862402,-0.7716405739,0.0826489887,-0.3304437245,-0.6083323946,-0.3478968768,-1.8270928355,-0.0152189315,0.0184441119,-0.6336543801,0.3314803188,-0.6597671268,0.4016573165,-1.0669850695,-0.8658216668,0.5508999951,-0.3510723621,0.6946615179,10.1420865806,-0.3374632991,-3.7488608003,0.3641951959,0.9423335103,0.4864175723,-0.9109314055,-0.545707452,-0.557182844,-1.2196401267,-0.1465880307,1.5511584531,-0.3128677579,-0.0262415697,0.585750361,-0.4751830902,0.7045824269,-0.4254747512,0.5154327273,2.5159965118,14.3748187109,-4.1858653012,-3.2045671108,-0.7755831934,0.8742523763,0.1909857347,-0.0706818424,-1.0099630698,0.8841154448,-0.7200440503,-0.9837075528,-0.2873891624,-0.8213426908,-0.1332706304,0.4997518852,-0.8260047354,-0.1491856368,0.3555669491,-0.3042273448,6.6805762581,0.0530672324,-1.2147848352,0.0976863909,-0.9595339344,-0.9512953734,-0.9615552412,0.046468539,0.5468154911,-0.2540516737,-0.8257480905,-0.8823258197,-0.5661563253,-0.0302105039,-0.9837304679,-0.1754582329,0.4825614121,0.1580513244,-0.5148997319,-0.0549758496,-0.373523012,-0.5875308091,0.0528538794,-0.9197325901,-0.7119593253,-0.4983560584,0.7363238108,0.5264563533,0.3628218505,-0.2584934465,0.3372178299,0.3919381975,-0.4312320359,-0.8710913286,-0.663848444,-0.1086913476,-0.9976805908,-0.8712415517,0.9009677292,-0.3320489779,0.185945621,0.498572345,0.9901531763,0.8454425906,-1.1185545706,0.1649867781,-0.8412452753,0.230491427,0.2896759736,-0.3450424052,0.4873979011,0.7829521982,-0.0996785602,0.6575971211,-0.2181750627,0.812442705,-0.5080226756,0.2836316407,-0.4674281074,0.1666471755,-1.5379414344,-0.0383057269,-0.1071641533,-0.0122709137,-0.5554926524,-1.0021936783,-0.7055897539,0.4767352282,-0.9400894225,0.0653226799,-0.4639654238,0.9815344253,-0.3618031928,-0.5734592877,-0.566956802,0.6504612127,0.7728668008,0.0699804315,0.366119061,0.607846075,-9.7282970231,0.7326973355,-0.9942371226,-0.4838699639,0.8333397746,0.4340624941,0.2492628941,0.7464391988,0.0163669873,0.2439681512,0.150628017,-0.1751673839,0.9699438039,-0.2475649155,-0.085147059,0.7637164437,-0.9108952318,0.3090042262,-0.1605940193,0.4384221697,-31.5293152202,-0.2213693248,-0.4188123076,0.3769106873,0.1044595652,0.5858505436,-0.3987223774,0.4256274368,0.0612687966,-0.0906439574,0.271690058,0.1315970291,0.2965597479,-0.8220278279,-0.6988430967,0.2882786013,0.160085675,-1.0690907783,0.7177439195,0.2490699569,-25.4486886879,-0.904293615,-0.8097164142,0.0565941887,0.6150605275,0.6654951441,0.2578456951,-0.8287933519,-0.1419443797,0.6621987106,-0.8712846716,0.5146757796,-0.0449783164,0.6781733143,-0.7401149927,-0.155537485,0.8171381323,-0.7452544645,-0.2781643518,-0.7253548578,-3.2544806009,0.3281619346,-0.0872835923,0.5533459752,-0.1984520281,-0.5908815379,0.5570700125,0.1979247587,-0.4381784736,-0.5557552644,-0.1224945862,0.9262260929,0.0293470617,-0.1799073089,0.1899544017,-0.7596321597,-0.9003150739,0.7885755836,-0.6216820831,1.005033283,-1.3709217733,-0.9471655376,-0.3930622629,0.8407833628,0.6636609107,-0.4802771092,-0.6426856355,-0.2140202659,0.4793286456,-0.3868566712,-0.163142384,0.7557220867,-0.6835370941,0.4009814545,-0.3627626349,0.3294036152,-0.1468462577,0.1260917853,-0.7258820321,0.0920505867,-0.997101545,-0.4651774323,0.2418803767,-0.6647669008,0.55692559,0.2340486013,-0.552410234,-0.7336439359,0.1050533659,-0.477138828,0.4125415773,-2.7667948328,0.8071860799,0.324822432,0.6448390552,-0.533071374,0.620390348,0.4029256847,0.0912542233,-0.516172693,-0.8093508395,0.725799783,0.4706750497,-0.3943062194,-0.0606658144,0.3737450593,-0.4978438377,-0.1866364098,-0.8443273882,-0.9205311433,-0.3095656347,-4.8842360264,-1.0732127483,-0.3588051386,-0.5725766418,-0.0521089322,0.1984752042,0.413945919,0.5579748081,0.685732414,1.4359817312,-0.8121089926,0.0326221037,-1.0679454617,-0.1446986937,0.6691548242,-0.3098428474,-0.0087360239,0.1252010681,0.5916470396,-0.4357864605,0.8082562437,0.2371994406,-0.7924170323,0.0387358119,-0.1885210326,-0.2126913116,-0.8074310692,-0.687779959,0.8719611338,0.9510850105,0.8789258453,-0.1190838209,-1.9082882608,0.049702864,-0.7529812877,-0.5679520287,-3.913371487,0.9523231624,-0.167052041,-0.3698345223,0.6996924239,-0.1144335783,-0.4122590707,0.1270993449,0.8104558404,0.6969899817,0.1521249554,-0.1298831996,-0.8616672147,0.1611278253,-0.96912476,-0.5815572146,-0.6848265774,-0.0755144556,0.2484796821,0.6289603138,-0.8056278916,0.1551636721,-0.9592877121,-0.5295510108,1.0114861764,-0.3477005685,1.4569177566,0.3372873175,-0.2950222336,0.4539383636,0.5547763668,-0.7142351576,-0.4090900322,0.3413126477,0.1616964248,-0.1791639966,-0.1605435788,0.6058269772,0.4160221526,-0.9497838905,0.2290580654,-2.212234836,-0.7358205068,-1.1263607932,-10.4704656225,-21.6455172844,0.1892883749,-0.1729098853,0.045726757,-0.0410486364,0.8466215476,0.1844843474,-0.1988482134,-0.470400395,0.5360609825,-1.040169881,-0.0376630684,-0.5646052604,0.2339881614,0.2598769777,0.3884284677,-1.0447653534,-0.1597114597,-2.5573916515,0.6755893285,-0.019045289,-0.9876083005,-0.3990228363,-1.0825472453,0.0328220347,0.9806997545,-0.5846987537,-0.174775282,-0.6405717537,0.009642167,-0.7852867844,-0.7881067279,-0.2797263838,0.4421606834,0.7329400316,-0.2676145582,-0.1348785206,0.2810433541,0.4409630493,0.4479270912,0.4325569032,0.7207935686,-0.0551797663,-0.9537496794,-0.2700741121,-0.9502153555,-0.1598204388,0.9102206904,-0.9009130238,0.3892465215,0.4162299188,-1.1984918649,-0.6432429864,0.110016384,-0.0984528241,-0.0473730475,-1.8346093117,-2.7854628341,-0.6870230026,0.5607601262,0.5840118906,0.22794549,0.3749279666,0.7351068808,0.974522694,0.1634445111,-0.6451820354,0.6885961209,0.3752178352,-0.0496163609,-0.4145495352,0.4844105526,-1.3673545891,-0.930842243,-0.0205431217,-0.1941127548,-0.5611208327,-0.6493129901,0.2689558034,0.4275728987,-2.3918673704,-0.2437957326,-0.3706169428,-0.1306482495,-0.4612204868,-0.185590528,0.5892644563,0.7305741046,-0.7890333302,0.5361689758,-4.2851778174,0.0322578298,-1.09080079,-0.4747298206,-0.6413133834,-0.0235629875,-1.3156250247,-0.5409328746,0.610001339,-0.457388901,-0.2369252817,1.6514417696,3.366390823,0.5751818856,0.2053942421,-0.8051036643,-0.5807928138,0.1577384914,-0.7315203517,0.5619186127,0.4029659199,-0.9189601808,-0.4588602791,-0.7840209759,-0.9888822321,-0.5440083043,-0.6976794507,-0.7626704294,0.3129814923,-0.0252573741,0.5673873862,1.0912284369,-0.5085199494,0.4649701254,-0.2985568509,0.1379094923,0.8395423199,0.3706076067,0.728495841,0.2430252773,0.484292316,-1.0706910222,0.3665276914,0.702575809,-0.5758316472,0.5023808299,-0.3607541994,0.581436417,0.6418140093,0.8308773634,0.2922054712,0.5308749272,0.8582297122,1.2189716807,-0.8550390113,0.326201334,0.8733399039,0.4432839503,-0.7078320681,0.0900705688,-2.0143973072,-1.2660656774,0.3483741879,-0.8693381135,-0.5602660342,-0.1279827867,0.0051890734,-0.3301015343,0.9973157197,-0.4590553677,0.4382189012,-0.1219822101,-0.113191422,0.69431109,-0.4852208372,-0.6920332361,0.3260630574,-0.1955545692,0.755241528,0.1631987778,-0.6730584434,-0.8551144266,0.424979123,-0.2374956299,-0.0125463588,0.390196486,-0.9011859455,1.1562891583,2.6151571653,-0.6501030813,-0.5806561212,-0.4363953349,0.532287222,-0.1374781196,0.7015765553,0.4113393996,0.5759483651,0.112047076,-0.2218862846,-2.1059822962,-0.7609806392,-0.1652319313,0.0972221713,0.0224237545,-0.8287592126,0.4411769915,0.9456053649,0.9715345616,0.9181081052,-0.4153282603,-1.0276554703,0.1976867169,-0.1569126042,0.233545235,0.9644966606,-0.5871740758,-0.5684036559,0.5795327477,0.6829914118,-1.2815057887,-0.4660952407,-0.5969799665,0.8270092856,0.0071684285,-0.415526714,0.259731377,0.8339689476,0.3540526193,0.6912959334,-0.8709720056,-0.0041146279,-0.1046797779,0.7773093956,1.1364434083,-0.6723673641,-0.119867619,0.7056218762,0.4652026949,-0.6146099819,-0.0027330385,-1.4982718312,-0.7474511877,0.854234212,0.777751482,-0.3618495381,0.4023551908,0.1924208903,0.3975200835,-0.803207641,0.5832804786,-0.6125779252,0.7464327015,-0.0261531636,0.8225796296,-0.5524402195,0.9784226604,-0.1357020083,0.6089611408,-0.6940588561,-0.9475577478,-3.3479126375,-0.6755263353,0.8813879927,-0.8088751627,-0.2481804118,-1.5013227103,-0.063366808,-0.2794193108,-0.0744504304,-0.9402205746,0.2443311903,0.1003634551,0.4677499739,-0.4109671481,0.2538577056,-0.3549914342,-0.9922587685,-0.0105648699,-0.1186820206,0.282449663,-5.5722829997,0.5541849576,-0.7272181611,0.6808290356,0.4579220062,-0.9491670031,0.0134021659,-0.5482301462,-0.3448926374,0.0993131189,-0.3018320034,0.474976597,0.3371395751,-0.8046369949,0.7953421947,0.9476477036,0.4942415413,0.9722394359,0.7600422376,0.0555176768,-1.0667354313,0.4223667773,-0.3226356907,0.5691526051,0.7317334433,0.7288704147,-1.0370619944,0.5573578968,0.379235064,-0.3305443725,0.7638167988,-0.4592572921,0.0170484639,1.0954459862,-0.6433707335,0.5782302424,-0.7815277266,0.7712920983,-0.243684606,0.7674382616,1.8541448595,1.0132242057,0.4411567212,-0.7620026645,-0.8707327658,0.1608025725,-0.9158867154,-0.6796121022,0.4435447262,0.3685679081,0.9342221354,-0.7224094413,-0.2870443885,0.2080901867,0.8749517121,0.1606254416,-0.5198662799,-0.7338805922,-1.118697624,1.4647446526,-0.7334431348,2.6964848443,0.3645536269,-0.3906288862,-0.5788094517,-0.7569940432,0.7445777234,-0.1489091962,-0.377285172,-0.1079695508,-0.4773870309,-0.3155159862,0.6020200422,0.3371647536,0.1155099712,-0.2826028172,0.0481525576,-0.3509535592,-0.3774558191,0.5679262161,-0.365051787,-0.9366057937,-2.4571002737,-0.7282499921,0.3261414131,-0.504546253,-0.3415815527,0.4138753651,-0.5038124904,-1.4100540506,0.1877505559,-0.1986548615,-0.119791919,-0.6351587491,0.3691311409,-0.3153831208,-0.4972936536,0.7171553695,0.2261934534,0.835771264,0.0735657752,-0.8691352666,-0.0491745733,1.4415270913,1.0732789046,0.5060687625,3.9135366484,-0.3244351252,2.7328508362,0.3929598147,0.9050911745,-0.2012280331,0.696831866,0.1281614255,-0.5716336252,-0.8091371803,0.1363882963,-0.137700434,0.687798612,0.1008878197,-0.4622957211,0.8260821897,-0.2491149267,1.3397417315,0.2159561596,1.7987119962,0.4089055318,-0.7600082583,-0.6130013206,1.6219965367,0.1219177832,-0.2981517569,0.8367386393,-0.7615710652,0.5393450443,0.3218387001,0.8727478501,0.2119258829,0.8037700671,0.7802114588,-0.6594444981,0.8197859059,0.6824528948,1.3897082045,0.6806123266,-1.0394555561,-0.5178377394,-0.588279915,-0.7200029091,0.1949962068,-0.2067268097,0.4491330655,-0.3358313421,0.6871803385,0.1813943328,0.5553670248,0.9559504596,0.4808713374,0.4162701146,-0.4696414949,-0.0139839486,-0.084459293,-0.4893739886,-0.6526724019,0.8083316778,-0.5958847191,-0.0115932172,0.9251225124,-0.3749828617,-0.0142413284,-0.2228521078,-0.1697348509,-0.82455536,-0.887646201,0.992378652,0.5235370473,-0.2222347226,-0.3951826775,-0.62605219,0.7935168433,-0.9089894792,-0.7477509792,-6.4715737363,-0.425103951,-0.0216766648,-0.606016675,-1.1280307829,0.6823944966,0.9666490532,0.64790335,0.8744912705,0.2426732221,0.1767846598,-0.8984992759,-0.4950257669,-0.130038992,-0.189490849,-0.0966929188,-0.9294839956,-0.9943113627,0.4433920431,-6.1229634353,-0.6592382984,0.0921425901,0.1293650857,-0.2768977151,-0.434629074,-0.1914613413,0.1240608188,-0.4302236376,0.0138735135,0.9695944851,-0.0913917924,0.1209219399,0.8224714566,0.923706562,-0.3045547257,0.7834008414,0.6295072379,0.7813820751,1.1209138486,-0.2841428935,-1.6438407158,-0.9895682151,-0.2816925292,0.1966416735,0.312129964,0.4622794004,-0.2665897435,-0.8633898871,0.1515206975,0.7952940292,-0.7537415256,0.6224168961,0.0332176161,0.7872010825,0.1380601701,0.6056360063,0.5615511091,-0.7131940252,-0.4203299975,0.6440443262,-0.7596153709,-0.0047544965,0.3942402119,-0.5117145016,0.1799113255,0.4950444017,0.2456549658,-0.6333422877,-0.8227770334,0.0199996402,-0.0959688737,1.009171777,0.5236090828,0.2529430593,-0.0522408688,-0.4289289779,-0.9600824243,0.0306427925,-0.1363039581,0.0023890697,-0.4787701242,-1.1867691454,-0.2629097917,0.7559879546,0.1030661265,-0.8217587662,-0.8282097298,1.336700237,-3.4816706154,-0.6447322421,0.3785648242,0.385519634,-0.3520316659,-0.8486250884,-0.8137756312,0.2633070884,-0.9114410416,-0.0850942125,0.5844629422,0.636386078,-0.4717805422,-1.402517963,-0.6700549107,-1.2984178428,-0.3632314011,-0.5678845483,0.699765568,-0.527657008,-0.4231216605,-0.6309941621,0.795110637,0.7232110705,0.2182158153,-0.2268696583,-0.1470455867,0.934491795,0.3848113991,0.1298378125,0.3235190797,0.8035071511,-0.9486531591,0.7752813496,-1.5635087869,-0.3179834457,0.2646752985,0.6368649917,-0.2940695713,-1.4848687335,0.0338432267,0.2654566296,0.8704320817,-0.6225620813,0.0632152632,-0.4140519847,0.4173674665,0.4690400885,0.2282611078,-0.8135050099,0.9106926521,8.0166480924,0.5218286787,-7.1769589112,0.0806150213,-0.9178122614,-0.4769760481,-0.2309232543,-0.6977136832,0.3351369581,0.4307323277,-0.0424635291,0.8091342764,-0.0366696923,-0.2877399977,0.0809748345,0.8469176883,-0.1063223723,0.8908638079,-0.339234392,-0.5136420947,-8.6292856848,-1.0352297674,-0.4946090159,-0.1122637744,-1.4314654808,-2.5356989481,-0.6122531223,1.5582181646,-2.0168454944,-0.364013812,-0.3098075243,0.3324485819,-0.8235309933,0.0710210813,-0.6752976093,0.0927722078,0.4705200864,-0.0842973582,-0.4940890167,0.3774961076,-0.5884572537,-0.6002035,-0.5324106246,-0.3436544025,0.7060029319,-1.1236904675,-1.1237611681,-3.8284919751,0.9595944192,0.9039007094,0.4375023728,-0.2850863416,-0.2230491168,-0.0867870098,0.9439984341,0.5614188072,0.05803868,-0.6182860754,0.7175658127,0.8510579072,-0.699953456,-0.0084396987,0.5014046516,-0.1951405717,-0.6911643374,-0.903913011,-0.4528289392,-0.5919117402,-0.029227427,0.155687343,-0.0843728139,-0.3600337346,0.1940205741,-0.3878788204,-0.5379880208,0.8546691104,1.0165879338,0.4123833755,-0.7384451829,0.7107197326,-0.527943335,-0.1599318612,0.875511473,-0.1743229141,-0.7095450729,-0.3594616437,-0.8829526157,0.424412809,-0.8169605494,0.2193392898,0.5344546178,-0.2509828685,0.9683589213,1.0225011074,-0.538893741,-0.1901186307,0.3495554314,0.1325220823,0.6455078309,-0.6060809893,-1.013440191,0.648339686,0.6585944045,0.5842603993,0.9256574176,0.8337310771,0.6929727548,0.9112792263,0.3783178396,0.6502726985,-0.5312247532,-0.2211476027,0.0910068074,-0.3698657101,-0.6588197307,0.2478251006,0.4261473956,0.7441241998,0.7980611488,0.6883267286,-1.8435390036,-0.4078551891,0.5705939179,-0.035787504,-0.8865329259,0.2073776438,-0.2262894555,0.4973356103,3.5728352166,-0.4417721054,0.8866187248,0.5911787481,0.4673353625,-0.6614092841,0.426700705,0.1094349196,-0.4127522306,-0.5780894218,-0.1131031883,-0.0498396792,1.0541480762,0.2425765131,-0.3038573896,0.2665956855,0.9410816931,-0.6251009199
