encog,BasicNetwork,java,3.4.0,1,1497263288630
[BASIC]
[BASIC:PARAMS]
[BASIC:NETWORK]
beginTraining=0
connectionLimit=0
contextTargetOffset=0,0,0
contextTargetSize=0,0,0
endTraining=2
hasContext=f
inputCount=400
layerCounts=26,101,401
layerFeedCounts=26,100,400
layerContextCount=0,0,0
layerIndex=0,26,127
output=0.0000070444,0.0000056317,0.0000074979,0.0000058396,0.000010204,0.0000074784,0.00000516,0.0000058989,0.0000108862,0.000006246,0.000012719,0.0000065418,0.0000138342,0.0000061509,0.0000096318,0.0000052467,0.0000066705,0.0000061307,0.0000071658,0.0000138075,0.0000051074,0.0000080586,0.0000085685,0.0000122396,0.0000265209,0.9999824846,0.9507615162,0.9388406239,0.9282236409,0.989157047,0.0482308711,0.6053785791,0.0375684357,0.1717854057,0.985208204,0.9418047476,0.0114630352,0.0114844135,0.0322440708,0.9958163648,0.9422160254,0.9876797807,0.0484620119,0.9931921491,0.0274466684,0.9966971603,0.9979145977,0.9567594757,0.1281033713,0.0198318813,0.0606166705,0.8811486528,0.893966242,0.1725639055,0.0236565046,0.059250716,0.0921011042,0.9463122491,0.9485292704,0.9510922501,0.988823482,0.0083715273,0.0880422474,0.9648447947,0.0333243808,0.0561787813,0.7406663789,0.461350368,0.9654426932,0.9794925358,0.9996314757,0.0667690779,0.1033923806,0.9695240536,0.9489530307,0.9507415088,0.0226675502,0.9501581444,0.9607203599,0.9489088371,0.2225136329,0.0483272368,0.0384396219,0.9796079321,0.0651973994,0.8286250169,0.924612427,0.9204949588,0.9835064857,0.9549090629,0.0727364348,0.9919428997,0.0186293918,0.9853983981,0.185861888,0.6596485664,0.959352218,0.9862126925,0.9884148084,0.9959824356,0.9814063096,0.194102248,0.162060407,0.1134204755,0.9160456576,0.9688720022,0.5950912404,0.9243291616,0.012704969,0.9819269442,0.9415730479,0.0741595762,0.0097773205,0.0153703253,0.9802545805,0.0455685115,0.9783350894,0.0300902616,0.6681952854,0.80025181,0.733682929,0.9946011685,0.0056089414,0.9841561801,0.9872338038,0.9747310997,1,-0.5,-0.5,-0.5,-0.5,-0.5,-0.5,-0.5,-0.5,-0.5,-0.5,-0.5,-0.5,-0.5,-0.5,-0.5,-0.5,-0.5,-0.5,-0.5,-0.5,-0.5,-0.5,-0.5,0.5,0.5,0.5,0.5,0.5,0.5,0.5,0.5,0.5,0.5,0.5,0.5,0.5,0.5,0.5,-0.5,-0.5,-0.5,-0.5,-0.5,-0.5,-0.5,-0.5,-0.5,-0.5,-0.5,-0.5,-0.5,-0.5,-0.5,-0.5,-0.5,-0.5,0.5,-0.5,-0.5,-0.5,-0.5,-0.5,-0.5,-0.5,-0.5,-0.5,-0.5,-0.5,-0.5,-0.5,-0.5,-0.5,-0.5,-0.5,-0.5,0.5,0.5,-0.5,-0.5,-0.5,-0.5,-0.5,-0.5,-0.5,-0.5,-0.5,-0.5,-0.5,-0.5,-0.5,-0.5,-0.5,-0.5,-0.5,0.5,0.5,-0.5,-0.5,-0.5,-0.5,-0.5,-0.5,-0.5,-0.5,-0.5,-0.5,-0.5,-0.5,-0.5,-0.5,-0.5,-0.5,-0.5,0.5,0.5,-0.5,-0.5,-0.5,-0.5,-0.5,-0.5,-0.5,-0.5,-0.5,-0.5,-0.5,-0.5,-0.5,-0.5,-0.5,-0.5,-0.5,0.5,0.5,-0.5,-0.5,-0.5,-0.5,-0.5,-0.5,-0.5,-0.5,-0.5,-0.5,-0.5,-0.5,-0.5,-0.5,-0.5,-0.5,-0.5,0.5,0.5,-0.5,-0.5,-0.5,-0.5,-0.5,-0.5,-0.5,-0.5,-0.5,-0.5,-0.5,-0.5,-0.5,-0.5,-0.5,-0.5,-0.5,-0.5,0.5,-0.5,-0.5,-0.5,-0.5,-0.5,-0.5,-0.5,-0.5,-0.5,-0.5,-0.5,-0.5,-0.5,-0.5,-0.5,-0.5,-0.5,-0.5,0.5,-0.5,-0.5,-0.5,-0.5,-0.5,-0.5,-0.5,-0.5,-0.5,-0.5,-0.5,-0.5,-0.5,-0.5,-0.5,-0.5,-0.5,-0.5,0.5,-0.5,-0.5,-0.5,-0.5,-0.5,-0.5,-0.5,-0.5,-0.5,-0.5,-0.5,-0.5,-0.5,-0.5,-0.5,-0.5,-0.5,-0.5,0.5,0.5,-0.5,-0.5,-0.5,-0.5,-0.5,-0.5,-0.5,-0.5,-0.5,-0.5,-0.5,-0.5,-0.5,-0.5,-0.5,-0.5,-0.5,0.5,0.5,-0.5,-0.5,-0.5,-0.5,-0.5,-0.5,-0.5,-0.5,-0.5,-0.5,-0.5,-0.5,-0.5,-0.5,-0.5,-0.5,-0.5,0.5,0.5,-0.5,-0.5,-0.5,-0.5,-0.5,-0.5,-0.5,-0.5,-0.5,-0.5,-0.5,-0.5,-0.5,-0.5,-0.5,-0.5,-0.5,0.5,0.5,-0.5,-0.5,-0.5,-0.5,-0.5,-0.5,-0.5,-0.5,-0.5,-0.5,-0.5,-0.5,-0.5,-0.5,-0.5,-0.5,-0.5,0.5,-0.5,-0.5,-0.5,-0.5,-0.5,-0.5,-0.5,-0.5,-0.5,-0.5,-0.5,-0.5,-0.5,-0.5,-0.5,-0.5,-0.5,-0.5,0.5,-0.5,-0.5,-0.5,-0.5,-0.5,-0.5,-0.5,-0.5,-0.5,-0.5,-0.5,-0.5,-0.5,-0.5,-0.5,-0.5,-0.5,-0.5,0.5,-0.5,-0.5,-0.5,-0.5,-0.5,-0.5,-0.5,-0.5,-0.5,-0.5,-0.5,-0.5,-0.5,-0.5,-0.5,-0.5,-0.5,-0.5,0.5,0.5,-0.5,-0.5,-0.5,-0.5,-0.5,-0.5,-0.5,-0.5,-0.5,-0.5,-0.5,-0.5,-0.5,-0.5,-0.5,-0.5,-0.5,-0.5,0.5,0.5,0.5,0.5,0.5,0.5,0.5,0.5,0.5,0.5,0.5,0.5,0.5,0.5,0.5,-0.5,-0.5,-0.5,-0.5,1
outputCount=26
weightIndex=0,2626,42726
weights=##0
##double#42726
   -3195.0202034238,-0.7748029382,3069.9220713524,-1.4177340461,-39.843938603,0.5464038549,-3.2381872761,-1.4105462861,-0.3635596097,151.3292281271,0.4533037057,-0.5910468319,0.8564372475,-0.4973842517,-0.302631478,-0.1354795906,-1.2055745652,-0.2701593253,-0.6307427717,-1352.9738048048,-3.0106590873,32.9625852453,-7.0861062871,-1.8399233821,-3.3025717784,-1.5224549711,0.0619636779,132.8177946819,-0.0930613618,-208.3911120474,-9.8003311133,2.178160122,-13550.9309027122,-8.4657051834,1.2455589996,-0.2809123966,-325.6375319116,-1.9437037692,2.074030628,-9.9946362195,-11.1961569403,-1150.2206553327,-1.2872976587,-0.5780837151,-0.2559491991,-0.6267965736,0.0980733579,-7.7812864884,-3846.7662251366,-2.2343031839,-19.2060637596,949.8670978333,-11.7134153525,-20.1820544005,784.375027636,453.8258980856,0.2764081154,0.2283028075,-53.3977569949,-0.5717387888,-44128.3008581678,0.3799108055,-18527.8454594678,-272.7678997079,-0.4388404676,-1.1928670034,-1.717683665,-0.1086169409,1.7475171705,-7.07069543,-43.5266192335,-33.1317272368,-0.261072717,-2.2848238123,-20.2105347196,-573.979901916,-78.3196759414,-21.7788855107,0.6618510473,-0.4885340598,-93.0000357815,-71.018140588,0.7601639837,-1.1861350799,-1.1596219693,-0.137665335,1.5529100916,18056.6927858398,0.4710108726,4595.8644964787,-782.2026026161,0.9253708132,9628.7624067771,-2.6119746479,70.3804192503,1.0366264439,256.9640974576,-3.2691728372,-0.4623900492,-159.8659218128,0.3877414506,-547.6706674284,-0.8872414793,-0.6078027839,-0.038739586,-40.2404395623,1.2275806892,8.9751026033,3.8551711195,-12474.4235041449,-0.0574055223,-0.6090162703,-0.8431058914,-0.420893049,-0.6658345356,-0.8562499249,0.1744781815,260.4597307482,1.6969452253,-1.1445653304,719.0930828658,-42740.3282070416,1.3403958441,0.041909587,752.0255187449,-3.9652821385,0.1115691468,6017.3033384147,-207.58130896,0.8967248128,521.7391275484,524.1019378274,3.0732711569,0.7563495502,-0.4044536968,1.356316439,1.2778778275,-2.0352498375,-1.1921562838,0.2310026354,55.489336799,0.4645441775,620.2367930465,0.4041890453,-31.6348187961,-15475.4503494973,-0.2815593879,-1.6072177133,-1.5485864552,-0.6329174193,-0.339986523,3.6598788643,-116.622056836,-16935.2241513062,-475.3432271158,-17.4809358123,-0.4921038422,-0.6825333933,-0.064094118,-0.8350782785,0.6311965182,49.6727270146,-1181.9719527756,210.0232804769,-0.1352516742,-0.9124433053,0.6059163953,17382.8013732244,-0.5992027743,2.0175546814,-31.1511334543,-168.4833816405,-0.9019286021,-0.163554274,-0.8663242378,1.4127042385,-0.3028992353,-14951.3902605428,-0.4446787898,-0.38445421,2160.8348518697,2214.8850311638,-1358.4853797556,-0.1236288019,1683.1605695722,-3.8828738024,0.8978089025,-1837.610278725,6253.335900112,-0.3399225423,-208.6994572995,-24.5791695609,1.3861230404,564.4533187862,0.3206350464,0.7546613136,-8670.9212309036,4528.8691112006,49.1356746363,-0.6734034431,-0.5546210807,0.8861226332,628.4607194155,-0.3247658329,-134.5182372306,0.3403733119,-0.7081344936,-21561.0953519472,-2.5188191905,-2.2774559234,0.0836303981,4.5757282521,-0.0178326316,0.1126308877,269.4687812245,-0.7971455667,-0.8236953403,-0.0420242953,-3.7860327084,-0.3219379941,-0.7107920168,10.5563299032,-0.0269218475,-0.4872841678,18487.2723698679,0.8022269024,-591.0071567024,-0.7651617576,2313.065338765,4.2633885356,0.6630325129,-2826.4778611609,11.2710488787,-0.0708039816,-3.2963501415,1859.9370435793,-0.4615242815,1.2590005169,662.5195048736,0.4932033299,0.4759529279,317.1902159953,-13.2437216304,-6434.9367414747,5.5448257103,-0.9107557256,-21190.241983775,0.4724225465,-10690.8705095103,-1.0844113697,-2.9651095822,-101.4488555323,-3.2537501087,-0.3249262215,90.501433231,0.1397826319,0.6727907309,-7.3342378619,-0.0251012328,0.2179096047,-0.5920443302,92.4062135644,0.2926380607,1079.5753891819,-7445.5410749327,-0.5123017826,-1.984256619,-0.8616389075,-0.6872393557,-0.4287508771,0.2393069703,-30963.8174734947,7619.2166145352,-4.6799692743,0.0255263441,-0.3799524802,1.5757614613,3420.7741754936,-0.1428283641,0.1855629655,0.5472187131,-4477.2088235731,-0.8329615317,2.7028702121,-0.8143534492,271.3252264396,-0.7766806103,0.8532990812,-301.3560054214,-1159.8869690737,0.2011170719,-0.7505908597,-0.4019796077,-0.9610686034,-18033.0098693043,1.3135939659,-0.0052161457,55.0067919928,-23992.1970633549,1.4591116884,-0.1559601023,0.6470530646,0.9125806252,-34.8670779704,-0.3466785746,-0.1968021205,-6.7318173593,4.2834151195,-22375.7631139881,2.32407798,862.4296501066,8.9574801483,1586.6582828225,-0.4506579736,0.3704307686,-0.5909410108,0.454269587,25.1647921181,3.5382765506,-3.205457697,519.6810664004,-0.6826960401,3618.9807529361,1.4209386962,0.4253749367,-0.0317230922,-1.880161589,-42.5828748712,86.5610027602,-614.4013872465,-3.7014604287,-0.2332397481,3969.4004301809,737.7240592236,334.2792957634,-0.5755765454,78.9649788551,125.9423262036,3.1717874093,-1338.2231084768,0.0012759401,0.1785383476,0.8772440532,823.5283598734,288.5956331842,61.2881463023,-22639.5375810924,-6075.1941583673,-0.7483245338,0.063458184,2.5414801393,6831.9407114334,1160.5388773484,0.4273174965,-108.0588770144,288.5995363638,-6611.5420763335,1137.9407266754,-15.8778041852,-4.722382976,4.6601780499,1116.8197022746,0.1378034342,0.9776928013,-43564.1176118779,-306.2994941031,-790.8738676182,-0.6983258005,0.7074326727,6436.0495675541,1.4790237111,1.5814972859,687.273980672,0.5120009278,-6.6192402023,-0.6627931578,-0.3812457089,-5.235531602,1.0995190741,29.7257416969,200.3409415289,-0.9150690208,91.0400248091,-0.3627414825,-110.1916235509,1.1796438959,1980.9600006225,-9607.4173015873,49.7775254042,1947.3826281929,-1.5289400967,1.5308919281,3.9129670945,-2524.7368521001,1.3798362964,0.1349184612,0.8204239566,1.2895389971,-6436.9673996891,-16459.1609605442,3550.932499576,0.8462172607,702.8872894921,0.2019893924,-0.3302386193,0.004697343,-73.8517892563,36.3736957331,-16449.0594415309,1816.1109982772,-1.0421324126,-1.0513576789,10.9285660193,-838.459355143,0.5026971901,0.564119392,-0.6240244831,0.37391949,-0.0849147856,0.4674830081,-0.335555728,1.1099252839,0.6475056635,0.3684124763,27.4821214633,-0.1350433494,-1.4266581752,85.169211574,340.490541325,0.3408954002,13.5042340954,-1208.187817667,-0.0896095763,8202.6587893787,20.0183841433,1.5017983452,33.3121044457,83.8517680363,4.325415647,-0.6255456597,-113.2272392263,2277.1562447321,-0.0388319449,0.5426416883,-1.1989548827,149.2536231103,0.3889700394,-730.8064149524,-1658.1608157464,1.2234076276,-1752.7265372845,-3.3234202936,9.8974837755,34.6277321867,2.0799744346,-7320.084786951,-2328.6054931497,-4.8425478227,911.0193968452,26.4759429266,0.4196019354,0.6087601469,273.6144284254,-0.5035090441,0.734048996,2243.1347113199,-7101.5286108238,14.1109580073,-852.5470781255,0.0354824182,-10.0132163419,-0.4678385718,-0.2554942247,-82.5834544278,3415.3742598167,-5919.7471783406,-0.4227872499,-0.3877913598,-0.0699610844,0.8064545456,-22113.2582616659,5.2263273445,-0.5228595042,-8229.9903024401,9.3966960497,1090.008056494,-3.4845385416,11.8114186341,-0.3108346681,-0.6925497347,1.193994321,-0.8239355852,0.5835297313,5332.5383046914,4.7340113059,0.5565591789,-3.8820308232,1.4957670992,-0.5464110687,0.5654299512,101.5820762179,1.2613486588,-0.7930602548,-22415.9215172021,0.1255771448,29.4081604292,-0.0657075818,2.7578915036,0.7543060889,-5973.8817393449,407.0835660366,14.6849062441,13.4373567917,1291.5876133822,67.4798443239,0.364948128,-0.2352905832,0.4245470202,0.6092809192,2.2972094015,0.5674310993,-0.4026583923,0.7204803579,0.6467565288,-3.5991956414,-345.7914654477,0.4212497182,-24.2723490616,3.5242777033,-8.1992138248,0.7845895983,1.8014924744,-12088.0957930143,0.4234569995,2.9227107088,8.7305096563,-0.8356825601,457.4124817085,-0.3476789652,-1.0227988342,-0.2895246751,-4.8702506295,1143.7097130589,1.6000784703,17.8456811591,1.0360606605,-1.4511648654,-0.417838174,-1.042186985,-96.3804743959,-0.5609917114,0.2368111443,-1484.4149310438,-4.2500727868,-3498.0134859004,0.6415038224,-0.2320409179,-5803.3213196246,0.220237506,19.0596510277,1.3233178171,-15.8826171245,-0.1969018906,0.5297671916,-0.4081709368,1.6412970003,6.0506294903,1034.7877454089,1.4441415787,47.360988609,-3.1451180725,-3.1242876295,-0.2775213039,-0.0173021349,-2.4079602369,-2400.8105726218,-9915.6506463291,1.1089008952,0.4808486351,0.491170142,8.0352883901,-489.6857939799,-0.2493867777,0.4235597754,-0.3383541837,-962.2878702215,-7.8167525885,0.574490426,-14505.9306135717,-44908.6660995274,0.0428273482,0.3495542894,-105.8395530502,0.4769193186,1350.1458567752,10.5513697015,-0.3980552637,-2403.9665679591,12439.9572571295,0.3021305888,1.2107362994,838.3170852471,-0.0598114229,1.7691380808,3038.9867912899,-0.9749190427,325.3159842776,-3.676132459,-46.0969110564,84.7664584149,1.8640175045,-11395.779059993,1.2128861074,3.2895144049,-28849.2981193185,5549.6790235645,0.0338857032,3.64606089,0.6548639486,8.8311306057,8.2284982969,15.2989351572,69.715010927,306.5871633464,0.0732085339,21.6749848267,0.3310396297,-6.2626468676,-5.8374054986,105.4559306084,-0.8101593588,0.0183022147,79.6867846711,9.468103694,0.6915716672,13.2729455962,22358.0609570128,-0.1777343396,-1136.340967699,0.555806918,0.0797452701,0.3957964558,-1179.6838624612,0.5272408335,0.7912702609,384.1000584594,0.4608135758,-0.4840118328,1.4421038195,16.3521519808,-280.9991687305,1.010405076,-0.0632031497,8.6996590202,-0.7465136814,4.6771971735,95.1772299069,-15.237890106,2600.2573127122,1645.5713118596,-11486.2516124821,-4.9248302088,273.4965532594,-45237.5524595622,-1.0521605458,30.5944466765,1.3267609596,44.1304848048,-22976.3311684383,-9565.7961707701,19.8963300066,-2.7760759283,-0.6036065254,7.0903039277,10.2455825393,0.0674823643,-22.8543243327,-8.681295501,1.2247046666,0.555458841,1.6647638298,19.4141054752,2.2989238971,5.1121753403,-0.8927645203,-0.1233762823,-554.9931298055,7692.2790438982,10.6817629421,-2.2036516518,1.5195478511,136.5368286602,-40.194482181,-313.2893680596,10.8516878637,97.1600707495,104.3387673434,-0.843583558,-993.7634571011,1.1339330295,0.1121347876,-0.423742743,2786.4263025898,0.000472351,2.8302456153,-0.7947656317,8.1352333734,-1.0682766575,0.9970650209,-19.9068511962,-0.7537951774,-0.3476154322,852.391270484,0.8828857724,-0.7436924273,0.2340305766,3765.8630481155,-0.0297231905,-0.4926608327,-0.6400900033,-0.4101986516,-0.0654549323,1.0598872201,-0.186393188,0.4172875049,0.5605593792,34.8643553533,29.5479987588,0.2124993993,0.3927766514,0.7144781595,-267.8839776172,0.8849549522,1.2447572742,0.6872467648,0.1430124731,0.1669194135,-11.5730502183,-0.8422438512,14.5651273119,-0.7119372044,-0.3395403928,0.5805227397,-2228.6984169226,-0.1093722368,1.0710514985,-11615.337354648,0.8755549135,85.5947591388,-0.3574686202,0.8881240846,0.1284085712,-0.6771710519,-0.3781633315,-1.7122327358,0.4659993761,-1.0975229073,0.2890379591,1551.0343413458,-20028.0355342742,0.1642166422,-23477.4156902853,5809.1819144695,2.2287884492,-0.4982491794,-0.0260683662,-0.5061635021,-0.220593961,10.1581764712,1311.6149408576,5044.5878785546,1.6692342994,-0.1371759847,0.5433625865,0.9531188827,-0.433528335,0.0979642903,-3772.6482246021,2.1717698527,0.2959649161,-0.0558377014,-3.7463677617,0.709025609,-0.4963550197,3846.8560366207,0.3255169817,-0.3945507518,2142.9047411583,-130.3915267509,-0.6415659476,-39206.2280733619,-20506.3737980329,-0.4258305016,0.2264851304,0.0381560686,0.5987468411,4252.6303954238,-11938.4203025559,-0.1717686962,1.9361091755,-1.0465040956,0.5760964115,0.0616744574,-15.0721747445,-0.2696486555,0.8254316771,-146.4753599544,0.9935247589,-16066.6589601576,0.8237490192,11386.8880781103,0.9102055917,-133.3951455075,-0.3269390043,530.1140128542,-10.9536258577,-0.7510578799,2.2725802519,1.0834561872,-4.0393474894,-1.4596877445,-0.6859324022,-805.1442324901,0.2131030083,-280.1276348664,0.5167859994,-0.605265213,-0.5775221887,-0.3706674791,-0.8207672814,-0.2309009801,-6.2564828363,-318.8320311994,0.6749527045,-0.429262869,-5582.403332461,0.0616008567,-2721.6164356683,569.3379499165,0.5534234063,2387.3620574116,0.5225532768,-1.169426124,-0.8622185687,-9.854426018,1.3707700841,1.8249158447,-5624.1081889151,0.1436234044,3.3063440655,-11849.0677347614,1.0773366554,-10789.5032483363,1.5364431477,478.3100850722,-0.8980257092,-0.2564848906,-243.0547731312,0.1027191067,-2789.8827557145,184.2675366399,20.3901243543,-275.2298280418,-16068.563445048,-7794.8525466155,-0.0032548382,-0.0509508613,-2765.201664492,1.3308311367,-23.8424622695,0.6825916493,425.4333743588,6896.869663387,-0.4738990064,-31.2445430115,-0.6501612966,172.0642283255,-1865.5049859873,-12.3444251524,94.9105277455,19.4012641714,-0.7990505047,0.090091377,-0.4756390566,24.8360170861,-0.4363742485,0.7626397558,1.3478713984,-6849.7440783363,-6262.5238063776,-0.4433745012,0.6735653833,1.3813234549,3.3898674714,0.7933238092,-0.7541462163,846.7266332225,0.2491774526,16.7119390311,1.1315236448,-271.5254927999,-4773.1255667782,284.7370548005,8.7205923448,-5197.9300479454,5.2651926614,-0.2164685667,-2.1945729737,0.1527831911,-2.6413969828,1.5253645013,-449.5678527517,1.632583521,18816.9168875708,-1.045237735,-0.0901091495,0.1502665758,5.7277388575,-4.6706389901,-0.2268173053,1.2414392493,-0.3230334379,-0.2137992845,-0.2236076863,1.0540894997,-411.5930222739,14.8503693844,4.9719462293,36.4996391775,2.0212299712,2.1372893881,-7103.6977163893,-0.2407821521,-1982.296219257,-0.6953423298,-0.6083947293,-0.0505853348,-0.1722978382,137.0831028228,2.7057911919,-4.0042518737,-28250.4333967347,29.4547086417,-0.4572298866,0.2026166624,-109.6921590783,0.3043883207,1.7956623332,-39425.5500296786,-1.0141777411,0.6021865534,-8189.0875260926,248.4049365366,-12795.3263054155,-0.8765136982,268.8140626344,0.7549379296,12.2672200682,-36103.0065463015,-0.4761221036,11.5493916705,4831.491425922,-1190.4848214321,-53.3522357628,-0.795688747,-23578.1796582989,-0.2064209088,1.0378439708,6827.0494809238,4027.6379016932,1.170439278,-0.2191054909,-8145.5536977522,-19676.1751580792,0.1703706275,-0.5289560657,0.8438940574,1969.2660745569,0.5018176083,5.2120242239,13.7119121359,14.8568151051,-0.1955060606,-0.8029178122,279.7498759776,3878.0538124333,-8198.5940689083,-0.2405847241,-70.914808344,1.2782359599,-6479.1784643377,-0.7043253922,-0.9435911128,3.837959723,-0.745881676,1.0892109385,-0.6531984647,1758.5895529887,-4.9161035737,66.3774742292,-0.0261166667,8180.4882787503,52.9807399149,6.0284694543,0.8307733562,286.3328302247,0.2890898672,-0.4312886075,2.7577236339,-0.7572828528,-183.2506775443,-0.8692661699,1.0863666876,1.0359248867,-144.7194503192,0.287524352,-0.1779808964,-0.103960448,-0.1201385417,0.1784500757,0.9659883148,0.0609600876,0.1459910821,-0.426075246,-2.2260507881,-1.2551823028,-0.2225690274,-0.7041155398,-3.0584679381,0.6314557691,-0.0831408431,-0.0187817264,0.5036704371,0.291641337,11269.8578468593,-0.4118186256,1.0115874034,0.1192008667,-0.8754678856,6.5600217602,-8675.9271910825,0.8732309546,-0.3305028144,0.7478519421,-0.3595049282,0.0262377952,2502.1794848861,0.1419055676,0.9342295449,-2653.50547537,0.3216548447,-0.7735551316,-0.9402123958,-0.6885496777,0.8255428358,-0.6619354991,-7575.3058421962,-20.8377174076,0.0557917188,-12766.4411749021,-0.5600291222,1.5528334647,-7305.8238642446,-0.8852729378,0.8136182136,-0.6883984725,-1.1649917079,0.7736250182,-0.0068300257,1.0192635795,-0.9549604827,-0.0405054741,1.273629485,-0.1040017639,0.1321031671,-0.2584607058,0.1750012226,0.2153138139,-375.9161099528,0.3496023975,-255.94838972,8266.3519478649,0.0983012727,0.4113449194,-547.0168485795,0.1360776469,-0.1254736308,0.7478937342,-5.4630680161,0.9585534215,-1.6892547079,903.7308571367,0.150987177,-0.2240140151,0.5552685059,0.0866624967,-0.9032718283,-53.7923030413,-22482.2210859683,5191.4923656361,-3233.9300716334,-0.5752897989,2537.3975136513,-2.5271613409,-39.7011933788,-0.4068987344,-7033.6567843218,-142.4326027045,0.3086489979,-3873.9964067374,0.9861818829,940.9615472824,0.1593227739,-107.9263660915,-1.2273003119,46.9711716527,-213.8488270452,9.8892784425,0.7110081947,1.0966957943,-5479.0485556113,-0.3654761964,-0.828436982,-1.3116983232,0.5311824153,81.3938500345,1.2236620848,-0.6082815726,35.1156305672,-0.3262487898,-0.9277845238,0.4596631195,0.3594976334,0.5957857593,-1.1470734991,-1.2811811142,0.2514448205,2768.7967411711,164.1446112922,0.5166848745,182.4839711274,0.1828676802,1.2752877565,48.5487989073,-1.1458774187,-0.1233091318,-0.8226312742,-0.7755349783,1.6927856844,-0.6848652305,-1608.7410457771,199.6167504566,200.0533347092,1.8769545096,-22411.4076197424,-612.0136580573,-0.5220426803,0.0604592723,-4.3080538741,16.5949789985,-32270.8558738679,0.6640188265,5467.6613364512,52.3825117431,-0.2895314959,25.7304153335,764.5086246232,-0.2574348211,-0.6551960341,66.3124410865,-0.8443786372,0.0026743069,91.7774341961,-8879.1418823685,1791.0152533107,2.122597613,-0.1575803118,-0.4374296434,0.4675971801,-0.6259279011,-8425.8261435213,-12373.1262715538,1.0467717855,1.0451008647,0.6598034164,2.5372476338,-0.8878393221,2513.1154260665,13.1529939162,-0.3200297203,0.9538274913,-2.2306485953,260.214886635,0.1056968607,-1.0108395349,2.9070579404,-1.0386689335,-5.6146762253,-0.6976154505,2.0525723137,0.2927848692,0.0558240808,0.2944293385,782.1100964784,1.5953953585,1.3572583031,0.2818927344,-8276.6521691938,54.4356884399,-0.6712702369,-3741.4555272178,0.853076232,-22.6928198502,-0.5735977748,0.2745792743,-32.8509531782,-1.7038193085,0.8033983428,-8.5863026893,-41.6349959426,0.1949798667,0.1051088444,-0.5564660224,-3.3553637408,0.2541555341,0.7052911111,0.7604207398,0.0020606408,0.4237348911,0.0838541718,-1.2925721703,-1.7978760971,-8.0907102494,0.4787341608,-37.3526988297,-243.8537525822,-2.1341505532,-114.1713444274,-208.1020432342,-11.232693867,-3.6049792164,-18981.7461386442,-5.7255749262,-0.6367409552,-0.1819757564,-0.6575391403,-17.206090518,45.5930159733,5588.7893213028,-1.4596404577,-11421.0936722991,1182.6633106747,-0.8283357076,0.4296212224,0.7133044905,-3597.8952262761,-12.0366592504,0.3812566269,-4114.3053412627,-136.918101449,-1.62319848,542.54261132,-0.3252710357,-19277.0183346023,-1.3325471413,43.0809438642,-19.8662653609,-114.148397401,1.4083908746,-9629.2966548358,-5.0018108153,-35.330896735,-23846.3213751546,-0.9107322894,124.9988709128,1.4875344326,1275.5995983131,-0.658705971,-0.6604830233,-0.194787559,-8.3358638639,11054.2355820017,-1.7118530849,-0.4180941533,-152.4302783752,0.7343208529,-0.3579638755,-23785.1826681114,-10.5865574275,0.8911945812,-7.9558998033,0.0519602119,7235.8268945746,13063.0372322092,0.086678468,-379.2857223921,-4.3548190675,-1.3826664834,3.7641560373,0.0895782808,-57.1917091378,-3.0544098635,0.8396419846,0.0465604469,-83.8516375146,-48.1825646196,-4.5887668099,-0.9995906662,-12.8170050393,-6.9795225286,-1.0126592353,0.3974632457,0.3095046354,-3.0078883685,-0.5108863728,-8.0670917693,-1.0930775353,-0.8469051772,1.5930182998,2.2952282084,0.5854570228,-0.4237363407,-0.2996129313,-0.5861822323,-0.0312396181,-0.6610863674,-0.8547352031,-16464.6734436251,0.7843261307,-1.0678029064,-14.8768429084,0.04986978,-9.9969281456,-225.3728200886,0.2146225373,1320.2173235584,-3998.9194200521,-1.7117345131,0.0023625755,-0.426912493,1.1972805476,-0.2789201867,2114.4541859419,1118.7622282033,-1649.1962096106,105.3467639273,-0.3106858513,3.2651293844,-0.6022478035,16464.0300896872,0.9745424228,0.2747281986,-7530.0521361519,-3.4032097345,0.5837615535,1758.6447613386,922.7426953721,0.5356697816,0.7463035316,186.3359119442,0.1332828397,-0.9060302916,6840.3731517177,-7.0338249262,-11.4768620002,8180.1245446549,-16.7743768122,-0.882920371,-1.1029830261,32.8436675442,0.1015083371,-7.5533529093,0.3380424709,-241.1004910349,1.3668245439,-152.923839466,18.9986631879,-2.2317806448,0.4390968678,-1.022890844,-0.3094672647,0.7479318389,-607.9258672913,-1057.7095489332,42.6471128244,-8238.5607606214,-1.1330766711,-9808.7423580406,-0.1885879091,0.7866626404,2.5275455277,-2.7213257514,43.1783860007,0.0702117505,0.5630735246,0.847483209,-43806.6661156208,5.8798412339,-167.5795867771,-0.6437674186,-0.6126184738,0.6077725424,1.2042283178,-21.9737807271,0.635367812,-0.0643784872,0.4549576654,0.0386198549,-375.0919320433,-13841.441868984,-19716.3464847935,-0.5522469236,-0.5095911792,0.2887502861,-0.2539975093,-4.8589097744,-0.5372757661,-0.9190741561,0.2664539043,-3658.9174694382,0.6350826317,-10411.5200297977,0.1785792156,-0.0500167858,-0.4087939488,0.0422270275,-1.0785403391,-0.6580148533,0.6049483838,-0.6727610735,-1.0656828357,-7605.7610623984,-0.7049180132,-21747.0422609592,0.8043403073,-0.6064543116,0.3634522871,1.3647073575,-0.8197512877,-0.9107050691,-3244.7232751124,0.6122475002,-1.090274469,0.0246910556,0.1340215443,-0.9640144276,-298.1494375126,-0.6665395641,7.0431578598,0.5855832204,0.359299763,1058.5258955443,1.0761832054,319.5454635811,9.8426087156,-16.8312262566,0.0575293211,-1.1266269015,-18899.7466447727,-0.36775075,0.6086151467,884.3161677121,-1.9974578891,-4985.02652202,91.9403432225,986.8442645467,22.9906001888,1300.7851479861,76.8485624266,-131.3922855112,0.5356624547,0.2756340677,6303.5055831219,0.1329124738,0.8104422134,0.7719230931,1.0677334218,0.8406201525,0.186375458,-0.3950147923,0.4180042823,3.2945434375,0.7922544898,4595.9216290676,0.5983264703,-156.9823407398,-0.3460024226,0.0833163171,15.077377638,-190.0087641916,5.5677908646,0.6778394434,-0.4092924424,-1.681269971,3173.3986117867,20.542994641,0.7654814858,-0.2317914774,-0.4386495457,-0.1505210261,0.0696851968,0.4156232502,1.690802295,0.0622152348,266.2078056582,-0.2411184218,-5924.1236353494,0.5051465983,3.5430717141,-0.532587092,3008.3772099257,-0.6908111556,0.1372980311,2604.0000803063,0.5469876552,490.5222505897,-30.7381849073,200.827249572,-0.1465884457,-460.7421584233,1.8411465492,0.1440604733,0.4378351224,-0.3355036565,2.6569101234,-0.6942420418,0.0871245241,-0.7760818015,-0.5744264816,0.5309910392,1.1088797168,3.8119503566,127.3115786471,-0.1606002513,-0.2861259337,-0.1241066118,-1.7464132263,-0.2706841468,667.4778612337,13686.9405433217,-4.8428834598,30.8555602624,-8.701262675,0.2572227511,146.6899775182,8534.5049682121,-0.7620076901,-0.5568883556,-15.0402855753,-0.573348322,-0.6886650924,-6777.0470364536,143.2948347964,0.3821052419,461.3118058025,0.2412057848,0.3787163969,149.7463157578,2473.9644247458,394.5727586243,0.2545836327,0.1580406943,-43438.0860466143,0.6800357386,6.6985002664,0.7538476825,1.070477311,-20.1788068522,166.116580217,0.2985481712,81.9598201976,4.1475612631,-0.3830623672,0.0039541061,5.2284202525,-0.086385506,-4732.0481959874,18.4841986782,-0.7040266278,690.6563155888,-0.5837141574,-320.9354996132,-0.4838592555,-0.6981245602,-1.4954412137,-2678.0464610193,0.5767502338,1.2064510347,0.9625550113,5580.449565944,-7356.6220890804,-0.9996860025,0.1128239208,-2.5838293507,238.041877323,9.5066967499,-1625.4580031669,0.0640401754,1272.4167086366,-32956.1392511197,-0.2140118642,-22.8176475439,-119.1966710271,0.4212744294,-26509.2930005703,-32934.1066164538,-0.5479691935,0.6722767029,-5949.6816720091,0.0615580897,14.9936377016,2518.9436268798,1.0169917543,-0.8028398333,14141.8784625851,-0.2040712732,-1.7143779903,-8.6325995604,-291.170022114,0.4049852566,1782.7489971781,18313.0123909762,0.4153796908,-0.2753829032,5.0595750022,0.5766525855,-0.0367791371,-0.306569704,-0.7127949068,-0.6881897698,-0.3094981781,-4.2054650389,1.2945162783,-233.4925590001,0.567121781,-42.5660186802,1.170368654,-0.1361252654,0.7515326846,-33.969410622,-0.4632303513,1.1369248949,-1.8120227529,340.7184087904,-0.0820460518,-377.9214379665,79.1258314822,-0.69543079,-7877.7479649726,0.5672990854,-45619.1602833966,0.9039420283,-59.3312475953,-32240.1067918087,1.3876153331,7.0811766827,0.551847249,-22190.787398233,0.688685521,-0.6515046114,0.6502870742,1.1856465371,-7.2204207975,0.8928452748,-1.3863618935,992.571494144,0.9047589956,-1.6762100935,-392.5704440697,-1.3984292528,18.6539839858,-16603.2037602276,94.0214453476,1138.6987959694,-2750.7140260258,-0.4160433256,5.3610649623,-0.845371949,7984.682379322,-2659.7000932422,0.6732867264,-1.5517935477,-5.5011525662,0.2297115211,4.8569145867,0.2806708553,1027.7417339534,-9.0366398732,-0.3291365218,-0.6097349193,-168.9962522833,6124.3170315052,0.4491182467,1236.1220947615,-0.7956812685,-33.8004138963,0.3322197206,55.4444996477,0.3687618715,6.877420681,2.4365611791,0.7127323325,-0.9224097937,-0.2510608303,-0.6545478109,1881.6388737834,52.6505133782,0.7023685463,-4.2764603777,4.5161411705,-0.1580956734,0.5380280387,-88.6490342234,-21.8050924049,-0.3213064109,8.2139771411,0.5389082672,-1.0833586897,0.445201234,175.0147438087,2.4769687478,0.5456242769,21.2998533054,0.3655192526,1.58058032,0.0392766435,1453.1579549943,-0.2124875202,0.1208123365,-0.6071921034,0.1044699825,3.1175502954,-2.1426385966,7.9386790145,661.1603952953,3.4771489918,55.3830984202,-137.1691725288,-0.0659229523,-0.7087116895,1219.5613584584,-45.9158440595,-0.2156294888,-1.0465152941,-171.1793011701,61.7520627611,8.2242018605,-22104.5939505875,65.7000624987,4036.7120052513,0.470558819,-0.9155988188,0.0744242746,-1191.994694436,-734.6290247078,20.2090849214,0.5287011369,-5.042963705,0.1066575951,-0.5886910119,13.4607073455,-1167.2371859998,0.6534247237,-0.6274320447,-5046.7213502156,-20.1060241371,-2431.9407010596,8.5459554206,2.8239759462,-1674.0003762634,21.4553581804,-7.2457486793,24333.0501767674,-14524.7034883158,0.803372545,-6.1651841182,-0.6593266971,76.566029651,-1462.6968360497,1.8643373026,-14161.4602157601,505.6180377161,0.3077597107,-0.2591352949,-0.3239489459,-0.8572389394,-0.5493623371,-19570.0065105987,-29151.3494917285,-0.4691216442,0.60305943,0.3085062591,-0.3857686454,-9.37089167,984.4190982036,-0.4566096636,-0.7294778501,-14184.4462630453,-2.2299910248,-0.381547021,-1.1449662421,-33.0692474714,0.5266855322,0.7496983913,1.6232443586,-1.8486020763,1003.6852627259,0.8163339264,-0.3753857841,0.7761577078,0.6224367652,48.799594828,-57.6033899593,-26513.2659554282,0.1729124132,0.3911335925,-4705.657437964,-0.831620836,-7871.1925688929,2.559347927,-0.9422740043,1.9120711995,16.0435319374,19.3215751888,4.4070601494,0.1835904257,-22312.1705733231,-22329.3588896854,-1.047478059,-0.7452137934,0.4920082179,0.3657245993,2.6011694651,-0.8205332435,-0.0106738617,544.3838308769,15.2150661805,-1.0490803286,3.9197390886,-1.0712949655,-12.8299494616,6382.5018434591,-173.5231029197,-0.6559429818,-1120.5650836657,-4486.5261213379,-0.645888113,-7765.9059250312,-33.6779824054,90.0861989836,248.3493968313,-0.4874452635,0.0765070618,-1.1323852514,-2255.2436613526,642.601280119,1.1329088567,-0.9751952458,0.2808955174,5.7491178917,317.8607668318,26.5262927798,-6245.5622538344,-36.4142440781,14.9038100597,31.4130022618,-3.6557916243,-1.0100942833,-0.1723057197,13.6078658107,0.4108884212,-30.0266402252,-0.1205849838,0.3888413417,-22.3954635401,1677.4595894201,917.0709209556,0.3875755577,-0.2139600962,1.3280690062,-13096.7753921036,-1123.252385971,-0.3872601816,-2.9372836235,-1.0044286817,-3.3709651346,1.1175289504,0.218731151,4250.2167833378,-2759.0731482483,0.3773325144,-0.3527603836,-2.7761613028,3.7009297295,24.5352076483,908.8519888632,0.2750341718,55.7887290352,-4.0212114617,-6236.5751038785,-0.9946927042,-1.3851067487,4356.9589806832,-34.4893397385,14.6962682948,2033.1521786746,2.9556549908,-1.0189581914,0.7281107934,0.1575578054,15.3706608089,11.9769420477,0.203704693,213.9897858341,-24.2513405146,897.3061864062,-0.500336719,-1334.4449096477,-0.5848477446,2.6586581824,0.2043523342,64.5788953348,0.2336807732,-15114.653978515,-0.3049519905,-0.0338669684,-0.3387744137,0.2005094097,1.8036805616,0.4300124264,0.1954651262,0.2082007779,-0.1002950687,-0.8416592857,-0.523216335,-9262.8439053211,-2.06714067,-0.2794398137,0.2387099136,-0.7656862753,0.5826666479,-7478.0725790997,-3163.6362797978,-3.6113855123,0.3931727592,0.2301034399,-625.2664893245,-0.2972994704,-10524.0733210462,1594.2991581158,-1.8703633203,0.5861309124,0.5254228782,1.2947091039,0.6395752244,-4.1127939235,1.7499262304,0.4342128844,-0.5431604244,-5.9460002661,-1.0216985786,-1.8152858052,2909.8687460746,-0.597514481,0.0025098984,-0.7589071463,-10.6539083858,-0.4855291577,382.6370048282,-0.8694933941,-2666.1540381193,1.2478839331,0.3204868009,15499.1080596935,-368.8840915675,-1825.0584923051,0.0359901887,-0.2006978458,-0.7297554285,0.4760155007,374.7519226535,974.5625059513,-18193.4795437792,-1342.6620594819,0.2391746831,-1.3031758531,-0.9007709772,1.4789155028,-2.2638391077,691.7564411196,-0.1888434695,0.411649375,0.1342192266,0.5292843722,1714.4456117764,-7737.0623744269,-12587.3230919108,-0.5110442225,1.6104844483,-22540.2489610856,49.2351960667,0.0632425796,0.5177136936,-2.4305096203,0.369854123,0.4889973131,-2.123131352,1.2281602181,5424.933619372,0.6592856441,1.0605482147,-10082.7684722468,66.5186553404,29.5096009866,0.8209384773,-72.5050568541,0.8747980258,0.7688196828,119.5978411585,0.7882917447,-2671.0166536591,9.5065394463,-14.5222778763,1.9798718188,939.9297779837,-44863.6124394701,2.0568589216,554.4783263944,0.3043465002,-133.6388306777,0.265002577,0.278168523,-1.1889787107,1.3246453911,97.1007044685,40.8618758242,2.2642974662,400.6395872606,-0.098446027,3.6896448314,1.7952422243,47.3619259709,-14.2555808363,6.3221979416,-0.0545357935,28.9843424454,2.8210003431,6694.7546082547
   2.899772265,675.7096249857,-1866.9851867905,-0.333334614,366.0082268248,1383.2654686415,-19149.4008393966,-0.4104752882,-36.4592578749,1340.6684247939,9.0482781952,-3689.3079186228,9.3080674504,574.0649301456,933.8753101566,1773.8857858025,-101.7623325677,19.9277176419,220.8460858868,241.2310364725,569.9225276932,586.6119021386,4.3800198497,-66.2550912455,-354.0507871292,1363.0977156826,-1.1842664898,91.8333923459,108.4781828259,32.2804014528,0.1822973567,96.880259917,8.5327843058,109.5532495164,677.4088153194,-0.4131222836,4308.7194771125,3.625881181,-2.4231925665,0.3442935064,8.0410704047,379.1648500831,-891.8524163876,7984.978170107,77.3076935211,1.2472689786,-0.1084103934,-0.6395605384,575.1858840414,1640.7650867074,-1.0183117897,52.7238377704,2302.4661656744,27.5728496469,4.3812011513,0.1082572585,7.6667741285,2.0136503406,21.3145605849,-34.5272875838,22.9909798525,-14236.4267882238,1.6009081699,1.0156821901,114.352251319,0.809826965,2.1888917448,-3.9999778178,-2890.7810729176,-32535.6785936333,2.8285669033,-37361.9004429127,-0.3412791777,-22999.5357446351,657.7717589855,-3464.5670801685,2.3003756519,5400.7216139644,1.6794805809,-0.5836968651,-10.1937311238,-8.8720104988,-1.7197681838,1.5161984481,-0.8228560063,0.3981694683,0.9305359966,-26.6583078805,-0.6183797626,-0.1716268105,-0.8971300626,-8.5847936416,-0.2823840672,-131.0361318652,-0.3639693349,-29.2234742328,0.3528769761,-4254.352581622,13.8212417676,-5.486723731,-503.6505654255,2.6778696075,-10842.6728869371,4896.0708933413,-17.8720510169,1.4213741286,0.0005346143,0.7696629291,0.8152019381,-4559.4994141141,0.1438891747,-0.7013085797,-3874.6671380077,2302.4379745764,-30.8310611245,-0.8392671722,-228.0799924538,-152.1842548942,0.1015232669,1908.1563164372,-0.3604171963,1459.2450675304,671.7207227817,0.088933546,-0.0227300989,1.6937730937,-176.6449907608,-190.7192252288,348.8555319929,-0.8739914071,-0.5033756173,47.9443893071,-0.9787676182,19.6984861352,-0.1313767103,-0.1708901789,3945.6580484358,-0.3583315201,0.1942715124,-5.6299005875,-0.3250664992,0.1308083615,0.0743844724,-0.3908485074,-0.6673111555,-0.0352091421,0.3131506338,8.6957615275,0.5135421752,-0.0187502504,-10.5960492919,-0.1757618255,-0.0343492238,6.2944422276,-32.1453442273,-0.1652511035,0.6440350351,-293.386037186,-0.3954254925,4145.8353275333,0.4313056576,-44904.2663472865,-269.967896432,1700.9530069853,0.4190386018,2.3851662524,-386.6027449787,-0.5311395464,39.4212932475,-0.1373604443,-809.359953043,0.5764306636,48.8796011965,-0.157630817,-874.7635671448,0.2081817147,-83.0744869421,-18.8211845045,-0.4082040506,-0.7258872921,-16.9363855669,0.5590161675,0.3159887127,-0.0506807676,-0.4331913276,-1.8495580133,-0.5529228083,-0.2292312898,-5129.1702549498,-0.7471838763,0.6934020216,-10885.6403206312,-6.4098090486,-0.2953405242,-0.4993610101,-0.1000525912,-4367.1857095306,0.0650701567,-1.1422811662,0.2716755219,-23427.0919999567,221.1624637726,0.5358568258,11031.4677241236,-21255.0817278361,0.5989710546,0.2473735121,-0.2985432985,0.2880582353,0.1237420098,1530.8137640422,-10827.7455407392,0.7242164297,0.9884651712,1.3484276514,0.9146086715,-560.3615197633,-173.1976988883,1873.6361938087,-0.5122543942,-0.7481418383,-33.5408641304,1.0292149607,-0.1955004732,-24.468400437,21.0184491634,5288.8020556576,0.0028367393,0.7889522165,6305.2851664732,0.5351935515,-42.3410382108,-9323.3974313584,-0.2371602861,0.0690858026,-113.7537608742,-10598.7817567642,178.800343307,1.0767880522,-0.2319382489,-0.0456444694,-3875.4640470955,-0.4136606039,2248.0757000201,-8753.2863251829,5007.6210105358,-0.4005141238,-0.9485434809,-45.3885138169,-0.2348890589,0.5076440617,0.3963343659,-0.0716816742,-0.454117685,-39.8906552055,-317.359366257,-0.3039818724,-1.5423146347,-0.3878492164,0.8385474477,-0.1977796109,-4187.9309838771,0.14628674,-2693.5667143994,0.7376888856,-0.186407593,6466.7326676093,1.9666874796,-0.0466898064,-0.3459597208,-26.1703919543,1.8973916783,0.554467966,-2264.2643494062,0.783930926,5797.3471585825,-0.665077549,0.7203494491,-0.0789354809,65.1407830659,0.1088604293,23.999205181,1.0152991342,0.2732950326,-0.0476124759,-0.6370750245,-0.4700639026,-0.6216147442,0.4609053582,-0.5092784827,0.2831706065,3.8047126929,193.1645249376,-0.6517021303,1.2399874722,2.2407968142,-0.1102746459,5833.7113205105,-15898.6294763599,-46.1267259968,10.8801700956,11.0260474484,149.544356082,-0.1128656161,27.8683694138,-32950.370209323,-0.5530146952,-0.8570114803,0.2266877081,0.7855129797,-0.6556128309,-0.6689602708,-1991.5700634825,-19287.7313102394,-6178.3998399552,0.0229898568,0.8842494788,0.1163481872,246.4360495603,58.1290943541,0.5789858898,294.9298247929,-0.4904902316,-0.8492910917,30.3644229878,-0.1778842033,11737.9122304401,1.2398600027,0.6511565105,2.129344983,0.8957269085,30.9039080147,-0.4257482346,-1.143745391,0.4425143693,-38325.2344079317,1.0779000403,0.3695628949,-0.5750212061,-0.7565681939,0.7098558951,0.6400521066,0.9367396648,-0.366447673,1.9366549494,0.5486677504,-0.5752484359,57.5308121296,0.1321474403,0.6482470729,7255.2600191816,0.7844038398,142.5812025075,10.860548286,1.3979667889,-13229.5246365351,-5393.1505443145,-0.7152139027,-0.1955249918,1.0111815859,245.9327157449,-1.192460288,-2247.5976149534,-1.6452146692,-0.0920874104,2.0215350747,0.5076881711,68.5744629517,0.445259663,-7949.0468636968,-0.0942144552,-1042.3143052126,-1.0200113085,-0.9658424616,-0.0110127453,-0.2117778227,2.326308098,-288.1182396226,154.9357919151,46.3043477388,-3.5883564908,65.8849135937,-53.5034203519,5.238061026,4.5975729251,-12575.916059093,125.9112478906,285.7177389834,26.9189281478,-0.4187028775,1.8299934541,3.0971878132,9.0916115509,-4.3453880114,-283.7136737408,1.8557319851,-10.0228402283,-23.8870435739,-4.7698401651,-140.3288403216,-365.8814248739,281.9822003046,112.6051376773,-33.679617601,18.4144678069,-293.9495372865,8942.5159018442,-867.1327984903,9.6490719306,-102.3469704066,1.3218784123,-8.1529711355,-221.2671622319,11.2515827745,-14389.8182124313,2196.862994297,-30.0620083377,517.7536507764,21.0801879215,9.8504653247,-8.9534927354,10.7027732898,52.6618142402,172.0137665157,-1.2160791603,57.7511178377,-1.9844216675,-2565.9053343211,9.4548391677,109.3131075835,-290.5583266984,-14.4686520181,0.5893961099,9.6190218844,2945.6812311192,-220.0795612381,1547.2641205454,-7.186031845,10.2017212047,0.9747774261,230.1496845855,-0.3797707616,-10.282077412,1.4747219971,-7.8413784504,39.3195278449,-13.6785324329,1792.9509835386,-1.3037202677,2.0206202337,6.4221108927,-583.1893672828,-1.7692536725,-20154.3005575655,23.1174499941,4.9300503376,-56.6756500388,-1.6002401295,25.0104239405,4.4960434261,-0.3205363751,-1.4531421321,-11.4934997788,-287.7517654512,-673.6288981683,-101.3272927859,2.4763204577,24.6158698194,-43.3277588455,-82.9249006718,-7299.5568648451,73.8173343349,-0.5956058941,128.046979335,0.4322735096,203.083596379,-0.2454108877,2881.9483738378,141.7905121325,185.4509053161,-0.6112489731,0.4509360983,0.2113722059,0.7256723773,-35001.718055903,-0.5641558455,3.9626000426,-2.3117749992,-0.0492130572,-0.7793478465,0.230563849,0.8890311774,-0.2671572131,-4489.0824071396,155.271330508,0.3905703078,316.0295653048,4.6772157486,0.0273040755,-0.2418062222,-0.4914290281,-149.2296255489,-0.5863351938,7.8391300188,-6217.215371323,-0.7825772411,9.8695804772,-31504.554061188,25.5763776916,-0.6638653939,8878.0970660713,0.1751111887,-0.8825515948,-3211.0102590023,4.559499921,-1375.8523861032,0.2358509618,119.2079805315,32.0920578692,-0.2763639808,1882.5904757655,1889.1139518099,-12908.9411791822,2.3346208131,2352.2141067632,0.2015217186,-10.8302442429,-0.9633182588,27875.3895018583,0.2551151303,0.3288590883,1.6665717982,-922.4868258578,-5202.5511432479,0.0028623044,-12.2722276884,0.9195653047,845.4709830025,8.2341611042,-0.2565221917,113.5423282481,-891.4691369592,0.3660237203,-0.7720898239,0.2838879387,-0.7597301128,0.3420943911,-0.5585480145,448.7688472755,0.4454492546,0.5211627621,0.375348722,632.5286029594,-36333.2442857988,-23621.3679111486,-0.3270545873,12.5042420738,0.7631827627,-578.4499934267,-0.7222527817,3.2136676132,-0.4151248807,0.2818103206,4.6510111173,-35.0735482923,1.0391075573,-66.3371246225,2650.4244215474,-0.5861531563,722.815457167,3.3019777836,4.3328990045,-0.6108968192,2656.040774948,195.861826836,0.6426988238,0.8968986067,-0.7642963635,0.4104083933,-0.362170107,-0.0310140675,0.1114961985,0.7579288427,0.3373269967,0.3824450336,-0.8900759761,-0.4871101791,-0.5886850946,-0.9509041639,-0.1523216124,-0.941858116,0.2842466287,0.8292504933,-0.6469370261,-0.8555213373,-0.6658166066,0.6563948315,0.5503281944,-0.1963742021,0.2574039932,0.082403981,-0.5846186951,0.89638523,0.6716761856,0.0508653076,-0.200185696,-0.6065988616,0.3508310234,-0.306867833,-0.4301039549,0.2024099824,-0.9513506929,0.9255218028,1.3453659479,1.0207640414,-0.2293508111,-0.7166611202,0.0711962885,0.7085636552,0.6724252403,0.131469797,0.7495979183,1.5008715774,1.6745915987,0.2090463734,0.528153241,0.1144611684,3.2724290784,0.8827449956,-0.1177756254,-0.361008818,-0.0099405267,1.0999111413,0.7836423641,1.0239452868,0.061365231,-0.4127351522,0.4001807352,0.5197569144,0.2790232749,-0.4423457288,-0.8026283449,0.2969508344,-0.3417144995,-0.0508929993,-0.3846794114,-0.5225956594,-0.31595168,0.8514672745,-0.2238350475,-0.3043248747,0.6580028415,0.7106023969,0.7084659453,0.1740220358,0.1947754515,-0.1431113038,0.6124056786,-0.3195992172,-0.4655274418,0.0755736109,0.3769829315,0.4047652804,0.7520525346,0.2396631729,0.5504180865,0.5076253563,-0.7627559571,-0.0542825995,-0.6593874146,0.810374336,-0.7095325038,-0.0689997619,-0.8266646938,0.2619109946,0.2184937731,-0.7191441672,-0.0670422252,-0.9464296017,0.2471056708,0.3118977532,0.2670415162,0.3942525555,0.0989203521,-0.0790160215,-0.3475492361,0.9346585772,-0.9554698114,0.1920939595,0.7457226296,0.3851013701,0.2331310374,-0.1999429371,-0.2928493236,-0.6331984342,0.6521955276,-0.2221685009,-0.9171410381,-1.0263346979,-0.0646820921,0.5986684333,0.1168240801,-0.1950929865,-1.2343126556,-0.451591413,-0.3845842221,0.9208632272,-0.5970504665,0.206579908,0.2302248579,0.2048115288,0.4102992605,0.3164277902,-0.5052845873,0.7356736616,0.4908668389,0.0585303462,0.8593923407,0.2756134255,0.3735343834,-0.9537185533,-0.2750871686,-0.8344616741,-0.5612052316,0.1301347602,0.2032602987,0.1739988623,0.0316694256,0.1581971988,1.1180787089,-0.2192794161,-0.8648979158,-0.5779321669,-0.3500891829,-0.9211794677,0.8265508548,0.1634082507,0.6848060729,-0.1143223361,0.2302730538,-0.5560731955,0.1088117032,-0.0152878976,-1.0184575483,-0.255603696,-0.0221758051,0.9202871918,-0.0447044357,-0.3762718079,1.1491786137,-0.11007582,0.4812594696,-0.4239308431,-0.6821193614,0.8602173181,0.3181954333,-0.6778625102,-0.9358536522,-0.1554872133,-0.1704344633,-0.9014442309,0.6918978985,-0.3233444204,-0.8878102159,-0.9608426938,-1.5661392981,0.9737149595,1.017947291,1.1011959621,-0.5922730163,0.9003792697,0.0370422174,-0.9804440151,0.4400142396,0.9332846156,0.855706842,0.1282793624,-0.8969725929,-0.0202858954,0.8993294179,-0.6294976772,0.1346975273,-1.00118813,-0.7793027518,0.5253913465,0.4484983115,-0.7401312874,-0.8202352912,1.9796713138,-3.7837558026,-0.3078214318,-0.2972278265,-1.0719991624,-0.7137095387,-0.2356900365,0.8995343502,-0.5626236611,0.8935272606,0.7856002095,1.0123670987,-0.882432125,1.0025229826,-0.6046809387,-0.4439784864,-0.8881224227,-1.1319484175,0.2755519888,-0.4024471225,-0.2587135329,-0.8002449553,-0.4948063464,-0.3915210386,0.450164206,-0.9022145917,0.0964738169,0.4584207546,-0.3664079154,0.3143163112,-0.0579026149,0.3555844704,0.7931202363,0.4880742056,0.5293534118,0.2994992436,-0.5963896419,-0.1434215801,0.8970803446,-0.1439685532,-0.223688194,0.0351432202,-0.1918333799,0.0344262589,-1.5473822315,-0.8879847348,-0.7278471328,1.0171619843,0.1593156962,-0.7570884453,-0.1757978498,-0.8221042018,0.0567190219,0.7630511038,0.5147790749,-0.7822657912,0.4728787329,-0.6135130683,0.3617908684,-0.5168225032,-1.0448625705,-0.9427283688,-0.0156686542,-0.9450871075,0.2575425234,-0.5419571673,-1.0450231616,-0.5806122736,-0.229981077,-0.2660096409,-0.5166128655,-0.3821411465,-0.7583604778,-0.1149674245,0.2656280572,-0.2449774335,0.9792579128,0.0184246228,0.6186092064,-0.0178496812,-0.0477377619,-0.1938466632,0.2034304577,0.3994068564,-0.5117728386,0.6657190533,-0.7608772398,0.9437691379,-0.7805114368,-0.64110773,0.2403349873,0.1853075696,0.5586904302,0.4706826675,0.3833362504,-0.0269369093,0.3411502853,-1.3276626969,0.7064511947,-0.7744176653,-0.3019995382,0.3456659969,0.6785835845,0.1983242232,-0.9232634194,-0.8060274922,0.1191870705,-0.4272660071,0.3375855329,0.3520523178,0.2436883382,-0.1514141634,-0.134431579,0.2101524352,0.6344283254,1.3023731221,-0.777792525,0.4121195781,-0.29518606,-0.5276851501,-0.3673174289,-1.0517075558,0.2475009297,0.7617682725,0.7990613946,0.9352791559,-0.3875098329,0.8194096079,0.8384440486,0.3122997283,0.1541628011,-0.9223205834,-0.0353968605,0.2164822994,0.0355532658,1.382462875,-0.0949969059,-0.6316391734,0.4788136422,-3.3950316626,-0.0085057734,-0.6357575619,-0.8924706509,0.7918684419,0.3703082456,0.3046652628,-0.9016033666,0.1864134841,-0.518275722,0.6660660567,-0.9142982379,0.2238163581,-0.3583029741,-0.4119136781,-0.1696801721,0.0302376786,-0.9033168373,-1.6137766262,-0.9152661826,-0.7181055934,-0.9074400804,-1.8334476148,1.4151322536,0.4714919466,1.5954113485,-0.8210750354,0.9684627221,0.7481796801,0.7090249051,0.0167344587,-0.0079541003,0.0761171234,0.6113662202,-0.9233138213,-0.0400983964,-0.0833131799,-0.2857178311,0.1685244406,0.9042823967,-1.1718821888,0.0151561206,-0.2322456981,-0.7039893594,-0.6733817745,0.0843544835,-0.3851736526,0.9067736853,0.7555376403,-0.1655424499,-0.7271218122,-0.7965065719,-0.6021774955,-1.0620019581,0.6967356894,0.5734164559,-0.1298184173,-0.6326731035,-0.6441948606,0.5469358814,-0.4355202795,-1.224138799,0.2479608447,-0.4257083203,0.6569645521,-0.0847787104,-0.8881157317,-0.2669555468,0.2827681483,0.3214184721,0.8095584823,0.5858719132,0.470420087,-0.2493126329,-0.1011380022,-0.5720910806,-0.6182368508,-0.4434301747,-0.3962583529,-0.1420811854,-0.0575844003,0.8673596739,-0.4543573039,-0.5519183686,-0.1902829289,0.3852380727,0.4060874312,0.4603842912,0.1741585106,-1.0938261253,0.0601412946,0.1147487857,0.361062006,-0.5846342921,-0.8721562284,-0.2946217018,-10.3714998296,0.7104046386,-0.6304812425,0.4415729595,0.7660539282,-0.7564310757,0.711327446,2.6067661096,-0.6890633033,1.1769374386,-0.3371728548,0.9860865986,0.4623969753,-0.6298781893,0.4462068523,0.0300449966,-0.3340254039,0.4891222142,0.2353860902,0.2466875612,-0.8025813207,-30.8574172778,0.7232935993,-0.0604223053,0.1000075592,0.0181139919,0.3289199675,0.4686246794,0.4102493181,-1.1382460398,-0.5810168561,-0.8008008258,1.6567161496,0.1149073298,-0.8991143521,0.2702178468,0.7050884914,-0.0624614748,0.3441133264,-0.6061231675,2.0574542754,11.6712412758,0.8114812241,0.8065330433,-1.1030826955,-0.985608076,0.4291048851,-0.8200044345,0.1332687739,-0.3528252175,0.563306711,-1.236227817,-0.6302706431,-0.4565384535,0.4763750428,-0.0738899686,-0.9143207218,0.2772508289,0.1493066652,-1.1207898168,0.7769516096,-0.2457610252,0.1884028716,-0.8049400241,0.1322529023,0.2226540523,-0.9724233503,0.7136297208,-1.0303143558,-0.224517151,1.5106450079,2.4853575537,-1.1579036263,0.4720854955,-0.6428343308,0.2011912978,-1.1108572252,0.0819330883,-0.5514157025,0.345019226,0.6244605945,0.1969467244,0.1696052836,0.9253368287,0.5873320749,-0.3845579528,-0.6473643257,0.5760476908,0.3867614509,0.8053011853,1.7865804399,-0.1427174815,0.2940697441,-1.8267440868,-0.4281823384,-0.7051942827,0.165154103,0.3896266024,-1.0055350234,1.0965327659,0.8120446018,0.3449165855,-0.2425766826,-0.7326032724,0.7715543416,-0.3253760768,0.8203402682,0.6905414476,0.8207414837,0.4100023377,-0.7826504372,0.0679293563,-0.9681125879,-1.7041174894,-0.2725613408,-0.6399358075,0.0672068886,0.2096875748,-0.7220904847,-0.3428953335,0.034890829,0.3019653149,-0.9002907116,0.3038287744,0.3889498652,0.5460882981,0.8601262202,0.2054822752,-0.4451362674,-0.2740635224,-0.1024038411,-0.2350895271,-0.6972192963,0.0581892515,-0.5540607716,-1.0996936807,0.0667884368,0.2314494976,-0.5339949901,-0.8606081289,0.4757575901,-1.0937624343,-0.4144113714,0.0324979515,0.0437815467,0.327630061,0.1581677351,-0.1304724635,0.4746127255,-0.2639593421,-0.6056239904,0.5265386298,1.034268288,-0.8103841786,-1.1271872562,-0.0978254321,0.1338000955,0.6962604676,-0.8432692666,-0.7710486615,0.4300508178,0.0084698231,-0.6410716952,-0.802325482,0.8442294859,0.0148958473,0.4455088898,-0.6260421391,0.3671949879,0.1394693538,-0.0547955669,-0.7443550548,0.342146262,-0.1062180622,-0.8049582315,-0.0946059208,-0.5280338244,-0.5011751174,1.0674239445,-0.71595054,-0.1976211001,-0.1133651952,-0.0660923123,-0.7721975418,-0.6756417549,-0.8540951411,0.0944291509,-1.001868181,-0.1932595835,0.8713012233,0.3065354511,0.1721044764,1.1740616694,-0.0895671049,0.0832258972,0.1207391067,0.5829082226,0.3190014643,-0.5644793011,-0.6677888502,0.5429021162,0.044859563,-0.6658023148,-0.728500555,-0.1385508557,0.702879249,2.6974177938,-0.8176912099,0.825547016,-0.3370071579,0.6920626748,0.1629614974,0.1270777885,-0.2613696369,-0.9439563316,-0.7028833708,0.5959936519,-0.613525294,0.7775049924,-0.2135838591,0.4085835879,-0.7521303043,0.8470771986,-0.1594578951,-0.4323246064,-0.5903167963,-0.5586292774,0.3021269342,0.0580755652,0.4901915413,-0.7427655366,0.5079369221,-0.5557370908,1.779609738,0.2662716996,-0.4669497728,-0.1226255092,-0.4182219172,-2.0183049485,1.0601472905,-0.0323193816,-0.9177351029,0.7107317683,-0.0165412567,-0.1507543955,-0.1212130771,-0.4176790029,-0.1171686446,1.225005232,1.0381427852,0.0467354513,0.0415926845,-1.0785354709,-1.4184742356,-0.3795031887,-0.5525271521,-0.3559222914,-1.0724486945,-0.0292943696,0.2021116591,-0.0078660331,-0.108066351,0.6278873135,-0.8182078115,0.2041044105,-0.5297196011,-0.1360806907,-0.2309342773,0.117758152,9.2751032029,0.9187773678,-0.9083229311,-0.7795990502,-0.2054634766,0.7675191572,-0.8930499799,0.1331555336,0.0376978009,0.578206801,-2.6644957446,0.0474336468,0.2866769727,-0.0003150919,0.4746998941,0.8672619065,0.8319564321,-0.8061272158,0.5703480797,-0.2437552623,-0.8943996861,-0.1829083783,0.7547353019,0.6461193991,0.6483060435,-1.0096946071,0.1336869951,-0.8754101294,0.2952393924,-1.0063484112,0.7542330704,0.1426015873,5.3690148848,0.8762656683,-0.1284441541,0.5877769119,0.2177742298,0.9302798234,-0.7299786175,-4.2480189103,0.5457743524,1.396177149,0.7899307844,1.5362546612,-0.1618107907,-0.3613229122,0.1222955317,0.2525276337,0.2426135857,0.649140785,-0.6902661193,0.7132217902,0.1962719552,-0.9105447833,0.0627521164,-0.0016288395,0.5253811135,0.3298219552,0.6474763067,-0.707406291,-0.9007136976,-0.1153772233,3.7724460506,0.8322750446,1.9108959211,0.7240435543,-1.0746489361,-0.5004665324,0.7971867256,-0.8959305399,-0.6616545698,0.8289274672,-0.0446874264,-0.3089551438,0.4973004515,-0.4345417244,0.8563521152,-0.0439541287,-0.9431684316,0.7176616547,-0.7697377819,0.5795423459,-0.1466510142,0.4783218264,2.1266137056,0.1932885961,-0.3476778819,0.0466135966,-0.8316574372,0.8547995847,0.9110791359,0.4222670394,-0.0009846146,-0.9076365357,0.460871196,0.5555202093,-0.8209034164,-0.3661796925,0.4581922935,0.3450755358,0.6793033091,0.9218250646,-0.0027420636,0.7746115234,0.73176545,-0.6099645786,-0.2548435354,-0.9519215229,-0.5724136699,0.9225465957,0.3683950074,-0.8073488818,-0.3531349454,0.1146256362,0.9072435871,-0.9973022333,0.3943847205,0.5583878313,0.0829474729,0.0774431209,-0.6586802638,-0.5653371715,0.1389588118,0.802368187,-0.6295264233,-0.140696606,-0.210883314,-0.7026709421,-0.6525105687,0.0672435871,0.7477362531,0.5250139518,-0.9971273455,-1.158377454,-0.4465925675,0.8212013838,-0.2295925557,0.7954225521,1.5325742336,1.340238888,0.2999733399,-1.4427330944,-0.472640301,-0.0496616852,-0.5777613872,-0.4271035334,0.1127691961,-0.8413142836,0.0070126011,-0.6180531463,0.1875013295,-0.120549194,-0.1529657346,0.3452413504,-0.6463721772,-0.7090833714,0.4219595426,0.5709780692,2.6258920884,0.4008010191,1.0070566579,0.2373624658,-1.0540997107,-0.327138729,-0.2412420881,-0.3438726298,0.0277298537,0.4158226778,0.670980053,-0.8816850612,-0.1297275734,0.2011905343,-0.8487653232,-0.6586785123,0.8757653934,0.5384915658,0.8056757184,-0.8048112541,-0.4967707762,-0.306412049,-1.0044923366,0.3123700361,-0.2271475699,0.9376622233,-0.935973337,-0.6580260454,0.3224482245,-0.5282588143,-0.6272397516,-0.8562308132,-0.9745036568,-0.437747088,-0.7234796199,0.7259125097,0.5606859773,0.8178309502,0.2264695997,-0.4582663436,0.7072850308,0.090577708,0.7236792752,-0.8140834015,-0.0111216344,-0.083181649,-0.9745218669,-0.8088299083,0.8239683805,-0.286791885,-0.0287599547,0.4155982746,-0.7614457438,0.000105773,0.5563872755,0.2024982709,0.1570586343,-0.8867547581,-0.8903124103,0.9206523103,-0.8767639464,0.712757002,0.5651402594,0.9179092246,0.2335532616,0.3216051268,-0.1488672076,0.8090468572,0.6125241439,0.9868600228,0.378342217,-0.1504536341,0.0931575054,0.8042987014,-0.8231380075,-0.2279030763,0.1032081587,0.9203780635,-0.8200674697,0.9145003508,-0.6934223261,0.3620310636,0.4945224191,0.9055972728,-0.9583269069,-0.4341820823,-0.4697499737,0.5410653606,-0.6490863327,0.497781684,-0.7264252985,-0.8853925517,-0.2168236745,-0.9688556372,-0.6954273868,-0.5619011911,-1.132907809,-0.2642895921,1.0438720128,-0.3345823904,0.7029312222,0.3341905927,-0.5526397677,-0.3871926961,-0.2626789938,0.4798681693,0.2885552642,0.3972395345,0.7417018644,0.8989102656,0.0144815115,0.2105425295,-0.8674855489,-0.080379686,-0.3434923131,-0.4236155762,0.3853785384,0.9053772995,0.9092566707,0.9075061877,0.1047184154,0.5792246039,-0.2274111115,-0.2876928706,-0.5549050936,0.4765773239,-0.5349460328,-0.3091432377,0.5577616646,0.3097288673,-0.768261181,-0.2682477451,-0.7701887491,0.5653754571,1.0142802097,-0.6277283223,-0.3798727733,0.6989713594,1.3766651935,1.2334800163,0.183171986,0.0874869896,0.5142030676,-0.3510733482,-0.675922832,-0.5303381707,-0.4108181408,0.6763980513,0.3214522392,0.4525332369,-0.3761841469,-0.2127896567,0.527267921,0.4001690193,1.0127970911,0.3461251092,-0.3532622145,0.7352679815,0.9811411862,0.5400721143,0.0906204331,1.1743705045,-0.0694404034,-0.7772035344,-0.7099530418,-0.2445689603,-0.0588553933,-0.1155131421,0.1720849683,-0.1277060171,0.8316295581,-0.1079975948,-0.5517680973,0.6790957513,1.0605085438,0.1235825013,0.0698906422,0.7166522998,-0.6491444806,-0.6913296799,-0.708979616,0.4745919772,0.9057466643,-0.7922243423,0.5788781404,-1.1220122462,0.7051716352,-0.6622174113,0.1310316478,0.6190814093,-0.839114379,-0.1343164132,-0.6669534851,-0.86286412,-0.7164011379,-0.1151995333,0.4763157594,-0.6453030956,-0.6358969698,-0.7024006291,-0.6376665594,-0.360391906,-0.2765850568,-0.2756276887,-0.3380726668,0.1001926485,0.9190551762,-0.731191178,0.8195706432,0.140549037,0.0394030064,-0.4157278319,0.9346945248,-0.260950798,-2.122535155,0.8213907699,-0.5742404577,0.5406941093,0.6806759964,0.5646433432,0.3328182955,0.7412529542,0.0649224119,0.2092865115,0.6090940234,-0.0565189905,-0.1791144619,0.0134962871,0.8628801775,-0.1693447638,-0.97948451,0.0596050634,0.5532946683,0.088372503,1.4017572329,-0.6413823435,-0.8755695893,-0.4913319455,-0.6263019414,1.6604963217,0.8118416357,-0.5098240104,0.8245189078,-0.3399336848,-0.4883039683,0.5271738963,-0.0549963803,0.5510749589,-0.4426259386,0.84399176,-0.9303179315,0.0580337919,0.0114368068,-0.885924451,0.050301238,0.7626477965,-0.3849421805,0.3208841642,-0.9008589738,1.0914115915,-0.3630917232,-0.0796698087,0.6465554614,0.5239606456,-0.5156296514,-0.1728604807,-0.7984269964,-0.6151333797,0.5775525354,-0.7216383084,0.4716825206,0.0133721876,-0.6688439943,-0.7444002015,-0.641961625,-0.0183021329,-0.5736620061,-0.7083633691,-1.1730692714,-0.9645011742,0.3292456505,0.5965950264,-0.9556716587,-0.5454503633,0.695646493,-0.258274435,-0.169065139,-0.3930272379,0.5595189645,0.1707512645,-0.2842754221,-0.0447380215,0.6232991348,0.7305895313,-0.3578578346,-0.9314408299,0.4244257261,1.1562433363,-2.3055543165,-1.1899040869,-1.2086436748,-0.5538279278,0.7773835001,0.3309154057,0.0020481563,-0.1526654804,0.7507752202,0.0711467963,-0.47612273,0.0131557707,0.1054347974,-0.2682210218,-0.548863842,0.835812571,0.4191087434,0.0718638336,-0.5521592708,-0.5850825378,0.426627883,-0.7371429699,-0.3794172137,0.9196769899,0.4918933861,0.1645201168,0.9270481005,0.9285813562,-0.7483379525,0.4690216425,0.0918049731,-0.1149858897,-0.4053505931,0.7380643062,0.237697509,0.5095720738,-0.3809124635,-0.5232388358,0.6864662146,-0.6223209059,-0.6164512689,0.1941678283,0.011838807,0.1511256045,-0.436866738,-0.9318561332,0.4201902427,0.8947967792,-0.2372108882,0.3082552873,-0.2119196111,-0.3192868754,-0.3188711958,-0.4627901071,0.3737059923,-1.0670039812,-0.1860374561,0.9654214029,-0.3871508759,-0.4507854411,0.1514695737,0.5817630557,-0.2865986418,-0.7710465864,-0.0614031853,0.6175295377,-0.2919367954,-0.9435928842,-0.0950654406,0.7804182331,-0.8657553064,0.4345026536,-0.3869081536,0.1914271195,0.7941950861,-0.5434035713,0.4125604332,0.5315916221,0.3342722248,-0.9022104353,-0.7949957664,0.622403478,-1.1240394576,-0.6910582106,0.4539647716,0.9336495975,0.8776339456,0.9661146333,-0.5473355912,-0.4551653821,-0.4654139594,-0.4994324193,-0.2157476493,0.7399140763,-0.907376392,-0.0754987854,-0.6642034482,-0.1989081748,8.863505696,-0.0426717958,-0.0725573828,0.0027453768,-1.1407570621,-0.0131613116,-0.6942699828,2.3025584413,0.4089043848,0.3115701473,1.0258836045,-0.071550241,0.9087934461,-0.829532295,0.3340329558,0.1094998611,0.0743504232,0.9060068351,0.7687544193,0.7216105897,-0.1564712115,0.584479124,0.2442092229,-0.3528898299,0.8017269428,-0.6360303842,0.1712753006,-0.5193332839,-0.520539513,0.2895338457,-0.614508488,0.869081834,-1.0938645235,-0.2261090178,-0.0627382,0.7253500196,-0.9016346943,0.9174260651,0.2480686365,0.0470375306,-0.7639865695,0.2022407094,0.1194403673,-0.9631954637,0.247155479,-0.1733297673,0.8796778387,0.420327626,-0.2577005116,0.769342406,0.9770474745,-0.4979079277,0.5673608274,-0.77825838,0.2804241336,-0.0705380791,0.7144607447,-0.648112137,-0.046074149,0.5816153658,0.2667096209,0.8813058318,-0.706504644,0.527348381,-0.2340957244,1.0314128658,0.7153025641,0.8421263485,0.7380301261,0.333169299,-0.2255873911,-0.8401771592,0.9002473227,-0.7658800706,0.268033539,0.5346431679,0.9277329438,0.0743249352,0.573948611,0.3943243383,0.5941060229,0.7684582788,0.2808292514,-0.1997782233,0.4206151463,0.1038971824,-0.3094751819,0.6273235156,0.9550325023,-0.1390400034,-0.2399552678,0.9067204986,0.7614713643,-0.9830646342,-0.967685059,0.0693507887,-0.1208188809,0.4433680733,-0.7553968236,-0.6402440125,-0.015698228,-0.2366115176,0.8822459487,0.6902939066,-0.0105230616,0.3985865076,-0.3866801853,-0.5926424972,-0.2010233405,-1.1319748458,0.4451377471,0.4873692996,-0.111651382,-0.6151671003,-0.3018170758,0.6828426513,-0.3906796846,-0.9474148549,-0.8080439383,-0.0500539155,0.5494759791,-0.5735399926,0.2897658453,-0.6691025592,0.9403677357,-0.7037807201,-0.347976952,-0.9355637326,0.0023787829,-1.0236362671,0.5384846907,-0.3896459804,0.7289046814,0.4129466528,-0.5869367983,0.6573979879,0.7112037569,0.4072386706,-0.9261461342,-0.0284162768,1.1232344671,-0.0093775309,0.2863217208,-0.4337703526,0.4759919548,0.1118063536,-0.4090655724,-0.8810661696,-0.0630477567,-0.4295476782,0.6338414397,-0.14101495,0.7682991325,0.5201155522,0.3313331516,-0.1978191424,0.5300487104,0.6248237522,0.1560474101,-0.7682281144,0.0009716071,0.0802494173,0.7067795551,0.5116424631,-0.5087888628,0.8221119564,0.0710346571,0.1458507419,0.7027080549,0.0984456982,-0.222192256,-0.6564220531,0.218250574,-0.3604803209,0.8914143565,0.0456791861,-1.0321154283,0.6389879726,-0.2112813254,0.422122628,0.086932437,0.7624495116,0.8462164162,-0.8651082076,-0.5965315361,-0.4074979114,-0.6016279217,0.7446537943,0.7477679793,-1.2598187375,-1.0439480678,0.0637056842,0.6623776872,0.7367099185,-0.5191383943,-0.4773326474,-0.0362229105,0.0241300999,-0.3162301269,0.1369569303,0.9748147353,0.981718462
   -1.0766546849,-0.2395151134,-0.6317785258,-1.0355217315,-0.638395991,0.1551291753,-0.0560802834,0.0140741776,-0.8061461368,-0.4680771837,-0.3055495177,-0.9693296062,-1.0247020024,-1.0853302233,-1.0441951799,0.1868208807,-0.6411897277,0.8689788131,0.1054550584,0.0130336268,0.034015912,0.4879908537,-0.3236288011,0.2407580867,0.7303231347,0.5523944885,-0.5748222149,-1.1329430166,0.3167609047,-0.2454445469,-0.1469051489,-0.4532632232,0.6034869885,0.59439708,-0.6351250359,-1.0535722925,-0.1377262226,0.5952053093,-0.364311482,-1.0972164063,-0.9064685139,0.3313783847,-0.6068230861,0.5990727119,0.0817073087,0.7780071156,0.0296605133,0.626091928,-0.3935321044,-0.22154242,-1.0861806794,0.4207464054,-0.5718080624,-0.3600810515,-0.2658161183,-0.5388816447,0.1744179317,1.0121309763,-0.5077522298,-0.0935653102,0.367589633,-0.0186855468,0.5033003914,0.6212480488,-0.1769393317,0.4831517811,0.5218901825,0.1120614342,-0.3731211801,0.7572764857,-1.0874452318,0.3552010607,-0.9070636877,-0.0377581873,-0.656651832,-2.7781636434,-1.2050705915,-1.4099832622,-0.2671824701,-0.8114686915,0.0623600471,-0.6132179838,0.6929927491,0.2634621206,0.1707968192,-0.7425360648,-0.2463872603,-0.1145267648,0.1395426665,-0.2959708869,0.2100899586,-1.0127982468,0.1518132173,-0.928953762,-0.6899617019,-0.4860276918,-87.3971195463,0.2091460157,-0.1687913724,-0.5207229737,0.1105781162,-0.7407799019,-1.0690647948,2.1980839023,-0.4511114829,1.1622433957,-0.8369898503,-1.0750942115,-0.4836291082,0.9971911841,-0.3489354643,-0.0543248029,-0.1197787975,-0.875761982,0.7658653649,0.3669888049,0.1864288192,0.1771426582,-0.8231518943,-0.2478781181,0.7833577439,1.2069593519,-0.065147286,0.3203512746,-0.731193077,0.2100604546,0.800217613,0.9655771295,-0.2077260161,0.7563847224,0.6371081463,-0.4380374382,-0.6107089438,0.8886450562,-0.9589517842,0.1652433589,-0.1548746226,0.5813576673,0.2566481535,-0.3214009335,0.5647024361,-0.6857351839,-0.2536243612,0.3739154419,-0.658800094,0.7099390837,0.7791589849,0.1976389583,-0.2445789438,0.7503323497,-0.8593637411,-0.3924992201,0.4175300173,-0.8087354992,0.7221505538,-0.4884410019,0.5279688418,-0.2856721348,-0.7307682043,-12.7565264924,0.5029005283,-1.019945089,0.3685201096,-0.097422803,-0.69076018,0.0192566778,-0.4448900896,-0.3857445858,-0.3745760275,-0.1807719875,0.6993724537,0.2020448736,0.2297822921,0.7824732014,0.8887638447,0.469562424,-0.912932568,-1.1803702273,0.0827682658,-0.607656332,0.1218495955,0.2658107749,-0.7306645287,-6.9523611695,-0.8703346342,0.0945858703,-2.1357970389,-1.222537168,-0.2952796816,-0.9373391855,-0.4387237201,-0.9403856438,0.9832482957,-0.9330253406,0.7802845827,-0.2266969482,0.1262264226,-0.215887537,-2.6436544634,2.9479945126,-0.6733535215,-0.8504260924,-0.2267388557,-2.2048529721,-1.2803214441,0.0919336921,0.8103907341,0.6178737693,0.5009528158,-0.7922357996,0.6249638862,0.3921173922,0.2261235842,0.5143642342,0.4751032792,0.6105007102,-0.4737320934,0.8041137407,-1.3886292057,2.3653160551,-0.7912823048,0.4826074697,0.5885334865,-0.7624130203,-1.5172954595,-0.7729600997,-0.0698704737,1.716640834,0.3852330834,0.9372433654,-0.5136617929,-0.9135387111,0.1686030553,0.6712975246,-0.8024244428,-0.979934881,0.4133491851,-0.0442582924,0.407493936,0.4042707228,-0.1805875221,0.5828273892,-0.6897295808,-0.2875276495,0.6455255073,-1.3003790261,1.3859433896,1.0080740311,-0.1359415126,-0.9528602587,0.9027505748,-0.4944237562,-0.5081506838,-0.6140227158,-0.3805649797,-0.5328031688,0.8628838604,-0.4422296204,-0.675854966,0.3443393554,3.1475673866,-0.2392668042,-0.9208699238,-0.358830294,-0.1650383771,-0.5193110965,0.3145748619,-0.6916030938,0.0487104596,0.0983407206,-0.7069813294,-0.3346926525,-0.0239256446,-0.3157555506,-0.6603661403,0.6733944646,0.5715844535,0.0406389367,0.5250856062,-0.0881056866,0.1696171702,-0.3724330679,0.0526446528,0.1559109146,-0.4323704863,-0.5521240559,0.2818589899,0.4673606284,0.072868456,0.8501337577,0.3360174454,-0.236020568,0.6798136883,0.1434295473,-0.0788888616,0.5902865031,-1.0755061274,-0.4224860122,-0.6716662644,-0.4485798648,0.3684443738,0.1211932971,-0.1682387962,0.1304280817,-0.2931832992,-2.2966861346,0.1728654455,0.6032661786,-0.5616823373,0.5888562442,0.5533742316,0.0194356181,0.9874834315,0.6083966244,0.0457093617,-0.2901957417,-0.0670349123,-0.5451890457,-0.8527076029,-0.0932684307,-0.3250931152,-2.398518652,0.5651286011,-0.8223616215,-0.4779981374,-1.8462287661,-0.4687006359,-0.5752791278,-0.1956177295,0.0824227725,0.6526633872,-0.1809220694,0.402292881,0.5806473588,0.1858916415,0.8513812573,-0.8522941514,-0.4626261233,-3.9255522725,-1.8127157996,-1.9921919774,-1.6218836219,-4.1671586051,-1.3624829649,0.4515114966,0.2808411087,0.3061792192,-0.7410275304,0.8282985976,-0.812993789,0.0707012014,0.7786389342,0.9624193133,0.1620868378,0.9327390709,0.8390409668,0.1362795636,-0.220276311,-0.6504073451,-0.9660321445,-0.6277506499,0.6984517994,-0.0275791925,0.1851308307,0.4120184438,2.3728888415,0.5507349098,0.8467620851,-0.6689781999,0.8237206156,0.9142529954,-0.5562882047,0.8878265832,-0.406804617,-0.5141085875,-0.4768421335,0.0883035987,0.7328859058,-0.6968498775,-1.0399004665,0.7204468669,-0.539992164,0.5543380589,0.4990143769,-0.2604693896,0.0622432642,0.2130026393,0.8268323659,-0.1172139854,0.596448748,0.6021528394,0.1573605678,0.4156797312,-0.0443844039,0.4004033474,-0.2001817525,-1.0235222689,0.2148057329,0.8226773123,-4.4623086669,0.7503682811,-0.5666074014,0.3765446433,-0.5486448379,0.6993143051,0.3730613694,-0.2414075774,-0.1425924211,0.5368863971,-0.4322960972,-0.9250174588,0.0438009279,-0.2060798434,-0.7065502255,0.4165977963,-0.6216567267,0.1768028534,0.9226737582,0.0381596351,-1.4507425041,0.7284676227,-0.2897095604,-0.3900511173,-0.0464961197,-0.2194591333,0.6206123326,4.1413733278,-0.4287756562,0.4819646841,-0.1059799175,-0.2597882314,0.1345718476,-0.0921872202,-0.6657172923,-0.4979335577,0.6052247319,0.0454941989,0.259521083,-0.7585372024,-0.7706676025,2.7018283469,0.0401232968,0.3041826068,-0.3883224273,-3.8500117608,-0.0148042122,-0.6563027333,3.0046264222,1.0203015597,0.1777603763,0.2105109393,0.2872172589,0.3386741868,0.6782804921,-0.8566364422,-0.1695605589,-0.0195150259,0.3767067622,-0.5588778863,0.5067489148,0.8030350524,0.7728503669,-0.9301582961,-0.562606527,-0.2190202071,-0.2231647703,5.6785132584,-0.0798315806,7.8511439786,-0.3529993604,-0.2174522126,0.2200925328,-0.2500742693,0.8399615643,0.0425566476,0.7359406965,0.0563354416,-0.9610605385,-0.8349630525,5.1866204398,-0.5886025149,-0.1605977626,0.3339695067,0.4093500048,1.1703080281,-6.0098313468,0.3995900747,4.815533016,2.633557614,-1.0361613915,0.6187185359,-0.2073546584,0.0425492495,-0.9634231617,-0.2503800036,0.4639042172,-0.3991851367,-0.7413647843,-0.9902241709,2.8692907464,-2.0094381649,0.4479054582,0.2159488386,0.2002574239,0.5590580288,-1.6333814002,-0.4032348326,0.7221998262,0.8449583807,0.3366560634,0.169909565,0.1789718985,0.8636670982,-0.1753987621,-0.9551813451,0.9869899908,0.1296550924,-0.6381743539,0.2213501381,-0.825047892,-0.5156983686,0.2319227134,0.3433153379,-0.5048463577,0.434059873,-3.5506942796,0.7312714101,0.7324042789,-0.8939017621,-0.8261182302,0.6593285245,-0.5367851798,0.6947376549,0.5220774135,0.6582014953,-0.5913820935,-0.6515073322,-0.9749853898,-0.4900146349,-1.0243762426,0.0368570637,-1.4269838581,-1.1721650187,-1.5258973556,-1.4236131452,0.1622082529,-1.6105363833,-1.4785673042,-0.2750646802,-0.7630223233,-0.4390009131,-0.6117150858,-0.7053993238,-0.4325150935,0.5296179769,0.4952047992,-0.1623706939,0.1660001057,-0.5144082451,-0.4350963733,-5.3874887763,-0.4118947672,0.0458093235,2.9881024916,-0.7170020981,0.82348693,0.6225364144,0.5531730863,-1.0612498384,-2.0986613431,-0.9180777882,0.589935695,-0.7276660382,-0.8369906226,0.1215253888,-0.4181372043,0.1258565308,-0.742601414,-0.0345943516,-0.7852068496,-1.0574742352,-0.0539519437,-4.6227429016,-1.0370521462,2.1297919528,-1.027987012,-0.3123709336,2.6858624576,-1.1486409411,-0.0837631254,-0.5388941658,0.3593428281,0.6550612582,0.0747179951,-0.6992376323,-0.2535438076,0.2673225673,1.6027948968,-1.0573674552,0.4505920197,0.1399737939,0.5819889768,-0.1185744607,0.0779751018,-1.1998728801,-0.8150276977,-1.1011950055,-1.402023495,-0.2161938353,1.1185818936,0.023243216,-0.8133471615,1.2514181858,-0.0669814975,0.3635231352,0.2998866181,0.6692319077,-0.648674635,0.583586106,-1.9722928307,0.569954929,0.0016281426,0.1937322554,-1.083871281,-0.8733996131,0.066224013,-1.4908743651,0.2150306805,7.1120404071,-0.3084585142,0.6935626873,0.3948743083,-0.6263853665,-0.289187077,-0.1704939318,-0.1924935424,0.1599690878,-0.9233175753,-1.1160284552,-2.9649131107,0.2071938313,0.0089411151,2.0390735258,0.0310725183,-1.2631677625,0.1401877846,0.7947609777,0.1674528364,-0.4214066428,1.601848567,2.2899659367,-0.0950173172,-0.3710645719,-0.7837459465,0.7441834413,-0.3282841464,-0.1892972187,-0.3763047336,0.6227864468,-0.4536939247,0.7760298183,0.3070259027,1.0612911284,-0.0169026581,-0.1567647417,0.5522825409,-0.798501607,0.3919897391,-0.2316946581,0.0812310499,-0.3892049976,0.851866034,0.5946417152,-0.2571535544,-0.7650975807,0.3574460954,-1.0410944599,-1.3021194061,0.3213687635,0.2946283912,-2.6306289383,-0.8433346461,0.8107035042,1.54060581,0.571784634,-1.1167773429,1.5628406505,1.2252134078,1.0318763143,0.298427615,0.0392385706,0.855561327,-0.9873181316,-0.8749866181,-0.5229879796,-1.2246420551,0.3028162984,1.4823836174,-0.3654857604,0.0034693018,1.7282451504,-1.2739572346,0.3378445157,1.0687160954,4.9909257247,0.8230870755,1.0621626202,1.3108811301,1.1133971589,0.3410391803,-0.9358282318,-1.0748100254,-0.2729165941,-1.3558805704,0.4427294572,-0.152972275,0.0647005667,-0.6813521215,-0.3046769402,-2.9069642849,0.2839080406,-0.7820812983,1.7863584048,0.893039553,6.8650241953,1.1889078932,1.2626761991,2.3611343053,-0.7076181388,-0.5731613514,-0.5709038505,-2.4761301983,-0.6551813208,-1.352420797,-0.2670507014,-0.0748384374,-1.1022671606,-0.5749629901,0.0965096399,2.5917970897,0.3324954325,0.2758662804,1.9496907503,3.9225007195,5.0944216691,1.2331008684,0.6820320404,0.5084287342,2.0994097507,-0.2586820099,-0.7620280833,0.3789227187,-0.7270329031,-0.8970294449,0.4501908926,-1.1405271972,-0.638321296,-0.9064246899,-1.0940875704,0.6661044418,0.7205819418,2.2425505322,2.1930875792,1.5821189529,0.6848537106,-0.0663706761,0.8579469513,-0.6544513513,0.3629856341,-0.9626849267,-1.0369500489,0.3998904134,0.1041412346,-0.6972115634,-0.9730358365,-1.5190777567,-0.4589412535,0.2548052287,-0.040517089,0.4565418755,-0.8563006999,0.4184660615,-0.6074107961,-0.1901483766,0.7630616062,5.2954153222,-0.6678009721,-0.1765659352,0.3369388975,-1.6216827565,-1.5677352726,0.0225659391,-0.1247587511,0.7627748479,-1.0285429442,0.2926435656,-0.3217342045,-0.2679139036,-0.4147256456,-1.0497166979,0.031104138,-0.1901863899,0.0613042204,-0.3374683715,1.5746872625,0.3693620532,6.4694515202,0.7999423141,-0.7992978613,-0.0236752257,-0.5226120924,-0.3104700585,0.0752968759,0.1682195563,0.7044290763,-0.8449829778,-0.7089472125,-2.2393843687,0.5318516815,0.3783878881,-0.5528132989,-1.4573673856,-0.7261483138,-0.3553591709,0.8598012985,2.0886259235,2.8976479801,5.8677802443,0.4286549432,-0.2644914379,-0.0740257336,-0.5130852091,0.2510998215,0.7650755511,-0.2637115175,-0.3588621213,-0.7094764619,-0.1664487198,-0.5186289934,-0.9954570461,-0.8176544178,-0.1028582442,-1.1004331122,-1.038661383,0.3526652665,0.9261862469,2.5241988642,2.7463292301,-0.4228680547,-0.9697730063,-1.2979670457,1.2918940639,-0.3483429863,-0.6929127655,-0.1402631867,0.4736543084,-1.2346185157,-1.2939743036,-0.017372538,-1.3596270459,-2.0341941206,-1.6676545363,-8.0638337099,-2.2492146202,-0.8969547031,0.0650689985,-0.3083573553,-0.0325993346,0.510767441,0.5598368147,-0.8918145222,-0.4130397693,0.063643004,0.6787017954,1.5138913246,0.6669172486,-0.9716189073,-0.7768798595,-4.0746573945,0.4299701856,-2.8746049924,-1.2969877508,-1.7505314481,-0.6813519175,-0.1882780196,-1.2438312749,-0.4212996136,-1.0654396992,-1.1474890529,1.5695993505,0.4154091094,1.2698268421,1.2871097832,0.6445362854,1.2459226523,0.0251262789,-1.0433366298,-0.4857152182,0.5501629937,-0.1216693975,1.4323515093,-3.287052638,3.8195708816,-1.0580029496,-2.8396824763,-0.4176369188,0.0754655763,-0.4721960659,-1.7311688002,2.5139984033,0.8568779275,1.4158151046,1.2399185533,-0.5253136251,-0.2980779765,0.3173502805,-0.6768689343,-0.4632671805,-0.451378892,-1.1087278483,-1.2234731507,-0.4271810956,-1.2225937378,-3.8171633871,-0.1005070952,0.4252495868,-1.1886279465,0.1462058577,-0.465138196,-0.8528857222,-0.4294285003,-0.3578685317,0.8799467409,0.0213401695,-0.7203850857,-0.7548062567,0.0997666768,-0.3220176028,0.1649523456,0.1926019437,-0.5254014011,0.7455019627,0.0442162592,-0.2887568096,1.0828639999,-0.5706375075,0.2409998975,1.4030603669,-0.6449375055,0.7824546567,-0.487743473,-1.0299052782,-0.8476646973,0.5066421508,-0.7978746285,0.8544205604,0.4899636031,-0.6143165549,0.9358758776,0.7397855995,-7.64488444,-0.6712130906,0.7728944858,-0.4379396503,0.033806992,0.1111625118,-3.027388941,-1.1544687521,-0.3660986969,1.0872472793,-0.1104509236,-0.1326151143,-0.8357442966,-0.8191034669,-0.1511536854,-0.9350886598,-0.6513768626,-0.8589777923,0.6130493773,-0.9884508069,-1.8309269306,3.4805394458,-0.6230202072,0.6041056432,2.1392633537,2.273915339,2.4737796166,-0.2044390016,-0.8180621172,-0.8628305679,0.644221067,0.8387600557,-0.0533087136,-0.8376905669,-0.2573535772,0.2309786909,-0.72398577,-0.4738437097,-0.7046402357,-0.4575968197,0.366122564,0.1369194637,-0.1330267676,-0.821727252,-0.4111707188,1.3419166502,-0.4082663397,0.376974011,0.2378525229,0.2446524337,1.0383403506,-0.814290604,0.6003072,0.2008673816,-0.761313961,-0.0304273201,0.4267391826,-1.1554279078,0.1852892625,-1.0674676446,1.1225210295,0.9507874526,-0.0046757549,0.489625337,0.7194077481,0.0810123934,-0.9784029903,-0.1011342034,-0.8323674986,0.2089982633,-0.0305767531,-0.6297431878,0.624303757,-0.5146878889,0.3494012017,-0.2894858735,-0.9203243481,0.8714737063,0.0647745502,0.0035845779,3.7712223232,-0.9897571635,0.548133333,0.375181366,0.2995916325,-0.9140584229,0.6019100364,0.5553120848,-0.9902737603,-0.0411640927,-0.6146604774,-0.5218808683,0.5653628551,-0.0971946097,0.1390067894,0.1564757928,-0.0393768727,0.6624423554,-0.8770267241,-0.5074333317,0.9259377188,-0.2081674975,0.8312928197,0.223741761,-0.8260411961,0.3823226992,0.4971510119,0.608691551,-0.306810459,0.531361533,-0.279156379,0.5930325777,0.182208814,0.5169219415,-0.1751620047,-0.1837087618,0.780990879,-0.1988445294,-0.6339091145,0.4228500078,-0.190451743,0.7888357248,-0.9547001881,0.6191100388,0.1530182639,-0.4922140741,-0.3314140517,-1.2207215143,-0.2232672673,-0.9434751008,0.4947677183,-0.1100328393,-0.1301778538,0.3829122101,-0.27309669,-0.3530013977,0.4768427705,-0.3713299271,0.4447689772,-1.1560339735,-0.7334974979,0.8327306536,0.4697853151,0.3412581024,-0.4803675714,0.2268231423,0.0004209224,-1.0338946063,0.7511118814,-0.2174574119,-0.0940711079,-0.2600449526,-0.9301292129,1.0965383278,0.1329109322,0.2880778087,0.8235576296,0.0651819239,-0.0138233194,-0.4077717153,0.1653377487,0.1088037251,0.0150616238,-0.6654819102,-0.6658185303,0.8008192651,-0.0877949449,0.6361537622,-0.9418096849,-0.5105572851,-0.9233111865,-1.1460210667,-0.8499730524,-0.2466826617,0.4013356984,-0.3174819855,0.9685399439,0.0356325399,-0.5414915914,-0.3908505715,-1.1604820718,-1.151896764,-0.9234264137,-0.0039933247,0.7585160188,1.051519576,0.9756218136,1.2763618865,0.7726605361,0.9963589202,-0.2754800743,0.5175610294,0.2175007727,0.41838269,0.3905487292,0.3812516233,0.017503782,-0.0675295836,0.7427682556,0.8959361747,-0.6847460705,-0.7538112767,0.4161151566,0.4135477714,0.4612787137,0.1785719164,-0.5301500897,1.1601880247,-0.0397242297,0.6677606327,-0.771112321,-1.212221659,-0.0909720155,0.5339184606,-0.0525537486,-0.2777436203,0.6485148437,-0.7962867549,-0.8313165708,-0.1703727941,-0.50383711,0.3486055981,-0.2137329159,1.0140788334,-0.331539489,0.5571194171,-0.9888306088,4.5083648036,1.1149614614,-0.8416987951,0.4822992246,-0.2282924501,-0.8364620718,0.975965766,-1.0642026881,0.0761375124,-0.5951796471,-0.8285016132,-1.0880797716,0.5163794285,-0.3671711674,0.2003216793,-0.6875892322,0.3731961067,0.9073464693,0.6981104114,-0.391759186,0.0083163727,-0.7369585055,0.6951120518,-0.2774623786,-0.3697781654,0.4773885346,-0.3214028608,-0.8829793549,0.1064971558,-0.0378682417,-0.5938297716,-1.3268120322,0.8127015709,-0.7183818217,-0.1605296359,-0.9926459887,0.0073020919,-0.8591317349,-0.1891063862,0.0695567859,-0.5641481439,0.1812359882,0.8146105101,0.4539587822,0.473664371,-0.5173448255,1.0681904086,-0.2705098256,0.2608157734,0.2762746092,-0.0994508513,0.6016851998,0.5827098414,0.7243500041,-0.4909189633,-0.4075454884,-0.2947352598,0.0314242312,0.8743627618,-0.7960862928,0.5521434194,-0.7493151458,0.9803960148,0.0716748566,0.1356547184,-0.0906796894,-0.8887605647,0.0078681847,-0.0426437601,-0.8303734704,0.8928230776,-0.8792222601,0.0816069533,0.1099322979,0.6912422387,0.677894514,-0.0919853026,0.648747335,0.016610759,0.5477454493,-0.7190242695,1.5205165842,0.8440058829,-0.3843510628,1.2700665025,-0.7799074819,-0.5625499091,-1.1226523276,0.4527187878,0.2814970479,0.2298358118,0.8329700768,-0.0390422763,-1.1591786982,-0.3359296817,0.7333829012,1.4228188745,-0.0665116754,-0.3482759751,-0.2598303759,0.4308211678,1.0143350693,0.8354480002,-0.3772134852,-5.8026661434,-0.6937387224,0.2767370172,-0.1815984887,0.7509194229,-0.0907035346,-1.1235497036,0.2426272102,5.1129990736,-0.6006618332,-0.1615951793,0.3860294751,-0.6513176446,0.8167396296,0.358687778,0.1477614972,0.3959116862,1.1329436247,0.7513929708,-0.3755873011,0.779982101,-0.0213706371,0.5949910246,-0.888038,-0.452887513,-0.9746176892,-0.7332324268,-0.4426297167,0.8534690767,0.3106056661,0.6790238936,0.4088284346,1.2792727365,-0.407461052,0.2970608326,-0.2813370628,0.9384144215,-1.1604549975,0.4759160048,0.8162147239,0.3619348099,-0.1424437773,0.0674821983,0.7069937273,-0.546797588,0.9723318941,0.7836495273,0.0061764866,-0.4351108806,-0.1350087881,-0.7750457356,-0.5417871993,0.6588307324,-0.359971601,-0.4123988691,-0.0688721775,-0.7037372249,0.7021815012,-0.7207000794,0.1178272141,0.0158389338,0.2054680194,0.9564938302,-0.3140705064,0.1528299464,-0.5429982802,-0.8916606438,0.9717275676,0.2850532601,-0.165266557,0.4085577283,0.6987881435,-0.1560758181,-3.2274287689,-0.7763857529,0.7999591546,0.4765359593,-0.1464141548,0.7531142297,-6.7638929912,-0.2562856626,0.1910479493,-0.0004197655,-0.0315609218,0.6211481547,0.4159700223,0.3552048402,-0.9434680792,-0.7967672005,-0.0885100715,0.7832787983,-1.1071477965,-1.0085414275,-0.4567010237,-0.0484167947,-1.4487351832,0.3374072329,-1.9296739393,-0.2620229718,-1.4530040171,-1.8770249621,0.6458431807,-1.3173856168,-0.7731363287,0.5313919218,-0.2961837726,0.692299446,0.5615331868,0.3968590805,-0.8314531301,6.7108885717,-0.5437165038,-0.495444714,-0.6333484781,0.461107031,-0.1500162848,-0.4885136117,-0.4126029673,-0.8543277226,-0.6978533475,-1.3249938045,-2.5379980157,0.4441658606,0.0527668896,0.3769775677,-0.2260694677,0.3247358644,-0.8185646383,-0.1549813942,0.4859959825,2.8573207003,4.1630861544,0.9909785572,0.1340349148,0.8133114146,0.9738350187,0.2897949847,0.2249225668,0.3291131858,-1.3101427727,1.4063808595,-0.3901606678,1.2329119946,-0.6531321546,-0.7358203384,-0.33498496,0.8483346444,-1.0384571779,-0.3926306371,-0.0822587389,-0.7626746038,0.456804831,-0.7205561681,-0.2122437806,-0.4008339689,0.4927781121,-0.4198705755,0.5721861685,-0.6859101637,-0.5127644851,0.2982928552,-0.2406714846,-0.7460554374,1.1108069935,0.6388005492,-0.2705324462,0.4981228403,-1.0835757996,1.7199200017,-1.498687834,0.5184992165,-0.3329696892,-0.6865477076,0.0868192823,-0.2235112235,0.525275949,0.8334596453,-0.9453299022,-1.0472320964,-0.2359256932,-0.2062145842,0.3638250757,-0.4675616849,-0.3023806532,-0.3681894362,0.1637621431,0.5455866349,-1.052855142,-0.2419188099,0.1712451887,0.8632415103,0.8864292806,-0.5936270481,0.64454324,0.615555106,0.9145655296,0.5187657429,-0.7877813185,-0.8063148119,-1.0380697738,-0.3472867299,1.5396399993,0.2670433272,-4.6373775081,-0.8583311537,-0.0851315883,0.1164606413,-0.833752525,-0.9219673449,-0.626336025,1.0683368105,0.1810382064,-0.6985303826,0.0361276343,0.4518207128,-0.044975937,0.1769874163,-0.9460875462,-1.0299115602,-0.3211344802,-0.4354089285,0.3738848485,-0.8007927194,-4.4037767992,0.089304953,-0.1986759736,-0.94887955,0.3016045701,-0.7498798686,-0.3663767769,-0.4564959713,0.145653298,-0.5119399144,1.1687134153,-0.4276208213,0.4913446812,0.4109635535,-0.5198770798,-0.0302608808,0.7986863789,-0.5825354817,1.1859822558,0.1352446669,-0.9140255433,-0.8099394882,0.1303613901,-0.4257458669,0.5483314158,-0.7784323077,-0.1134009241,0.12188015,0.2668986869,0.5499308276,0.0759559832,0.8235369627,1.6023548284,-0.8249006395,0.578357947,-0.1425778932,0.1510714949,0.5873392293,0.4296066667,-0.2821181963,-0.3339482654,-0.5097876494,-0.5982948807,-0.6784876319,-0.9801560101,-1.2147483011,-0.2288283986,1.179840569,0.4918969833,0.9133932653,0.8752746497,-0.4313757112,-0.2946134945,-0.0932400719,-0.3379786522,4.4481339183,1.6598927743,0.7441238064,1.3425009031,0.7001385856,0.1265431999,-1.3520370591,0.4932534707,0.6574882979,-0.2115488585,-1.3282551999,0.7639498327,-0.2322253089,0.1253707913,0.4080550803,0.1220723219,-0.8351169476,-0.8803628719,0.4355625741,-0.706759945,-0.8528471258,0.244686229,-0.4018488403,1.0523227502,0.5214447551,-0.4113160882,-0.4013768343,1.026806327,-0.6438389059,0.6346228496,-0.3052258507,0.0107408682,0.0508493172,0.6178496958,-0.0507126318,0.5381255227,0.7955900509,-0.3395125668,0.7383757552,0.164540862,0.9887142889,0.3305535702,-0.4458488831,1.3617788812,0.3982462896,0.1529463574,0.9349947928,-0.8099724577,0.1902630445,0.5486031601,-1.4510196286,0.3978326401,-0.5014802537,-0.7138256693,0.7466314788,0.6656590032,-0.3680007769,0.4069770563,-0.755833837,0.2812081101,2.9874949676,2.4437859584,0.3384320339,-0.9113984096,-0.7617901379,-0.9505468256,-0.6148443951,0.0940994773,-0.6367751464,-0.3833832708,-1.2967359797,0.4600907898,0.1787892853,-0.9104884748,0.1202800944,-0.5887320358,0.2168252602,-0.6494204569,-0.2603844931,-0.3220821984,0.6671508164,5.8754240007,0.5152325273,0.8261469632,0.145527588,-0.9587762032,0.4161531652,-0.5972437665,-0.4285504444,-0.7742488038,0.5211625744,0.4520649707,-0.0296604055,-1.6471763627,-2.0133008132,0.2689849309,-0.0476186504,-0.3010023801,-0.0835996133,0.0635685216,1.7352504199,0.3999584432,1.651507752,-0.383421505,-0.3878578955,0.0246976098,-0.8303600661,-0.9648897233,0.7938199802,-0.9570604592,-0.930027573,-1.0542042605,0.5407580611,-1.4646851102,0.5323237128,0.8051201803,-1.4377002632,-7.3388414547,0.0095728272,-0.0235267482,-0.1484926251,0.0219837435,-0.9167426519,-0.9578508685,0.3081506179,0.3837912539,-0.1850677861,0.4610074498,0.3944864972,-1.0603840433,-0.9694679875,-0.3780913343,-0.8073434333,0.3655265381,3.6102655124,-6.138463484,-1.2520479642,0.2699481784,-1.3520133544,-0.4403500832,-0.6320639225,-0.2922714708,-0.5895928816,-0.9851197441,0.170043156,-0.0352037437,0.6730611034,0.2377559497,0.5722294088,-0.3474326105,-0.9959830975,-0.39094027,0.526420864,-0.5345952608,-0.7367159929,-0.6106760703,0.3592748381,0.1959459733,0.4217735357,-0.4177084084,0.2602351507,-0.0455821244,-0.9017857903,-0.0551029695,-0.6811015553,-0.0239373014,0.372428851,-0.5514414753,-1.0312109985,-0.7846792839,-0.3212508384,0.9359729105,-0.5529328961,0.6921101941,0.5473878539,-0.6838595919,-0.3099944983,-0.5619495639,0.6893179679,0.0388332133,0.6200962911,-0.3389679183,-0.6397598756,-0.3537749196,-0.2727849403,-0.792151436,-0.5206355318,0.6084860291,-0.2390128082,0.386708308,0.8847033319,-0.7970369296,-0.5587826111,0.4304044066,0.9090410083,-2.3554688089,-0.0342822019,-1.7994405033,-0.4322122767,-1.3212058606,3.8340753226,-17.7585222202,-0.6862197455,-0.2301043724,0.2814483088,0.345171229,-0.2840173379,-0.0696143644,-0.86543139,0.4813164067,-0.3900178197,0.3460894187,-1.1668095371,0.3188636293,0.2761773245,-0.2785183324,5.5130791338,0.644340853,1.2389810993,0.4470773569,1.2530629053,-2.109398834,-11.7224324347,2.5613683373,-0.5898211762,-0.8857246456,0.0108727927,0.7778879988,-0.7416825485,0.1592017992,-0.3383152789,-0.8507826606,0.1730386219,-0.2602246256,-0.0528236367,0.3224675471,-0.6414936353,-0.0561033891,-0.6451200207,0.452911037,4.2895233366,-0.6425363024,-1.1202413903,0.5101707069,-0.9233580483,-0.7417563177,0.9213894971,0.7744737382,0.0244479129,0.7330568896,0.0791680055,-0.4915231227,-0.5636072389,-0.2964267143,-0.5230632184,-1.2686822877,-0.0565827065,1.021972512,0.2588644406,0.7910350706,0.6419956469,-0.3150925194,3.0413318825,0.1369569171,0.9922671141,0.4045831487,1.0244418972,-0.2738279724,0.1628049531,-0.7417870249,-0.9070488326,0.501243867,0.1730541087,-0.2763336295,-0.7668441628,0.7300476672,0.1989196086,0.9448987358,-0.3319641071,-0.3033820071,-0.6957125022,-0.0352381878,1.4656591983,0.8634498252,-0.9017660708,1.023609137,1.0845820229,-0.7678117469,-0.2723754115,0.4394367952,1.026177478,-0.4775540069,-0.8601662445,2.8097683026,-0.7031484456,-2.0462985542,0.5274518895,0.8603709334,-0.0262491118,-0.7282846965,-0.8819835572,-0.5196086619,8.1620143368,-0.9681912681,2.0219849528,-0.3672435112,1.2127914196,0.1835026456,0.4508347015,0.4473642897,0.0409169011,-0.6121855279,-0.7757935411,-1.0619797575,0.3577885122,-0.0986244009,-0.4914565988,-1.1125657641,-0.3150805022,-0.9621200918,-0.3240713902,0.605669644,2.1492497766,0.1600344873,10.1673358595,-0.9361789925,-0.2517835994,0.8239578077,-0.4007203162,0.6259196256,-0.7163882648,0.0139074288,1.0052160365,0.3909013016,-0.9765238115,-11.5806733337,-0.7331675812,-0.2414771159,0.0480243356,-1.0727974217,-13.3968111718,0.7497020252,0.4209011218,1.5811366327,0.0573573033,-0.0448968713,-0.1069097124,0.302776403,0.3213376241,0.6582247963,0.8577473558,0.6954966095,-0.2191927471,-0.4875767123,0.0452054953,-0.6613310009,-0.7703905507,0.3326291866,-0.3700502121,-0.2685006648,-2.5418191893,-0.0283699399,0.89227273,2.4657938332,0.4560345229,-0.4198838826,0.3240401781,0.7407886752,-0.243371787,0.3494402515,0.8137948969,0.3137397974,-0.1820935368,3.0720530942,-0.7826784336,-0.2638851337,0.387917151,-0.4051200637,-1.1330082787,-0.2472913238,-16.2564605184,-0.1676722829,-11.2071036048,-0.8809022839,-0.5512621645,-0.9401696605,1.0213704821,0.5569604402,-0.7888688195,0.1974070304,0.1116735657,-0.9290780987,-0.8501464087,0.6953190863,0.4493344187,0.2194491374,0.2911674069,-0.2953982049,0.4544247171,-0.5406193391,-14.2680225161,-0.0943430281,-26.3057309742,-6.9637237709,0.1024748078,-0.8614916267,0.3029635682,0.4075359281,-0.6366953303,-0.47636657,0.2820652605,0.6056067423,0.2963980056,0.500864072,0.1057485171,0.5865979972,-0.8695391182,0.6970674957,-0.4839783523,-0.5674380499,0.3252708556,0.5329104225,-2.12191736,-0.5782317834,0.6285855552,0.8455702643,0.7383410015,-0.6749663643,-0.8112613782,0.7121815072,0.9491218981,-0.3371310031,-0.0520038914,0.4549188793,0.6089206105,-0.6159967236,-0.7742729075,-0.7818560576,-0.5280666836,0.471043778,0.2427747501,0.9066455115,-0.0177346772,0.8149139436,-0.3587529873,1.0132893385,0.7675748863,0.7227509065,0.2223780701,0.5486738217,0.5235941232,-0.0432830838,-0.3488730914,0.2002475876,0.5987433215,1.0753847558,0.5267381226,-0.0873128953,0.0412640111,0.6231871574,0.7966422515,0.4420189807,-0.6106623129,0.2144857068,-0.1313998674,0.586228693,0.4562028375,0.3730865179,-0.7464528232,-0.2937089136,-0.3211201609,0.1441306496,-1.3029734253,-0.9967882823,-0.0492246619,0.9388642696,0.5861120645,0.0272851587,0.9226058197
